{"learner":{"attributes":{"best_iteration":"36","best_score":"0.7078453698335301","scikit_learn":"{\"_estimator_type\": \"classifier\"}"},"feature_names":["rsi_14","macd_signal","macd_histogram","sma20_sma50_ratio","sma50_sma200_ratio","bollinger_pct_b","adx","atr_normalized","stoch_k","stoch_d","obv_slope_5d","volume_ratio_20d","best_pattern_confidence","best_pattern_direction","num_active_patterns","days_since_pattern","pe_ratio","forward_pe","peg_ratio","price_to_book","profit_margin","operating_margin","roe","debt_to_equity","fcf_to_mcap","revenue_per_share","earnings_per_share","beta","dividend_yield","value_score","quality_score","growth_score","safety_score","news_positive","news_negative","news_neutral","reddit_positive","reddit_negative","reddit_neutral","stocktwits_positive","stocktwits_negative","stocktwits_neutral","sentiment_sample_size"],"feature_types":["float","float","float","float","float","float","float","float","float","float","float","float","float","float","float","float","float","float","float","float","float","float","float","float","float","float","float","float","float","float","float","float","float","float","float","float","float","float","float","float","float","float","float"],"gradient_booster":{"model":{"cats":{"enc":[],"feature_segments":[],"sorted_idx":[]},"gbtree_model_param":{"num_parallel_tree":"1","num_trees":"87"},"iteration_indptr":[0,1,2,3,4,5,6,7,8,9,10,11,12,13,14,15,16,17,18,19,20,21,22,23,24,25,26,27,28,29,30,31,32,33,34,35,36,37,38,39,40,41,42,43,44,45,46,47,48,49,50,51,52,53,54,55,56,57,58,59,60,61,62,63,64,65,66,67,68,69,70,71,72,73,74,75,76,77,78,79,80,81,82,83,84,85,86,87],"tree_info":[0,0,0,0,0,0,0,0,0,0,0,0,0,0,0,0,0,0,0,0,0,0,0,0,0,0,0,0,0,0,0,0,0,0,0,0,0,0,0,0,0,0,0,0,0,0,0,0,0,0,0,0,0,0,0,0,0,0,0,0,0,0,0,0,0,0,0,0,0,0,0,0,0,0,0,0,0,0,0,0,0,0,0,0,0,0,0],"trees":[{"base_weights":[3.5360384E-7,-1.1954851E0,4.0834075E-1,-1.6713816E0,-6.83237E-1,-4.2761706E-2,5.9992707E-1,-1.8623009E0,-1.3819344E0,-8.7181354E-1,-5.4991776E-1,-2.0842521E-1,1.3888156E-1,4.3000644E-1,6.5790707E-1,3.5871595E-2,-1.8823653E0,-1.5168935E0,-1.2549284E0,-5.695152E-1,-9.3009835E-1,-5.08701E-1,-9.3692976E-1,1.0516347E-1,-2.505142E-1,3.5378057E-1,7.868451E-2,6.039804E-1,4.0316737E-1,2.4060456E-1,6.7613894E-1,-9.591695E-1,6.592784E-1,-1.9404222E0,-1.7502135E0,-1.2288795E0,-1.6004987E0,-1.2795011E0,-4.0970773E-1,-2.0531762E-1,-6.546015E-1,-1.0334219E0,-8.3846897E-1,-5.551015E-1,-1.0411001E-1,-4.4536248E-1,-1.0480641E0,1.9642694E-1,-7.471931E-2,-3.310564E-1,-1.0668093E-1,4.1441405E-1,1.166055E-1,1.4270556E-2,1.6656806E-1,6.420409E-1,2.3877764E-1,3.6513072E-1,5.2625024E-1,7.179805E-2,3.8856998E-1,8.183611E-1,6.221092E-1,-6.164338E-2,5.7067968E-2,1.9958992E-3,6.902336E-2,-3.982423E-2,-9.7434275E-2,1.9930912E-2,-8.820946E-2,5.3245343E-2,-6.263789E-2,-8.224287E-2,-6.673243E-2,-6.47951E-2,-9.334215E-3,-3.55617E-2,1.952886E-2,-4.190103E-2,1.8449071E-3,-4.4940658E-2,-2.2420924E-2,-6.2093545E-2,-4.8227336E-2,-4.3612506E-2,-2.6369914E-2,-3.6125135E-2,-2.3981808E-2,7.1194293E-3,-1.2425075E-2,-9.799351E-2,-1.717178E-2,-5.6887753E-2,-2.4347242E-2,1.4676569E-3,1.600364E-2,-2.0035338E-2,4.4393702E-3,-2.0065865E-2,-1.0725949E-2,-1.031992E-2,-6.635617E-4,1.2997779E-2,2.4933927E-2,1.5356247E-2,-1.30432E-2,2.8771241E-3,-5.965411E-3,6.1311405E-3,1.9189779E-2,2.3963131E-2,3.5220835E-2,-2.7630355E-3,2.3089986E-2,2.3933548E-2,1.625276E-2,2.2843676E-2,3.3077057E-2,-2.5380373E-2,6.3823955E-3,1.6409244E-2,5.2497465E-2,3.6501337E-2,4.678624E-2,2.4706816E-2,3.3513125E-2],"categories":[],"categories_nodes":[],"categories_segments":[],"categories_sizes":[],"default_left":[0,0,0,0,0,0,0,0,0,0,0,0,0,0,0,0,0,0,0,0,0,0,0,0,0,0,0,0,0,0,0,0,0,0,0,0,0,0,0,0,0,0,0,0,0,0,0,0,0,0,0,0,0,0,0,0,0,0,0,0,0,0,0,0,0,0,0,0,0,0,0,0,0,0,0,0,0,0,0,0,0,0,0,0,0,0,0,0,0,0,0,0,0,0,0,0,0,0,0,0,0,0,0,0,0,0,0,0,0,0,0,0,0,0,0,0,0,0,0,0,0,0,0,0,0,0,0],"id":0,"left_children":[1,3,5,7,9,11,13,15,17,19,21,23,25,27,29,31,33,35,37,39,41,43,45,47,49,51,53,55,57,59,61,63,65,67,69,71,73,75,77,79,81,83,85,87,89,91,93,95,97,99,101,103,105,107,109,111,113,115,117,119,121,123,125,-1,-1,-1,-1,-1,-1,-1,-1,-1,-1,-1,-1,-1,-1,-1,-1,-1,-1,-1,-1,-1,-1,-1,-1,-1,-1,-1,-1,-1,-1,-1,-1,-1,-1,-1,-1,-1,-1,-1,-1,-1,-1,-1,-1,-1,-1,-1,-1,-1,-1,-1,-1,-1,-1,-1,-1,-1,-1,-1,-1,-1,-1,-1,-1],"loss_changes":[2.1168431E5,2.6912969E4,2.7935035E4,3.1601562E3,1.3363418E3,2.89953E3,2.234875E3,1.3133672E3,3.880586E2,3.874668E2,4.9645996E2,6.651699E2,5.945466E2,2.692754E2,1.2867969E3,2.249792E2,2.5840625E2,2.6350977E2,2.4302539E2,1.1024768E2,1.7390234E2,5.2853906E2,1.6327466E2,9.792677E1,5.146907E2,1.4458093E2,2.0325644E2,1.0705029E2,2.3393848E2,1.768743E2,1.2448828E3,8.173178E1,9.953086E1,2.2245312E2,3.1378516E2,1.3742578E2,9.85332E1,2.0398828E2,8.057447E1,1.03635666E2,1.4496484E2,1.23305664E2,1.02404785E2,3.1876025E2,1.0318799E2,8.491207E1,1.2243945E2,8.173425E1,1.0707318E2,2.3312524E2,1.4857188E2,1.0411206E2,1.474356E2,1.1977557E2,1.4492126E2,7.057446E1,4.7865124E1,1.7369336E2,1.1048999E2,1.0715826E2,1.5037878E2,4.618672E2,7.2346875E2,0E0,0E0,0E0,0E0,0E0,0E0,0E0,0E0,0E0,0E0,0E0,0E0,0E0,0E0,0E0,0E0,0E0,0E0,0E0,0E0,0E0,0E0,0E0,0E0,0E0,0E0,0E0,0E0,0E0,0E0,0E0,0E0,0E0,0E0,0E0,0E0,0E0,0E0,0E0,0E0,0E0,0E0,0E0,0E0,0E0,0E0,0E0,0E0,0E0,0E0,0E0,0E0,0E0,0E0,0E0,0E0,0E0,0E0,0E0,0E0,0E0,0E0,0E0,0E0],"parents":[2147483647,0,0,1,1,2,2,3,3,4,4,5,5,6,6,7,7,8,8,9,9,10,10,11,11,12,12,13,13,14,14,15,15,16,16,17,17,18,18,19,19,20,20,21,21,22,22,23,23,24,24,25,25,26,26,27,27,28,28,29,29,30,30,31,31,32,32,33,33,34,34,35,35,36,36,37,37,38,38,39,39,40,40,41,41,42,42,43,43,44,44,45,45,46,46,47,47,48,48,49,49,50,50,51,51,52,52,53,53,54,54,55,55,56,56,57,57,58,58,59,59,60,60,61,61,62,62],"right_children":[2,4,6,8,10,12,14,16,18,20,22,24,26,28,30,32,34,36,38,40,42,44,46,48,50,52,54,56,58,60,62,64,66,68,70,72,74,76,78,80,82,84,86,88,90,92,94,96,98,100,102,104,106,108,110,112,114,116,118,120,122,124,126,-1,-1,-1,-1,-1,-1,-1,-1,-1,-1,-1,-1,-1,-1,-1,-1,-1,-1,-1,-1,-1,-1,-1,-1,-1,-1,-1,-1,-1,-1,-1,-1,-1,-1,-1,-1,-1,-1,-1,-1,-1,-1,-1,-1,-1,-1,-1,-1,-1,-1,-1,-1,-1,-1,-1,-1,-1,-1,-1,-1,-1,-1,-1,-1],"split_conditions":[-3.5942975E-1,-4.7577062E-1,-9.876558E-2,-5.4186714E-1,-4.2580584E-1,-2.3801798E-1,1.05368294E-1,-3.967956E-1,-5.05922E-1,-1.0383929E-1,-4.006304E-3,-4.2313802E-1,-4.3654257E-1,-9.207732E-1,8.369166E-3,-5.758558E-1,-5.821654E-1,4.530836E-2,8.017764E-1,-4.098697E-1,-4.5192808E-1,1.2688427E0,-2.2379991E-1,-4.291311E-3,2.5559834E-3,9.885507E-3,-1.6404492E-1,-4.171521E-3,5.525749E-1,1.936653E-3,-8.602007E-1,-4.269858E-3,1.127614E0,-2.4177453E-1,-2.3905149E0,-6.922804E-1,5.186979E-1,2.7109377E0,1.19433574E-1,-1.9057302E-1,1.1501708E-2,-2.8041258E-1,5.8992374E-1,-2.5824216E-1,-6.560411E-1,-1.6240135E-1,6.960935E-1,-1.7803717E-1,-4.734224E-1,-2.8917712E-1,5.5271387E-2,-2.518215E-1,8.8820344E-1,5.562793E-1,3.8798243E-2,-3.5625216E-1,-1.8763515E-1,-4.83316E-2,-2.3942923E-3,-3.5481088E0,8.9123285E-1,6.927584E-1,-4.7519386E-1,-6.164338E-2,5.7067968E-2,1.9958992E-3,6.902336E-2,-3.982423E-2,-9.7434275E-2,1.9930912E-2,-8.820946E-2,5.3245343E-2,-6.263789E-2,-8.224287E-2,-6.673243E-2,-6.47951E-2,-9.334215E-3,-3.55617E-2,1.952886E-2,-4.190103E-2,1.8449071E-3,-4.4940658E-2,-2.2420924E-2,-6.2093545E-2,-4.8227336E-2,-4.3612506E-2,-2.6369914E-2,-3.6125135E-2,-2.3981808E-2,7.1194293E-3,-1.2425075E-2,-9.799351E-2,-1.717178E-2,-5.6887753E-2,-2.4347242E-2,1.4676569E-3,1.600364E-2,-2.0035338E-2,4.4393702E-3,-2.0065865E-2,-1.0725949E-2,-1.031992E-2,-6.635617E-4,1.2997779E-2,2.4933927E-2,1.5356247E-2,-1.30432E-2,2.8771241E-3,-5.965411E-3,6.1311405E-3,1.9189779E-2,2.3963131E-2,3.5220835E-2,-2.7630355E-3,2.3089986E-2,2.3933548E-2,1.625276E-2,2.2843676E-2,3.3077057E-2,-2.5380373E-2,6.3823955E-3,1.6409244E-2,5.2497465E-2,3.6501337E-2,4.678624E-2,2.4706816E-2,3.3513125E-2],"split_indices":[7,7,7,7,7,7,7,4,7,4,2,4,4,4,1,5,7,4,4,4,7,5,4,2,11,1,7,2,3,1,0,2,6,3,0,3,4,6,11,0,3,11,3,11,6,10,4,11,6,7,0,11,5,6,10,11,11,10,11,4,4,7,11,0,0,0,0,0,0,0,0,0,0,0,0,0,0,0,0,0,0,0,0,0,0,0,0,0,0,0,0,0,0,0,0,0,0,0,0,0,0,0,0,0,0,0,0,0,0,0,0,0,0,0,0,0,0,0,0,0,0,0,0,0,0,0,0],"split_type":[0,0,0,0,0,0,0,0,0,0,0,0,0,0,0,0,0,0,0,0,0,0,0,0,0,0,0,0,0,0,0,0,0,0,0,0,0,0,0,0,0,0,0,0,0,0,0,0,0,0,0,0,0,0,0,0,0,0,0,0,0,0,0,0,0,0,0,0,0,0,0,0,0,0,0,0,0,0,0,0,0,0,0,0,0,0,0,0,0,0,0,0,0,0,0,0,0,0,0,0,0,0,0,0,0,0,0,0,0,0,0,0,0,0,0,0,0,0,0,0,0,0,0,0,0,0,0],"sum_hessian":[4.3363072E5,1.104036E5,3.2322712E5,5.723138E4,5.317222E4,9.635463E4,2.2687248E5,3.4481777E4,2.2749602E4,2.201999E4,3.1152229E4,5.0393902E4,4.596073E4,5.7720594E4,1.6915189E5,3.6066577E2,3.4121113E4,1.1024167E4,1.1725434E4,3.5610635E3,1.8458928E4,2.8155941E4,2.9962866E3,5.963167E3,4.4430734E4,1.0056149E4,3.590458E4,7.7116025E3,5.0008992E4,7.081453E3,1.6207044E5,1.3871669E2,2.2194908E2,2.3696902E4,1.042421E4,2.483696E3,8.540472E3,1.1393677E4,3.3175754E2,6.750478E2,2.8860156E3,8.671008E3,9.78792E3,2.525877E4,2.897172E3,5.5341925E2,2.4428674E3,3.956E3,2.0071672E3,2.848097E4,1.5949765E4,8.008135E3,2.048015E3,2.0719473E4,1.5185105E4,6.983085E3,7.285176E2,3.820604E4,1.180295E4,3.3084685E3,3.7729846E3,4.4615426E4,1.17455016E5,1.2309104E2,1.5625648E1,1.1997194E2,1.01977135E2,1.7064702E2,2.3526256E4,6.718131E1,1.0357028E4,2.5139832E1,2.4585562E3,7.314773E3,1.2256981E3,1.1225025E4,1.6865096E2,2.4104822E2,9.070932E1,1.8620177E2,4.8884604E2,1.3196312E3,1.5663844E3,2.149267E3,6.52174E3,8.827484E3,9.604357E2,7.845939E3,1.741283E4,1.070196E3,1.8269761E3,3.374733E1,5.196719E2,2.105319E3,3.3754813E2,1.6830509E3,2.272949E3,6.699735E2,1.3371937E3,1.7766832E4,1.0714137E4,7.7138276E3,8.235937E3,2.8281555E3,5.1799795E3,1.361177E3,6.868379E2,1.5650251E4,5.0692217E3,1.2631343E4,2.553763E3,1.9369717E3,5.0461133E3,3.145537E2,4.139639E2,9.964403E3,2.8241637E4,7.8049644E3,3.997986E3,2.9016003E2,3.0183083E3,3.4586958E3,3.142889E2,2.5460025E4,1.91554E4,3.2115553E4,8.533946E4],"tree_param":{"num_deleted":"0","num_feature":"43","num_nodes":"127","size_leaf_vector":"1"}},{"base_weights":[3.082599E-7,-1.126137E0,3.916093E-1,-1.5795531E0,-6.3069755E-1,-3.540172E-2,5.702314E-1,-1.7716715E0,-1.3033919E0,-8.115881E-1,-5.154828E-1,-1.9268778E-1,1.3195205E-1,4.193291E-1,6.2954885E-1,3.4300137E-2,-1.7907743E0,-1.4422163E0,-1.1851573E0,-5.294959E-1,-8.6658376E-1,-4.6953827E-1,-8.346848E-1,1.1077516E-1,-2.3188283E-1,3.361856E-1,7.475476E-2,5.9293854E-1,3.9109665E-1,2.5006613E-1,6.4904743E-1,-9.116999E-1,6.2717867E-1,-1.8462012E0,-1.664653E0,-1.1679455E0,-1.5218691E0,-1.208113E0,-4.0707102E-1,-1.6779698E-1,-6.155172E-1,-8.991595E-1,-5.973766E-1,-5.108221E-1,-7.211969E-2,-3.576948E-1,-9.221655E-1,-2.5434125E-2,2.1167071E-1,-3.1211108E-1,-8.9243025E-2,3.938191E-1,1.1078913E-1,1.3557226E-2,1.5825726E-1,6.288312E-1,2.5443748E-1,3.33776E-1,4.7283998E-1,1.2240802E-1,5.0294936E-1,7.7573735E-1,5.899855E-1,-5.8609523E-2,5.445518E-2,1.8969631E-3,6.572544E-2,-3.6422063E-2,-9.269434E-2,1.8954273E-2,-8.3897844E-2,5.0743777E-2,-5.953263E-2,-7.820708E-2,-6.343172E-2,-6.113372E-2,-1.073534E-2,-2.5157744E-2,7.330429E-2,-3.921911E-2,2.9530793E-3,-4.3127008E-2,-2.0419797E-2,-4.63663E-2,-2.857895E-2,-5.313117E-2,-2.4809098E-2,-6.269467E-3,-2.7009455E-2,-9.617622E-3,8.425816E-3,-5.2402664E-2,-8.665332E-3,-4.987835E-2,-2.2629332E-2,6.466076E-5,-4.8277773E-2,1.6557714E-2,1.0906594E-3,-1.3076666E-2,-2.3602892E-2,2.5845584E-3,-7.885236E-3,1.2350119E-2,2.369661E-2,1.4591919E-2,-1.2391051E-2,2.1802718E-3,-8.206069E-3,5.82499E-3,1.8235566E-2,2.463321E-2,3.4496408E-2,-1.3667816E-2,1.6955443E-2,1.5962154E-2,3.3080716E-2,2.1473262E-2,3.1051606E-2,1.441962E-2,-1.1262409E-3,5.288602E-2,2.1328494E-2,3.4753036E-2,4.4142228E-2,2.4184287E-2,3.2271426E-2],"categories":[],"categories_nodes":[],"categories_segments":[],"categories_sizes":[],"default_left":[0,0,0,0,0,0,0,0,0,0,0,0,0,0,0,0,0,0,0,0,0,0,0,0,0,0,0,0,0,0,0,0,0,0,0,0,0,0,0,0,0,0,0,0,0,0,0,0,0,0,0,0,0,0,0,0,0,0,0,0,0,0,0,0,0,0,0,0,0,0,0,0,0,0,0,0,0,0,0,0,0,0,0,0,0,0,0,0,0,0,0,0,0,0,0,0,0,0,0,0,0,0,0,0,0,0,0,0,0,0,0,0,0,0,0,0,0,0,0,0,0,0,0,0,0,0,0],"id":1,"left_children":[1,3,5,7,9,11,13,15,17,19,21,23,25,27,29,31,33,35,37,39,41,43,45,47,49,51,53,55,57,59,61,63,65,67,69,71,73,75,77,79,81,83,85,87,89,91,93,95,97,99,101,103,105,107,109,111,113,115,117,119,121,123,125,-1,-1,-1,-1,-1,-1,-1,-1,-1,-1,-1,-1,-1,-1,-1,-1,-1,-1,-1,-1,-1,-1,-1,-1,-1,-1,-1,-1,-1,-1,-1,-1,-1,-1,-1,-1,-1,-1,-1,-1,-1,-1,-1,-1,-1,-1,-1,-1,-1,-1,-1,-1,-1,-1,-1,-1,-1,-1,-1,-1,-1,-1,-1,-1],"loss_changes":[1.9115412E5,2.5122531E4,2.4530508E4,3.095875E3,1.1134336E3,2.4968464E3,2.0294688E3,1.1880469E3,3.9158594E2,3.2212988E2,4.7846777E2,5.81641E2,5.368315E2,3.1339453E2,1.2042461E3,2.0327312E2,2.3511719E2,2.3889258E2,2.3074219E2,1.0552887E2,1.5205078E2,4.6831445E2,1.7105078E2,7.6883095E1,4.9555347E2,1.305686E2,1.83472E2,1.0855737E2,2.5773438E2,2.5679263E2,1.157957E3,7.405912E1,9.016958E1,2.0192969E2,2.8376758E2,1.2431128E2,8.936914E1,1.8163086E2,6.778053E1,9.147984E1,1.3995715E2,1.4266309E2,8.8038635E1,2.9263428E2,7.778678E1,8.105127E1,1.224104E2,5.9836334E1,7.289465E1,2.24094E2,1.5043652E2,9.405774E1,1.3309286E2,1.1063107E2,1.308642E2,6.696094E1,3.8504185E1,1.5394897E2,1.4554395E2,1.27233376E2,1.1263324E2,4.247207E2,6.2201953E2,0E0,0E0,0E0,0E0,0E0,0E0,0E0,0E0,0E0,0E0,0E0,0E0,0E0,0E0,0E0,0E0,0E0,0E0,0E0,0E0,0E0,0E0,0E0,0E0,0E0,0E0,0E0,0E0,0E0,0E0,0E0,0E0,0E0,0E0,0E0,0E0,0E0,0E0,0E0,0E0,0E0,0E0,0E0,0E0,0E0,0E0,0E0,0E0,0E0,0E0,0E0,0E0,0E0,0E0,0E0,0E0,0E0,0E0,0E0,0E0,0E0,0E0,0E0,0E0],"parents":[2147483647,0,0,1,1,2,2,3,3,4,4,5,5,6,6,7,7,8,8,9,9,10,10,11,11,12,12,13,13,14,14,15,15,16,16,17,17,18,18,19,19,20,20,21,21,22,22,23,23,24,24,25,25,26,26,27,27,28,28,29,29,30,30,31,31,32,32,33,33,34,34,35,35,36,36,37,37,38,38,39,39,40,40,41,41,42,42,43,43,44,44,45,45,46,46,47,47,48,48,49,49,50,50,51,51,52,52,53,53,54,54,55,55,56,56,57,57,58,58,59,59,60,60,61,61,62,62],"right_children":[2,4,6,8,10,12,14,16,18,20,22,24,26,28,30,32,34,36,38,40,42,44,46,48,50,52,54,56,58,60,62,64,66,68,70,72,74,76,78,80,82,84,86,88,90,92,94,96,98,100,102,104,106,108,110,112,114,116,118,120,122,124,126,-1,-1,-1,-1,-1,-1,-1,-1,-1,-1,-1,-1,-1,-1,-1,-1,-1,-1,-1,-1,-1,-1,-1,-1,-1,-1,-1,-1,-1,-1,-1,-1,-1,-1,-1,-1,-1,-1,-1,-1,-1,-1,-1,-1,-1,-1,-1,-1,-1,-1,-1,-1,-1,-1,-1,-1,-1,-1,-1,-1,-1,-1,-1,-1],"split_conditions":[-3.5622248E-1,-4.7271892E-1,-9.876558E-2,-5.4186714E-1,-4.2580584E-1,-2.3801798E-1,1.2958713E-1,-3.967956E-1,-5.05922E-1,-1.0383929E-1,-4.0948037E-3,-4.3654257E-1,-4.3654257E-1,-9.207732E-1,8.695248E-3,-5.758558E-1,-5.821654E-1,4.530836E-2,8.017764E-1,-4.098697E-1,6.6706187E-1,1.2688427E0,-2.724927E-1,-1.7803717E-1,2.5559834E-3,9.885507E-3,-1.6404492E-1,-4.179581E-3,-6.46996E-2,-1.333044E0,-7.36997E-1,-4.269858E-3,1.127614E0,-2.5002006E-1,-2.3905149E0,-6.922804E-1,5.186979E-1,2.7109377E0,2.009923E0,-1.9057302E-1,1.1501708E-2,5.8992374E-1,-8.037921E-1,-3.7205994E-1,1.7023945E0,-3.5021495E-2,6.815109E-1,9.715772E-1,-4.308926E-3,5.8506817E-1,1.9077263E-3,-2.518215E-1,8.8820344E-1,-4.19445E-3,3.8798243E-2,-3.321704E-1,8.695248E-3,1.5703104E0,5.525749E-1,-1.2239772E0,-9.824027E-2,6.927584E-1,-4.1268808E-1,-5.8609523E-2,5.445518E-2,1.8969631E-3,6.572544E-2,-3.6422063E-2,-9.269434E-2,1.8954273E-2,-8.3897844E-2,5.0743777E-2,-5.953263E-2,-7.820708E-2,-6.343172E-2,-6.113372E-2,-1.073534E-2,-2.5157744E-2,7.330429E-2,-3.921911E-2,2.9530793E-3,-4.3127008E-2,-2.0419797E-2,-4.63663E-2,-2.857895E-2,-5.313117E-2,-2.4809098E-2,-6.269467E-3,-2.7009455E-2,-9.617622E-3,8.425816E-3,-5.2402664E-2,-8.665332E-3,-4.987835E-2,-2.2629332E-2,6.466076E-5,-4.8277773E-2,1.6557714E-2,1.0906594E-3,-1.3076666E-2,-2.3602892E-2,2.5845584E-3,-7.885236E-3,1.2350119E-2,2.369661E-2,1.4591919E-2,-1.2391051E-2,2.1802718E-3,-8.206069E-3,5.82499E-3,1.8235566E-2,2.463321E-2,3.4496408E-2,-1.3667816E-2,1.6955443E-2,1.5962154E-2,3.3080716E-2,2.1473262E-2,3.1051606E-2,1.441962E-2,-1.1262409E-3,5.288602E-2,2.1328494E-2,3.4753036E-2,4.4142228E-2,2.4184287E-2,3.2271426E-2],"split_indices":[7,7,7,7,7,7,7,4,7,4,2,4,4,4,1,5,7,4,4,4,4,5,4,11,11,1,7,2,11,4,0,2,6,3,0,3,4,6,4,0,3,3,6,4,5,10,4,3,2,6,4,11,5,2,10,11,1,3,3,9,10,7,11,0,0,0,0,0,0,0,0,0,0,0,0,0,0,0,0,0,0,0,0,0,0,0,0,0,0,0,0,0,0,0,0,0,0,0,0,0,0,0,0,0,0,0,0,0,0,0,0,0,0,0,0,0,0,0,0,0,0,0,0,0,0,0,0],"split_type":[0,0,0,0,0,0,0,0,0,0,0,0,0,0,0,0,0,0,0,0,0,0,0,0,0,0,0,0,0,0,0,0,0,0,0,0,0,0,0,0,0,0,0,0,0,0,0,0,0,0,0,0,0,0,0,0,0,0,0,0,0,0,0,0,0,0,0,0,0,0,0,0,0,0,0,0,0,0,0,0,0,0,0,0,0,0,0,0,0,0,0,0,0,0,0,0,0,0,0,0,0,0,0,0,0,0,0,0,0,0,0,0,0,0,0,0,0,0,0,0,0,0,0,0,0,0,0],"sum_hessian":[4.3344862E5,1.1183795E5,3.216107E5,5.8394402E4,5.3443555E4,9.485432E4,2.2675636E5,3.443407E4,2.3960334E4,2.079257E4,3.2650982E4,4.889789E4,4.5956426E4,6.3985844E4,1.6277052E5,3.6040964E2,3.407366E4,1.1015444E4,1.2944891E4,3.3940278E3,1.7398543E4,2.8544836E4,4.106146E3,5.5929917E3,4.33049E4,1.0053535E4,3.590289E4,8.947166E3,5.5038676E4,7.9554287E3,1.548151E5,1.3864662E2,2.21763E2,2.366148E4,1.0412179E4,2.4826248E3,8.53282E3,1.2573389E4,3.7150146E2,6.526678E2,2.74136E3,1.5518384E4,1.8801595E3,2.585838E4,2.6864558E3,6.3715234E2,3.4689937E3,2.3803118E3,3.21268E3,2.7715197E4,1.5589701E4,8.0057354E3,2.0477994E3,2.0719266E4,1.5183628E4,8.088638E3,8.585284E2,3.2355324E4,2.2683352E4,5.287651E3,2.6677778E3,4.922137E4,1.0559373E5,1.230416E2,1.5605016E1,1.19969696E2,1.01793304E2,1.6223784E2,2.3499242E4,6.716274E1,1.0345016E4,2.5110134E1,2.4575144E3,7.307759E3,1.2250612E3,1.2391522E4,1.818667E2,3.5407074E2,1.7430727E1,1.748851E2,4.7778268E2,1.2488075E3,1.4925526E3,1.4288021E4,1.230362E3,3.3419275E2,1.5459668E3,1.831093E3,2.4027287E4,1.7915275E3,8.9492834E2,1.3331824E2,5.0383408E2,2.9880676E3,4.80926E2,2.315482E3,6.4829765E1,1.9713196E3,1.2413604E3,2.1058719E4,6.6564775E3,5.097112E3,1.0492589E4,2.8277092E3,5.1780264E3,1.360911E3,6.8688837E2,1.7722816E4,2.9964487E3,1.2630535E4,2.553092E3,2.5080354E3,5.5806025E3,1.18380745E2,7.4014764E2,3.0983799E4,1.3715256E3,1.7550379E4,5.132972E3,2.4643562E3,2.8232944E3,3.212896E2,2.3464883E3,2.8078918E4,2.1142453E4,3.619928E4,6.9394445E4],"tree_param":{"num_deleted":"0","num_feature":"43","num_nodes":"127","size_leaf_vector":"1"}},{"base_weights":[-1.597066E-5,-1.0825552E0,3.689633E-1,-1.5563425E0,-6.553908E-1,-3.849129E-2,5.422431E-1,-1.6924491E0,-1.2962908E0,-8.968116E-1,-5.274269E-1,-1.9318883E-1,1.1985074E-1,4.293887E-1,6.156078E-1,3.284253E-2,-1.7107623E0,-1.0686768E0,-1.358363E0,-1.0430961E0,-7.905432E-1,-4.9026984E-1,-8.506218E-1,9.394876E-2,-2.3117314E-1,3.146736E-1,6.601511E-2,3.426239E-1,4.806579E-1,2.3763402E-1,6.3760346E-1,-8.680913E-1,5.972531E-1,-1.776008E0,-1.6107699E0,-1.1171308E0,3.2836372E-1,-1.4541833E0,-1.2320291E0,-1.0633235E0,-3.1648487E-2,-4.5454243E-1,-8.539075E-1,-5.2831376E-1,-8.574321E-2,-5.6579995E-1,-9.907826E-1,1.1690703E-1,-5.524068E-1,-3.0530342E-1,-9.885218E-2,4.4324306E-1,2.2204447E-1,8.124561E-3,1.5036707E-1,1.023454E-1,3.6115563E-1,3.9661404E-1,5.4447937E-1,1.2644035E-1,4.7877976E-1,7.684882E-1,5.7423323E-1,-5.582392E-2,5.2035224E-2,1.8029409E-3,6.272041E-2,-2.1301877E-2,-8.922931E-2,9.454327E-3,-8.1162E-2,-5.6939412E-2,6.0366313E-3,3.3626918E-2,-5.826057E-2,-8.938449E-3,-7.334454E-2,-6.721963E-2,-5.3534266E-2,-5.7931673E-2,-4.7106694E-2,3.4317963E-2,-2.619797E-2,-1.3077992E-2,-3.8463246E-2,-4.4593643E-2,-2.6352435E-2,-6.2445397E-3,-2.7842844E-2,-1.3053622E-4,-2.4180612E-2,5.4477274E-2,-2.9271979E-2,-5.429978E-2,-2.4027266E-2,4.0794644E-3,2.7639283E-2,6.347403E-2,-4.0364318E-2,-1.2855134E-2,-2.288731E-2,-9.751553E-3,-4.4957185E-4,2.583088E-2,1.4374385E-2,1.526204E-2,-4.619052E-3,2.4163483E-3,-6.062127E-3,4.190863E-3,1.3492036E-2,2.4253877E-2,1.4633156E-3,2.734071E-2,1.6913716E-2,1.9022567E-2,3.4067344E-2,2.4913393E-2,3.3890214E-2,1.3499404E-2,-8.5464166E-4,6.7146565E-3,3.1246914E-2,4.095925E-2,3.2553844E-2,2.2356091E-2,3.1195471E-2],"categories":[],"categories_nodes":[],"categories_segments":[],"categories_sizes":[],"default_left":[0,0,0,0,0,0,0,0,0,0,0,0,0,0,0,0,0,0,0,0,0,0,0,0,0,0,0,0,0,0,0,0,0,0,0,0,0,0,0,0,0,0,0,0,0,0,0,0,0,0,0,0,0,0,0,0,0,0,0,0,0,0,0,0,0,0,0,0,0,0,0,0,0,0,0,0,0,0,0,0,0,0,0,0,0,0,0,0,0,0,0,0,0,0,0,0,0,0,0,0,0,0,0,0,0,0,0,0,0,0,0,0,0,0,0,0,0,0,0,0,0,0,0,0,0,0,0],"id":2,"left_children":[1,3,5,7,9,11,13,15,17,19,21,23,25,27,29,31,33,35,37,39,41,43,45,47,49,51,53,55,57,59,61,63,65,67,69,71,73,75,77,79,81,83,85,87,89,91,93,95,97,99,101,103,105,107,109,111,113,115,117,119,121,123,125,-1,-1,-1,-1,-1,-1,-1,-1,-1,-1,-1,-1,-1,-1,-1,-1,-1,-1,-1,-1,-1,-1,-1,-1,-1,-1,-1,-1,-1,-1,-1,-1,-1,-1,-1,-1,-1,-1,-1,-1,-1,-1,-1,-1,-1,-1,-1,-1,-1,-1,-1,-1,-1,-1,-1,-1,-1,-1,-1,-1,-1,-1,-1,-1],"loss_changes":[1.7293281E5,2.2272531E4,2.2797145E4,1.8446875E3,1.7875293E3,2.3599966E3,1.8754141E3,1.0821719E3,2.5189062E2,3.1083984E2,4.5387598E2,5.315449E2,4.993545E2,3.96875E2,1.1412617E3,1.8393399E2,2.1823438E2,2.6077295E2,1.687168E2,1.7249316E2,2.469375E2,5.221465E2,1.5510498E2,8.4563446E1,4.2215088E2,1.2266193E2,1.8216653E2,1.4759521E2,3.007002E2,2.0242944E2,1.0756445E3,6.7225784E1,8.195989E1,2.3661719E2,3.008828E2,9.981836E1,6.7468254E1,1.294707E2,1.0882031E2,9.440234E1,5.9167866E1,1.1187366E2,1.2079883E2,3.5705664E2,9.651248E1,4.2522675E1,1.26372314E2,8.462021E1,9.1805695E1,2.0257544E2,1.3357903E2,4.917169E1,1.5680981E2,1.1506762E2,1.2069318E2,6.642551E1,1.3057495E2,1.11193115E2,1.9610547E2,1.0652314E2,1.1989191E2,2.5137695E2,5.517285E2,0E0,0E0,0E0,0E0,0E0,0E0,0E0,0E0,0E0,0E0,0E0,0E0,0E0,0E0,0E0,0E0,0E0,0E0,0E0,0E0,0E0,0E0,0E0,0E0,0E0,0E0,0E0,0E0,0E0,0E0,0E0,0E0,0E0,0E0,0E0,0E0,0E0,0E0,0E0,0E0,0E0,0E0,0E0,0E0,0E0,0E0,0E0,0E0,0E0,0E0,0E0,0E0,0E0,0E0,0E0,0E0,0E0,0E0,0E0,0E0,0E0,0E0,0E0,0E0],"parents":[2147483647,0,0,1,1,2,2,3,3,4,4,5,5,6,6,7,7,8,8,9,9,10,10,11,11,12,12,13,13,14,14,15,15,16,16,17,17,18,18,19,19,20,20,21,21,22,22,23,23,24,24,25,25,26,26,27,27,28,28,29,29,30,30,31,31,32,32,33,33,34,34,35,35,36,36,37,37,38,38,39,39,40,40,41,41,42,42,43,43,44,44,45,45,46,46,47,47,48,48,49,49,50,50,51,51,52,52,53,53,54,54,55,55,56,56,57,57,58,58,59,59,60,60,61,61,62,62],"right_children":[2,4,6,8,10,12,14,16,18,20,22,24,26,28,30,32,34,36,38,40,42,44,46,48,50,52,54,56,58,60,62,64,66,68,70,72,74,76,78,80,82,84,86,88,90,92,94,96,98,100,102,104,106,108,110,112,114,116,118,120,122,124,126,-1,-1,-1,-1,-1,-1,-1,-1,-1,-1,-1,-1,-1,-1,-1,-1,-1,-1,-1,-1,-1,-1,-1,-1,-1,-1,-1,-1,-1,-1,-1,-1,-1,-1,-1,-1,-1,-1,-1,-1,-1,-1,-1,-1,-1,-1,-1,-1,-1,-1,-1,-1,-1,-1,-1,-1,-1,-1,-1,-1,-1,-1,-1,-1],"split_conditions":[-3.5942975E-1,-4.875823E-1,-9.876558E-2,-5.4186714E-1,-4.4022077E-1,-2.423706E-1,2.3377535E-1,-3.967956E-1,2.9779904E-2,-4.6677813E-1,-4.0281718E-3,-4.2313802E-1,-4.3654257E-1,1.5111388E-2,8.695248E-3,-5.758558E-1,-5.9468055E-1,2.260839E0,3.2266194E-1,9.1642714E-1,-1.0383929E-1,1.3374768E0,-3.488909E-2,1.6602337E0,2.5559834E-3,-3.1700984E-2,-1.6404492E-1,-5.407914E-1,-2.2648722E-1,-1.333044E0,-7.502532E-1,-4.269858E-3,1.127614E0,-2.5002006E-1,-2.3905149E0,1.0882621E-2,1.0093678E-2,-2.0247529E0,-5.05922E-1,-7.68335E-2,-4.5446134E-3,-5.3276308E-2,6.6706187E-1,-3.7205994E-1,5.141117E-1,-1.2628548E0,6.960935E-1,1.0118977E-2,-4.597107E-3,5.8506817E-1,5.5271387E-2,-4.3402333E-3,9.881013E-3,5.8506817E-1,5.715361E-1,-7.125784E-1,-9.207732E-1,1.456773E-1,4.6783245E-1,-9.3626577E-1,1.936653E-3,-8.5150814E-1,-4.956492E-1,-5.582392E-2,5.2035224E-2,1.8029409E-3,6.272041E-2,-2.1301877E-2,-8.922931E-2,9.454327E-3,-8.1162E-2,-5.6939412E-2,6.0366313E-3,3.3626918E-2,-5.826057E-2,-8.938449E-3,-7.334454E-2,-6.721963E-2,-5.3534266E-2,-5.7931673E-2,-4.7106694E-2,3.4317963E-2,-2.619797E-2,-1.3077992E-2,-3.8463246E-2,-4.4593643E-2,-2.6352435E-2,-6.2445397E-3,-2.7842844E-2,-1.3053622E-4,-2.4180612E-2,5.4477274E-2,-2.9271979E-2,-5.429978E-2,-2.4027266E-2,4.0794644E-3,2.7639283E-2,6.347403E-2,-4.0364318E-2,-1.2855134E-2,-2.288731E-2,-9.751553E-3,-4.4957185E-4,2.583088E-2,1.4374385E-2,1.526204E-2,-4.619052E-3,2.4163483E-3,-6.062127E-3,4.190863E-3,1.3492036E-2,2.4253877E-2,1.4633156E-3,2.734071E-2,1.6913716E-2,1.9022567E-2,3.4067344E-2,2.4913393E-2,3.3890214E-2,1.3499404E-2,-8.5464166E-4,6.7146565E-3,3.1246914E-2,4.095925E-2,3.2553844E-2,2.2356091E-2,3.1195471E-2],"split_indices":[7,7,7,7,7,7,7,4,4,7,2,4,4,7,1,5,7,6,4,4,4,5,4,6,11,10,7,11,11,4,0,2,6,3,0,1,1,0,7,11,2,6,4,4,6,0,4,1,2,6,0,2,1,6,8,3,4,10,3,0,1,5,11,0,0,0,0,0,0,0,0,0,0,0,0,0,0,0,0,0,0,0,0,0,0,0,0,0,0,0,0,0,0,0,0,0,0,0,0,0,0,0,0,0,0,0,0,0,0,0,0,0,0,0,0,0,0,0,0,0,0,0,0,0,0,0,0],"split_type":[0,0,0,0,0,0,0,0,0,0,0,0,0,0,0,0,0,0,0,0,0,0,0,0,0,0,0,0,0,0,0,0,0,0,0,0,0,0,0,0,0,0,0,0,0,0,0,0,0,0,0,0,0,0,0,0,0,0,0,0,0,0,0,0,0,0,0,0,0,0,0,0,0,0,0,0,0,0,0,0,0,0,0,0,0,0,0,0,0,0,0,0,0,0,0,0,0,0,0,0,0,0,0,0,0,0,0,0,0,0,0,0,0,0,0,0,0,0,0,0,0,0,0,0,0,0,0],"sum_hessian":[4.3294203E5,1.1005435E5,3.228877E5,5.2178344E4,5.787601E4,9.6343625E4,2.2654406E5,3.424802E4,1.7930324E4,2.0047584E4,3.7828426E4,4.8732527E4,4.7611094E4,8.925419E4,1.3728989E5,3.5970157E2,3.388832E4,3.845909E3,1.4084415E4,8.431849E3,1.1615734E4,3.3930074E4,3.898353E3,5.693297E3,4.303923E4,1.0306957E4,3.7304137E4,3.315404E4,5.6100145E4,7.550685E3,1.29739195E5,1.3833995E2,2.2136162E2,2.0497082E4,1.3391238E4,3.7171853E3,1.2872379E2,8.0035015E3,6.080913E3,8.266481E3,1.6536795E2,1.8442798E3,9.771455E3,3.1013121E4,2.916953E3,1.2873519E3,2.6110012E3,5.498801E3,1.9449597E2,2.7584332E4,1.54549E4,4.314557E3,5.9924E3,2.2122568E4,1.5181568E4,2.3744158E3,3.0779623E4,2.4216992E4,3.1883154E4,5.168832E3,2.3818533E3,4.2320137E4,8.741906E4,1.2277821E2,1.5561743E1,1.1996734E2,1.0139427E2,1.2974367E2,2.0367338E4,9.2042885E1,1.3299195E4,3.6533467E3,6.383857E1,1.05063095E2,2.3660688E1,7.910418E1,7.9243975E3,3.580231E3,2.5006824E3,4.6225234E3,3.6439575E3,6.710497E1,9.8262985E1,1.14439E3,6.998897E2,8.753042E3,1.0184128E3,2.049614E3,2.8963506E4,2.4136426E3,5.033104E2,1.4455764E1,1.2728961E3,2.1994448E3,4.1155624E2,5.0877456E3,4.1105536E2,2.3381748E1,1.7111421E2,2.0959766E4,6.6245664E3,7.464451E3,7.990449E3,2.9313264E3,1.3832308E3,4.7386045E3,1.2537957E3,1.6878113E4,5.2444536E3,9.751461E3,5.430107E3,3.7978033E2,1.9946354E3,3.3746782E3,2.7404945E4,2.291838E4,1.2986113E3,2.3680152E4,8.203E3,2.5838445E3,2.5849875E3,7.1010284E2,1.6717504E3,2.9553387E4,1.2766752E4,2.4566988E4,6.2852074E4],"tree_param":{"num_deleted":"0","num_feature":"43","num_nodes":"127","size_leaf_vector":"1"}},{"base_weights":[-4.4103574E-5,-1.0517579E0,3.4463018E-1,-1.5101843E0,-6.554852E-1,-6.2404394E-2,5.090859E-1,-1.6283268E0,-1.2751045E0,-9.31032E-1,-5.381839E-1,-2.6242748E-1,4.953957E-2,3.4843412E-1,5.6394905E-1,5.087141E-2,-1.6465064E0,-1.0470263E0,-1.3356731E0,-9.4769907E-1,-6.545831E-2,-4.9915755E-1,-8.2009083E-1,-1.03601925E-1,-3.2813352E-1,2.4262664E-1,-9.535601E-3,2.7656958E-1,3.9836317E-1,6.868501E-1,5.153642E-1,-8.1854224E-1,6.0220164E-1,-1.7038585E0,-1.551377E0,-1.093329E0,2.4707806E-1,-1.4147869E0,-1.2277386E0,-1.0591005E0,-8.427198E-1,3.2229307E-1,-5.3539693E-1,-5.3617734E-1,-1.1991699E-1,-5.72492E-1,-9.3504804E-1,-2.8694797E-1,-1.6508173E-2,-2.8708974E-1,-5.3476465E-1,1.8002933E-1,4.0317494E-1,-9.435203E-2,6.277195E-2,2.6220754E-1,7.0991594E-1,5.7103795E-1,3.7002575E-1,5.6910837E-1,7.3581684E-1,2.2132283E-1,5.3769493E-1,-5.2850354E-2,4.9783487E-2,3.417056E-3,6.0382325E-2,-2.0260086E-2,-8.5609235E-2,-3.783446E-2,-7.863643E-2,-4.5743044E-2,-6.2952824E-2,3.0210575E-2,-7.512635E-2,-6.229937E-2,-7.3126905E-2,-2.3637565E-3,-6.2260892E-2,-5.399958E-2,-2.2088205E-2,-2.9726146E-2,-4.475578E-2,9.3074115E-3,8.946696E-2,-3.925222E-2,2.866651E-2,-1.6421309E-2,-2.9172456E-2,-1.4545058E-2,2.2656387E-3,-3.4892958E-2,-1.5774762E-2,-5.596419E-2,-3.7261162E-2,3.5553344E-3,-1.8612597E-2,-4.709345E-3,9.449986E-3,-1.8144803E-2,-8.658363E-3,-3.7057582E-2,-2.0095183E-2,2.0971952E-2,6.9606462E-3,2.2228522E-2,-4.029051E-3,-8.418889E-3,1.1926922E-3,6.8745296E-4,8.122326E-3,2.0720163E-2,1.1109913E-2,3.282854E-2,6.961819E-2,3.773774E-2,2.5721198E-2,1.6880784E-2,2.4033943E-2,3.432184E-2,2.5329044E-2,4.171096E-2,3.303973E-2,6.4038164E-3,2.0323027E-2,2.4034904E-2,3.0975092E-2],"categories":[],"categories_nodes":[],"categories_segments":[],"categories_sizes":[],"default_left":[0,0,0,0,0,0,0,0,0,0,0,0,0,0,0,0,0,0,0,0,0,0,0,0,0,0,0,0,0,0,0,0,0,0,0,0,0,0,0,0,0,0,0,0,0,0,0,0,0,0,0,0,0,0,0,0,0,0,0,0,0,0,0,0,0,0,0,0,0,0,0,0,0,0,0,0,0,0,0,0,0,0,0,0,0,0,0,0,0,0,0,0,0,0,0,0,0,0,0,0,0,0,0,0,0,0,0,0,0,0,0,0,0,0,0,0,0,0,0,0,0,0,0,0,0,0,0],"id":3,"left_children":[1,3,5,7,9,11,13,15,17,19,21,23,25,27,29,31,33,35,37,39,41,43,45,47,49,51,53,55,57,59,61,63,65,67,69,71,73,75,77,79,81,83,85,87,89,91,93,95,97,99,101,103,105,107,109,111,113,115,117,119,121,123,125,-1,-1,-1,-1,-1,-1,-1,-1,-1,-1,-1,-1,-1,-1,-1,-1,-1,-1,-1,-1,-1,-1,-1,-1,-1,-1,-1,-1,-1,-1,-1,-1,-1,-1,-1,-1,-1,-1,-1,-1,-1,-1,-1,-1,-1,-1,-1,-1,-1,-1,-1,-1,-1,-1,-1,-1,-1,-1,-1,-1,-1,-1,-1,-1],"loss_changes":[1.5665975E5,1.9377398E4,2.1788297E4,1.3714844E3,1.8488555E3,2.0973464E3,2.0431016E3,1.00478906E3,2.2718164E2,2.4639062E2,4.411455E2,3.507229E2,6.8505237E2,2.1165576E2,1.0315195E3,1.6992224E2,1.7499219E2,2.0859497E2,1.09875E2,1.9511621E2,5.9175907E1,4.9491797E2,1.3833545E2,1.5707913E2,2.0147803E2,1.4132812E2,2.8204547E2,1.5041443E2,1.7017627E2,2.8183594E2,8.13125E2,6.057734E1,7.001755E1,2.1883594E2,2.0678906E2,9.813135E1,7.645972E1,5.8918945E1,1.1416797E2,1.043418E2,1.1174463E2,3.5227043E1,4.107295E1,3.1525977E2,8.863356E1,4.970517E1,1.1563696E2,9.678729E1,1.06499176E2,1.7125024E2,1.07704346E2,9.887927E1,7.905786E1,1.85194E2,1.2130248E2,1.4253687E2,2.7323761E1,5.0650146E1,1.0712305E2,1.05180664E2,2.5468555E2,1.5089575E2,5.364375E2,0E0,0E0,0E0,0E0,0E0,0E0,0E0,0E0,0E0,0E0,0E0,0E0,0E0,0E0,0E0,0E0,0E0,0E0,0E0,0E0,0E0,0E0,0E0,0E0,0E0,0E0,0E0,0E0,0E0,0E0,0E0,0E0,0E0,0E0,0E0,0E0,0E0,0E0,0E0,0E0,0E0,0E0,0E0,0E0,0E0,0E0,0E0,0E0,0E0,0E0,0E0,0E0,0E0,0E0,0E0,0E0,0E0,0E0,0E0,0E0,0E0,0E0,0E0,0E0],"parents":[2147483647,0,0,1,1,2,2,3,3,4,4,5,5,6,6,7,7,8,8,9,9,10,10,11,11,12,12,13,13,14,14,15,15,16,16,17,17,18,18,19,19,20,20,21,21,22,22,23,23,24,24,25,25,26,26,27,27,28,28,29,29,30,30,31,31,32,32,33,33,34,34,35,35,36,36,37,37,38,38,39,39,40,40,41,41,42,42,43,43,44,44,45,45,46,46,47,47,48,48,49,49,50,50,51,51,52,52,53,53,54,54,55,55,56,56,57,57,58,58,59,59,60,60,61,61,62,62],"right_children":[2,4,6,8,10,12,14,16,18,20,22,24,26,28,30,32,34,36,38,40,42,44,46,48,50,52,54,56,58,60,62,64,66,68,70,72,74,76,78,80,82,84,86,88,90,92,94,96,98,100,102,104,106,108,110,112,114,116,118,120,122,124,126,-1,-1,-1,-1,-1,-1,-1,-1,-1,-1,-1,-1,-1,-1,-1,-1,-1,-1,-1,-1,-1,-1,-1,-1,-1,-1,-1,-1,-1,-1,-1,-1,-1,-1,-1,-1,-1,-1,-1,-1,-1,-1,-1,-1,-1,-1,-1,-1,-1,-1,-1,-1,-1,-1,-1,-1,-1,-1,-1,-1,-1,-1,-1,-1],"split_conditions":[-3.6561367E-1,-4.935569E-1,-1.1742169E-1,-5.4572105E-1,-4.5192808E-1,-2.8917712E-1,8.940005E-2,-3.967956E-1,2.9779904E-2,9.1642714E-1,-4.0801265E-3,-1.0383929E-1,-3.4845293E-1,-2.2648722E-1,-3.8700987E-2,-5.758558E-1,-5.9468055E-1,2.260839E0,3.2266194E-1,-4.7271892E-1,-4.461672E-3,1.3021722E0,-3.488909E-2,-2.3603193E-1,8.8027006E-1,7.971438E-2,-2.2034293E-1,1.6746415E0,-8.4578294E-1,3.0192688E-1,9.036266E-3,-4.269858E-3,1.127614E0,-2.5002006E-1,-8.111977E-1,-3.6227757E-1,1.0093678E-2,-4.4273287E-3,-8.111977E-1,2.1856146E0,-6.791514E-2,1.8414328E0,2.8898808E-1,-1.2746392E-1,-4.0821713E-1,1.2824436E-1,3.5120252E-1,-6.0312307E-1,2.471582E-1,3.0616438E-1,-3.3667696E-1,-9.7870034E-1,1.789847E0,-2.12921E-2,2.8131703E-2,-6.357615E-1,2.9937546E0,-4.83316E-2,5.525749E-1,-1.4520423E-1,-8.749236E-1,-1.333044E0,-2.5508672E-2,-5.2850354E-2,4.9783487E-2,3.417056E-3,6.0382325E-2,-2.0260086E-2,-8.5609235E-2,-3.783446E-2,-7.863643E-2,-4.5743044E-2,-6.2952824E-2,3.0210575E-2,-7.512635E-2,-6.229937E-2,-7.3126905E-2,-2.3637565E-3,-6.2260892E-2,-5.399958E-2,-2.2088205E-2,-2.9726146E-2,-4.475578E-2,9.3074115E-3,8.946696E-2,-3.925222E-2,2.866651E-2,-1.6421309E-2,-2.9172456E-2,-1.4545058E-2,2.2656387E-3,-3.4892958E-2,-1.5774762E-2,-5.596419E-2,-3.7261162E-2,3.5553344E-3,-1.8612597E-2,-4.709345E-3,9.449986E-3,-1.8144803E-2,-8.658363E-3,-3.7057582E-2,-2.0095183E-2,2.0971952E-2,6.9606462E-3,2.2228522E-2,-4.029051E-3,-8.418889E-3,1.1926922E-3,6.8745296E-4,8.122326E-3,2.0720163E-2,1.1109913E-2,3.282854E-2,6.961819E-2,3.773774E-2,2.5721198E-2,1.6880784E-2,2.4033943E-2,3.432184E-2,2.5329044E-2,4.171096E-2,3.303973E-2,6.4038164E-3,2.0323027E-2,2.4034904E-2,3.0975092E-2],"split_indices":[7,7,7,7,7,7,7,4,4,4,2,4,4,11,10,5,7,6,4,7,2,5,4,11,6,11,7,3,4,7,1,2,6,3,11,6,1,2,11,6,4,4,11,4,7,3,4,4,3,0,7,5,5,11,11,3,4,10,3,10,0,4,10,0,0,0,0,0,0,0,0,0,0,0,0,0,0,0,0,0,0,0,0,0,0,0,0,0,0,0,0,0,0,0,0,0,0,0,0,0,0,0,0,0,0,0,0,0,0,0,0,0,0,0,0,0,0,0,0,0,0,0,0,0,0,0,0],"split_type":[0,0,0,0,0,0,0,0,0,0,0,0,0,0,0,0,0,0,0,0,0,0,0,0,0,0,0,0,0,0,0,0,0,0,0,0,0,0,0,0,0,0,0,0,0,0,0,0,0,0,0,0,0,0,0,0,0,0,0,0,0,0,0,0,0,0,0,0,0,0,0,0,0,0,0,0,0,0,0,0,0,0,0,0,0,0,0,0,0,0,0,0,0,0,0,0,0,0,0,0,0,0,0,0,0,0,0,0,0,0,0,0,0,0,0,0,0,0,0,0,0,0,0,0,0,0,0],"sum_hessian":[4.3216438E5,1.066718E5,3.2549256E5,4.945602E4,5.7215777E4,9.3666016E4,2.3182656E5,3.2910492E4,1.6545527E4,1.7082104E4,4.0133676E4,3.360994E4,6.005607E4,5.9017438E4,1.7280912E5,3.524681E2,3.2558023E4,3.4756843E3,1.3069843E4,1.6759299E4,3.22804E2,3.5255742E4,4.877933E3,9.836235E3,2.3773707E4,1.4068876E4,4.5987195E4,2.4196764E4,3.482067E4,4.8956016E4,1.238531E5,1.365898E2,2.1587833E2,2.0301605E4,1.2256417E4,3.355771E3,1.19913475E2,7.5348394E3,5.535004E3,8.126534E3,8.632765E3,1.7704031E2,1.4576367E2,3.2119924E4,3.1358188E3,1.5485636E3,3.3293694E3,3.1669702E3,6.669265E3,1.9836008E4,3.937699E3,1.01237705E4,3.945106E3,2.1162904E4,2.4824293E4,2.342211E4,7.7465485E2,4.9060933E3,2.991458E4,1.4383414E4,3.45726E4,8.742784E3,1.1511032E5,1.2109068E2,1.5499109E1,1.1531255E2,1.0056577E2,1.2964822E2,2.0171957E4,3.2163943E2,1.1934778E4,1.6189166E3,1.7368544E3,1.0012947E2,1.9784002E1,1.6674651E3,5.8673745E3,8.081505E1,5.4541885E3,7.8598037E3,2.667309E2,1.5069149E3,7.12585E3,1.6303703E2,1.4003281E1,1.1921294E2,2.6550745E1,5.9553115E3,2.6164613E4,1.5407004E3,1.5951184E3,1.039677E3,5.088865E2,1.6870731E3,1.6422963E3,6.093697E2,2.5576006E3,4.8402637E3,1.8290012E3,1.1909202E4,7.9268066E3,1.5403431E3,2.3973557E3,1.4732294E3,8.650541E3,3.634204E3,3.1090173E2,1.3013102E4,8.1498027E3,1.664093E4,8.1833633E3,4.873585E3,1.8548525E4,7.2031195E2,5.4342842E1,1.1528087E3,3.7532844E3,2.3140748E4,6.773832E3,4.996969E3,9.386444E3,1.4951479E4,1.9621123E4,5.81546E3,2.9273245E3,6.784673E4,4.7263594E4],"tree_param":{"num_deleted":"0","num_feature":"43","num_nodes":"127","size_leaf_vector":"1"}},{"base_weights":[-8.127499E-5,-1.0052785E0,3.2779163E-1,-1.4500086E0,-6.2402785E-1,-5.9295177E-2,4.8440284E-1,-1.5659875E0,-1.2203323E0,-8.8797885E-1,-5.119511E-1,-2.493733E-1,4.7070075E-2,3.3128303E-1,5.367474E-1,4.8718166E-2,-1.5836098E0,-1.0118939E0,-1.2829404E0,-9.0393335E-1,-6.196813E-2,-4.799573E-1,-8.299911E-1,-3.5254255E-1,-1.5492173E-1,2.4900456E-1,-4.0581534E-3,4.842691E-1,3.093254E-1,6.540894E-1,4.9039567E-1,-7.8151995E-1,5.7445437E-1,-1.6296877E0,-1.4676567E0,-1.0510676E0,1.1817076E-1,-1.3665193E0,-1.1598556E0,-1.0112442E0,-8.030095E-1,2.998371E-1,-5.18544E-1,-5.1370835E-1,-1.3183485E-1,-6.040436E-1,-9.3347234E-1,7.015967E-2,-3.7528035E-1,4.152498E-2,-2.2154315E-1,1.7595153E-1,3.716715E-1,-6.998693E-2,8.458281E-2,5.710617E-1,3.3864662E-1,2.758408E-1,4.1944784E-1,5.416273E-1,7.0090073E-1,1.8165043E-1,5.098017E-1,-5.0478626E-2,4.7679435E-2,3.2478124E-3,5.7824057E-2,-3.2736797E-2,-8.184538E-2,-3.346088E-2,-7.439687E-2,3.262952E-2,-5.3310204E-2,2.3506572E-2,-7.4081175E-2,-6.889551E-2,2.2537185E-2,-6.320714E-2,-5.1554825E-2,-5.1565737E-2,-2.1017129E-2,-2.8281307E-2,-4.2660825E-2,8.586314E-3,8.577066E-2,-4.251809E-2,1.7138405E-2,-6.285514E-3,-2.6945207E-2,-1.4344129E-2,8.9884596E-4,-4.276112E-2,-1.9139776E-2,-5.088522E-2,-2.2064673E-2,1.3110369E-2,-1.4218539E-2,-1.6891863E-2,-2.7640495E-2,-3.9228643E-3,5.896428E-3,-1.9480035E-2,-8.2021225E-3,1.1350114E-2,1.6247629E-3,2.2325007E-2,6.3973367E-3,-9.4291335E-3,-4.7901776E-4,2.0855118E-3,1.1131983E-2,4.3049864E-2,2.5384733E-2,3.3991054E-2,1.3901094E-2,1.2209259E-2,1.9813962E-2,1.951535E-2,3.4583922E-2,3.93884E-2,2.5665818E-2,3.976015E-2,3.145466E-2,5.0306562E-3,1.8093364E-2,2.3725217E-2,3.1653028E-2],"categories":[],"categories_nodes":[],"categories_segments":[],"categories_sizes":[],"default_left":[0,0,0,0,0,0,0,0,0,0,0,0,0,0,0,0,0,0,0,0,0,0,0,0,0,0,0,0,0,0,0,0,0,0,0,0,0,0,0,0,0,0,0,0,0,0,0,0,0,0,0,0,0,0,0,0,0,0,0,0,0,0,0,0,0,0,0,0,0,0,0,0,0,0,0,0,0,0,0,0,0,0,0,0,0,0,0,0,0,0,0,0,0,0,0,0,0,0,0,0,0,0,0,0,0,0,0,0,0,0,0,0,0,0,0,0,0,0,0,0,0,0,0,0,0,0,0],"id":4,"left_children":[1,3,5,7,9,11,13,15,17,19,21,23,25,27,29,31,33,35,37,39,41,43,45,47,49,51,53,55,57,59,61,63,65,67,69,71,73,75,77,79,81,83,85,87,89,91,93,95,97,99,101,103,105,107,109,111,113,115,117,119,121,123,125,-1,-1,-1,-1,-1,-1,-1,-1,-1,-1,-1,-1,-1,-1,-1,-1,-1,-1,-1,-1,-1,-1,-1,-1,-1,-1,-1,-1,-1,-1,-1,-1,-1,-1,-1,-1,-1,-1,-1,-1,-1,-1,-1,-1,-1,-1,-1,-1,-1,-1,-1,-1,-1,-1,-1,-1,-1,-1,-1,-1,-1,-1,-1,-1],"loss_changes":[1.4210256E5,1.7979734E4,1.9709484E4,1.3019375E3,1.6887266E3,1.893421E3,1.8550469E3,9.254453E2,2.1308398E2,2.2421094E2,4.0746387E2,3.27386E2,6.1998474E2,1.979502E2,9.3789844E2,1.5411716E2,1.6948438E2,1.6831934E2,1.283418E2,1.7999902E2,5.360176E1,4.27875E2,8.506665E1,1.543778E2,2.2962045E2,1.086543E2,2.8003934E2,9.333484E1,1.9005615E2,2.5674805E2,7.4080273E2,5.514251E1,6.401779E1,1.6092188E2,1.4730273E2,9.539209E1,7.287735E1,1.5621289E2,6.737207E1,9.548242E1,1.02115234E2,3.255486E1,4.1276028E1,3.245205E2,7.4809494E1,6.3762665E1,1.0361206E2,5.5946728E1,1.0111572E2,4.0746643E1,1.265401E2,5.5693832E1,8.251373E1,1.968649E2,1.20966385E2,8.472046E1,5.7019745E1,1.5069336E2,9.511157E1,9.96582E1,2.3300977E2,1.0678441E2,5.0588086E2,0E0,0E0,0E0,0E0,0E0,0E0,0E0,0E0,0E0,0E0,0E0,0E0,0E0,0E0,0E0,0E0,0E0,0E0,0E0,0E0,0E0,0E0,0E0,0E0,0E0,0E0,0E0,0E0,0E0,0E0,0E0,0E0,0E0,0E0,0E0,0E0,0E0,0E0,0E0,0E0,0E0,0E0,0E0,0E0,0E0,0E0,0E0,0E0,0E0,0E0,0E0,0E0,0E0,0E0,0E0,0E0,0E0,0E0,0E0,0E0,0E0,0E0,0E0,0E0],"parents":[2147483647,0,0,1,1,2,2,3,3,4,4,5,5,6,6,7,7,8,8,9,9,10,10,11,11,12,12,13,13,14,14,15,15,16,16,17,17,18,18,19,19,20,20,21,21,22,22,23,23,24,24,25,25,26,26,27,27,28,28,29,29,30,30,31,31,32,32,33,33,34,34,35,35,36,36,37,37,38,38,39,39,40,40,41,41,42,42,43,43,44,44,45,45,46,46,47,47,48,48,49,49,50,50,51,51,52,52,53,53,54,54,55,55,56,56,57,57,58,58,59,59,60,60,61,61,62,62],"right_children":[2,4,6,8,10,12,14,16,18,20,22,24,26,28,30,32,34,36,38,40,42,44,46,48,50,52,54,56,58,60,62,64,66,68,70,72,74,76,78,80,82,84,86,88,90,92,94,96,98,100,102,104,106,108,110,112,114,116,118,120,122,124,126,-1,-1,-1,-1,-1,-1,-1,-1,-1,-1,-1,-1,-1,-1,-1,-1,-1,-1,-1,-1,-1,-1,-1,-1,-1,-1,-1,-1,-1,-1,-1,-1,-1,-1,-1,-1,-1,-1,-1,-1,-1,-1,-1,-1,-1,-1,-1,-1,-1,-1,-1,-1,-1,-1,-1,-1,-1,-1,-1,-1,-1,-1,-1,-1],"split_conditions":[-3.6561367E-1,-4.935569E-1,-1.1742169E-1,-5.4572105E-1,-4.5192808E-1,-2.8917712E-1,8.940005E-2,-3.967956E-1,4.530836E-2,9.1642714E-1,-3.982721E-3,-1.3682388E-1,-4.098697E-1,-9.207732E-1,-3.8700987E-2,-5.758558E-1,-5.821654E-1,2.260839E0,-5.123468E-1,-4.7271892E-1,-4.4506765E-3,1.3374768E0,-3.488909E-2,-6.2010664E-1,-1.6037296E-1,-3.0341335E-2,-2.0094422E-1,-5.3276308E-2,5.525749E-1,3.0192688E-1,8.695248E-3,-4.269858E-3,1.127614E0,-2.4177453E-1,-8.111977E-1,-6.922804E-1,1.0093678E-2,9.721557E-1,3.3369377E-1,2.1856146E0,-6.791514E-2,1.8414328E0,1.4170719E0,-3.7205994E-1,-4.0821713E-1,9.852125E-3,6.960935E-1,-4.3054433E-3,8.8027006E-1,-9.895074E-2,-5.751711E-1,9.875024E-3,-4.2561246E-3,-2.4548666E-1,5.4102856E-1,-9.389104E-1,-1.0153065E0,2.631563E-3,1.7936262E0,9.663696E-3,-8.749236E-1,-1.333044E0,6.5746736E-3,-5.0478626E-2,4.7679435E-2,3.2478124E-3,5.7824057E-2,-3.2736797E-2,-8.184538E-2,-3.346088E-2,-7.439687E-2,3.262952E-2,-5.3310204E-2,2.3506572E-2,-7.4081175E-2,-6.889551E-2,2.2537185E-2,-6.320714E-2,-5.1554825E-2,-5.1565737E-2,-2.1017129E-2,-2.8281307E-2,-4.2660825E-2,8.586314E-3,8.577066E-2,-4.251809E-2,1.7138405E-2,-6.285514E-3,-2.6945207E-2,-1.4344129E-2,8.9884596E-4,-4.276112E-2,-1.9139776E-2,-5.088522E-2,-2.2064673E-2,1.3110369E-2,-1.4218539E-2,-1.6891863E-2,-2.7640495E-2,-3.9228643E-3,5.896428E-3,-1.9480035E-2,-8.2021225E-3,1.1350114E-2,1.6247629E-3,2.2325007E-2,6.3973367E-3,-9.4291335E-3,-4.7901776E-4,2.0855118E-3,1.1131983E-2,4.3049864E-2,2.5384733E-2,3.3991054E-2,1.3901094E-2,1.2209259E-2,1.9813962E-2,1.951535E-2,3.4583922E-2,3.93884E-2,2.5665818E-2,3.976015E-2,3.145466E-2,5.0306562E-3,1.8093364E-2,2.3725217E-2,3.1653028E-2],"split_indices":[7,7,7,7,7,7,7,4,4,4,2,11,4,4,10,5,7,6,7,7,2,5,4,4,4,11,7,6,3,7,1,2,6,3,11,3,1,4,4,6,4,4,5,4,7,1,4,2,6,3,0,1,2,11,3,3,5,10,3,1,0,4,10,0,0,0,0,0,0,0,0,0,0,0,0,0,0,0,0,0,0,0,0,0,0,0,0,0,0,0,0,0,0,0,0,0,0,0,0,0,0,0,0,0,0,0,0,0,0,0,0,0,0,0,0,0,0,0,0,0,0,0,0,0,0,0,0],"split_type":[0,0,0,0,0,0,0,0,0,0,0,0,0,0,0,0,0,0,0,0,0,0,0,0,0,0,0,0,0,0,0,0,0,0,0,0,0,0,0,0,0,0,0,0,0,0,0,0,0,0,0,0,0,0,0,0,0,0,0,0,0,0,0,0,0,0,0,0,0,0,0,0,0,0,0,0,0,0,0,0,0,0,0,0,0,0,0,0,0,0,0,0,0,0,0,0,0,0,0,0,0,0,0,0,0,0,0,0,0,0,0,0,0,0,0,0,0,0,0,0,0,0,0,0,0,0,0],"sum_hessian":[4.311646E5,1.0604582E5,3.2511878E5,4.8946613E4,5.7099203E4,9.365004E4,2.3146872E5,3.2519537E4,1.6427076E4,1.701661E4,4.0082594E4,3.3601586E4,6.0048457E4,5.897132E4,1.724974E5,3.5105743E2,3.216848E4,3.7983958E3,1.2628682E4,1.6694068E4,3.2254126E2,3.6421246E4,3.661347E3,1.6058352E4,1.7543232E4,1.2131274E4,4.7917184E4,7.3989966E3,5.1572324E4,4.8840855E4,1.2365655E5,1.359228E2,2.1513464E2,2.3011172E4,9.15731E3,3.6712031E3,1.27192726E2,7.515371E3,5.11331E3,8.0866396E3,8.607428E3,1.8013773E2,1.4240355E2,3.3201805E4,3.2194421E3,1.1522625E3,2.5090847E3,8.1960254E2,1.5238749E4,4.442881E3,1.3100352E4,7.6047676E3,4.526507E3,2.7479143E4,2.0438041E4,4.6341006E3,2.764896E3,3.954998E4,1.2022344E4,1.4358297E4,3.448256E4,7.313345E3,1.163432E5,1.2050277E2,1.5420031E1,1.15307594E2,9.982705E1,1.698303E2,2.284134E4,2.276796E2,8.92963E3,3.1959393E1,3.6392437E3,1.0483481E2,2.2357918E1,7.4687974E3,4.6573826E1,2.8202542E3,2.293056E3,7.820272E3,2.6636804E2,1.5048091E3,7.1026187E3,1.6621631E2,1.3921408E1,1.028093E2,3.959425E1,2.0249524E3,3.1176852E4,1.5816244E3,1.6378176E3,5.382883E2,6.139741E2,2.1415159E3,3.6756885E2,5.317929E2,2.8780966E2,1.2586921E4,2.6518284E3,1.728485E3,2.7143962E3,3.3381506E3,9.762201E3,5.6083735E3,1.9963942E3,3.4625874E3,1.0639196E3,9.272467E3,1.8206676E4,1.5596089E4,4.8419526E3,8.2889734E2,3.8052034E3,4.1563528E2,2.3492607E3,3.132077E4,8.229211E3,1.0862053E4,1.1602913E3,1.4783579E3,1.2879939E4,1.4902102E4,1.9580457E4,5.045925E3,2.2674202E3,9.044695E4,2.5896248E4],"tree_param":{"num_deleted":"0","num_feature":"43","num_nodes":"127","size_leaf_vector":"1"}},{"base_weights":[-1.2405413E-4,-9.6214676E-1,3.1183854E-1,-1.3955228E0,-5.943752E-1,-4.1774444E-2,4.6740413E-1,-1.5048269E0,-1.1587334E0,-8.476779E-1,-4.8715544E-1,-2.2435895E-1,6.60024E-2,3.673618E-1,5.325906E-1,2.8914785E-2,-1.5214972E0,-9.426117E-1,-1.216846E0,-8.629726E-1,-5.8724687E-2,-5.9891295E-1,-4.0189344E-1,-8.13456E-2,-2.8461546E-1,2.5645614E-1,1.864368E-2,3.1396148E-1,4.4198045E-1,2.0212117E-1,5.5190516E-1,-7.317689E-1,5.349682E-1,-1.5730091E0,-1.4052297E0,-9.780944E-1,1.1844645E-1,-1.3005062E0,-1.1049266E0,-9.6662766E-1,-7.6571846E-1,-1.4813931E-1,8.093333E-2,-1.9797146E-1,-6.276347E-1,-1.7384672E-1,-4.536384E-1,-1.7529532E-1,6.1746247E-2,-2.4698314E-1,-4.728407E-1,1.3064581E-1,3.2291636E-1,-5.0706614E-2,1.0579032E-1,4.414036E-1,2.818515E-1,3.6564076E-1,5.032148E-1,3.489134E-2,3.270882E-1,6.737164E-1,4.930693E-1,-4.82737E-2,4.880034E-2,4.241301E-2,-1.8779757E-2,-3.1184325E-2,-7.900668E-2,2.1679983E-2,-7.088133E-2,-3.9858654E-2,-5.735544E-2,2.2762805E-2,-6.861685E-2,-1.2886432E-2,-6.548097E-2,-5.5169864E-3,-5.593404E-2,-4.9298134E-2,-2.0001246E-2,-4.302548E-2,-3.2375988E-2,-3.9136402E-2,9.530249E-3,4.310097E-2,-1.2208913E-2,-2.9547283E-2,-4.663414E-2,-1.7914798E-2,-5.313277E-4,-2.0834913E-2,-3.8802266E-2,2.2273734E-3,-1.1568551E-2,4.2268876E-3,-3.3608012E-2,-1.5715452E-2,-7.2448733E-3,-3.4272846E-2,-1.7748022E-2,5.163387E-3,3.736126E-2,1.9595083E-2,6.353184E-3,-5.548307E-3,3.298085E-3,2.374446E-3,1.0424916E-2,9.5544E-3,2.563296E-2,7.188406E-4,1.4695518E-2,2.7302235E-2,1.6825303E-2,2.297376E-2,3.381554E-2,-2.5429616E-2,4.4387723E-3,9.103703E-3,2.7424378E-2,3.5179053E-2,2.4813468E-2,1.8943181E-2,2.7128894E-2],"categories":[],"categories_nodes":[],"categories_segments":[],"categories_sizes":[],"default_left":[0,0,0,0,0,0,0,0,0,0,0,0,0,0,0,0,0,0,0,0,0,0,0,0,0,0,0,0,0,0,0,0,0,0,0,0,0,0,0,0,0,0,0,0,0,0,0,0,0,0,0,0,0,0,0,0,0,0,0,0,0,0,0,0,0,0,0,0,0,0,0,0,0,0,0,0,0,0,0,0,0,0,0,0,0,0,0,0,0,0,0,0,0,0,0,0,0,0,0,0,0,0,0,0,0,0,0,0,0,0,0,0,0,0,0,0,0,0,0,0,0,0,0,0,0],"id":5,"left_children":[1,3,5,7,9,11,13,15,17,19,21,23,25,27,29,31,33,35,37,39,41,43,45,47,49,51,53,55,57,59,61,63,65,67,69,71,73,75,77,79,81,83,-1,85,87,89,91,93,95,97,99,101,103,105,107,109,111,113,115,117,119,121,123,-1,-1,-1,-1,-1,-1,-1,-1,-1,-1,-1,-1,-1,-1,-1,-1,-1,-1,-1,-1,-1,-1,-1,-1,-1,-1,-1,-1,-1,-1,-1,-1,-1,-1,-1,-1,-1,-1,-1,-1,-1,-1,-1,-1,-1,-1,-1,-1,-1,-1,-1,-1,-1,-1,-1,-1,-1,-1,-1,-1,-1,-1],"loss_changes":[1.29040945E5,1.6780281E4,1.7860877E4,1.2492031E3,1.5464707E3,1.9520936E3,1.4702891E3,8.454375E2,1.9061914E2,2.0433203E2,3.8109668E2,3.172826E2,5.626317E2,3.543457E2,8.713008E2,1.3762468E2,1.936875E2,1.221001E2,1.1120117E2,1.6675781E2,4.871175E1,1.9929346E2,2.6783423E2,1.4676633E2,1.8338208E2,1.03825134E2,3.0193216E2,2.1208398E2,1.7327393E2,1.5756595E2,9.2408984E2,5.795263E1,6.155449E1,1.5226562E2,2.2975195E2,9.495703E1,5.3715466E1,6.502734E1,7.036035E1,8.767676E1,9.554346E1,6.630261E1,0E0,5.6979298E1,1.8029834E2,1.2645634E2,2.2005981E2,8.125188E1,7.244086E1,1.4835193E2,1.0791199E2,7.2435196E1,1.09763306E2,1.9559286E2,1.3255692E2,1.8601599E2,1.3360449E2,8.66438E1,1.5556104E2,9.4517006E1,1.384472E2,2.2226172E2,4.9158594E2,0E0,0E0,0E0,0E0,0E0,0E0,0E0,0E0,0E0,0E0,0E0,0E0,0E0,0E0,0E0,0E0,0E0,0E0,0E0,0E0,0E0,0E0,0E0,0E0,0E0,0E0,0E0,0E0,0E0,0E0,0E0,0E0,0E0,0E0,0E0,0E0,0E0,0E0,0E0,0E0,0E0,0E0,0E0,0E0,0E0,0E0,0E0,0E0,0E0,0E0,0E0,0E0,0E0,0E0,0E0,0E0,0E0,0E0,0E0,0E0,0E0,0E0],"parents":[2147483647,0,0,1,1,2,2,3,3,4,4,5,5,6,6,7,7,8,8,9,9,10,10,11,11,12,12,13,13,14,14,15,15,16,16,17,17,18,18,19,19,20,20,21,21,22,22,23,23,24,24,25,25,26,26,27,27,28,28,29,29,30,30,31,31,32,32,33,33,34,34,35,35,36,36,37,37,38,38,39,39,40,40,41,41,43,43,44,44,45,45,46,46,47,47,48,48,49,49,50,50,51,51,52,52,53,53,54,54,55,55,56,56,57,57,58,58,59,59,60,60,61,61,62,62],"right_children":[2,4,6,8,10,12,14,16,18,20,22,24,26,28,30,32,34,36,38,40,42,44,46,48,50,52,54,56,58,60,62,64,66,68,70,72,74,76,78,80,82,84,-1,86,88,90,92,94,96,98,100,102,104,106,108,110,112,114,116,118,120,122,124,-1,-1,-1,-1,-1,-1,-1,-1,-1,-1,-1,-1,-1,-1,-1,-1,-1,-1,-1,-1,-1,-1,-1,-1,-1,-1,-1,-1,-1,-1,-1,-1,-1,-1,-1,-1,-1,-1,-1,-1,-1,-1,-1,-1,-1,-1,-1,-1,-1,-1,-1,-1,-1,-1,-1,-1,-1,-1,-1,-1,-1,-1],"split_conditions":[-3.6561367E-1,-4.935569E-1,-9.876558E-2,-5.4186714E-1,-4.5192808E-1,-2.8131154E-1,2.3377535E-1,-3.967956E-1,2.9779904E-2,9.1642714E-1,-1.6455056E-1,-1.0383929E-1,-4.3654257E-1,-7.68335E-2,8.695248E-3,-5.419261E-1,-5.821654E-1,2.260839E0,3.2266194E-1,-4.7271892E-1,2.009923E0,-3.7205994E-1,-1.3534082E-1,-3.4786824E-2,8.8027006E-1,-2.518215E-1,-1.9075507E-1,-8.225287E-1,3.700372E-2,1.936653E-3,-7.502532E-1,-4.269858E-3,-7.9899347E-1,-2.4177453E-1,-2.3905149E0,-3.6227757E-1,1.0093678E-2,-2.0247529E0,-8.111977E-1,2.1856146E0,-7.68335E-2,-1.9749393E-1,8.093333E-2,-1.4643985E0,-4.0801265E-3,1.5580709E-2,-4.006304E-3,-5.8651894E-1,1.8686103E0,3.0616438E-1,-3.3667696E-1,-3.613476E-3,8.8820344E-1,2.297321E-2,5.715361E-1,9.799366E-3,-6.8482834E-1,-8.225287E-1,2.4601925E-2,-3.5481088E0,-1.3816469E0,-6.4337534E-1,-4.7519386E-1,-4.82737E-2,4.880034E-2,4.241301E-2,-1.8779757E-2,-3.1184325E-2,-7.900668E-2,2.1679983E-2,-7.088133E-2,-3.9858654E-2,-5.735544E-2,2.2762805E-2,-6.861685E-2,-1.2886432E-2,-6.548097E-2,-5.5169864E-3,-5.593404E-2,-4.9298134E-2,-2.0001246E-2,-4.302548E-2,-3.2375988E-2,-3.9136402E-2,9.530249E-3,4.310097E-2,-1.2208913E-2,-2.9547283E-2,-4.663414E-2,-1.7914798E-2,-5.313277E-4,-2.0834913E-2,-3.8802266E-2,2.2273734E-3,-1.1568551E-2,4.2268876E-3,-3.3608012E-2,-1.5715452E-2,-7.2448733E-3,-3.4272846E-2,-1.7748022E-2,5.163387E-3,3.736126E-2,1.9595083E-2,6.353184E-3,-5.548307E-3,3.298085E-3,2.374446E-3,1.0424916E-2,9.5544E-3,2.563296E-2,7.188406E-4,1.4695518E-2,2.7302235E-2,1.6825303E-2,2.297376E-2,3.381554E-2,-2.5429616E-2,4.4387723E-3,9.103703E-3,2.7424378E-2,3.5179053E-2,2.4813468E-2,1.8943181E-2,2.7128894E-2],"split_indices":[7,7,7,7,7,7,7,4,4,4,11,4,4,11,1,5,7,6,4,7,4,4,4,11,6,11,7,4,7,1,0,2,11,3,0,6,1,0,11,6,11,11,0,9,2,3,2,4,0,0,7,2,5,11,8,1,11,4,10,4,4,5,11,0,0,0,0,0,0,0,0,0,0,0,0,0,0,0,0,0,0,0,0,0,0,0,0,0,0,0,0,0,0,0,0,0,0,0,0,0,0,0,0,0,0,0,0,0,0,0,0,0,0,0,0,0,0,0,0,0,0,0,0,0,0],"split_type":[0,0,0,0,0,0,0,0,0,0,0,0,0,0,0,0,0,0,0,0,0,0,0,0,0,0,0,0,0,0,0,0,0,0,0,0,0,0,0,0,0,0,0,0,0,0,0,0,0,0,0,0,0,0,0,0,0,0,0,0,0,0,0,0,0,0,0,0,0,0,0,0,0,0,0,0,0,0,0,0,0,0,0,0,0,0,0,0,0,0,0,0,0,0,0,0,0,0,0,0,0,0,0,0,0,0,0,0,0,0,0,0,0,0,0,0,0,0,0,0,0,0,0,0,0],"sum_hessian":[4.299695E5,1.05286734E5,3.2468278E5,4.8331215E4,5.695552E4,9.919816E4,2.2548461E5,3.306348E4,1.5267734E4,1.693658E4,4.001894E4,3.6820145E4,6.2378008E4,8.8961414E4,1.365232E5,3.554993E2,3.270798E4,3.2390193E3,1.2028716E4,1.6614398E4,3.2218234E2,1.7315955E4,2.2702986E4,1.0915514E4,2.5904633E4,1.2421272E4,4.9956734E4,5.1856113E4,3.71053E4,7.5392295E3,1.2898397E5,1.4184152E2,2.1365778E2,2.2657258E4,1.0050725E4,3.1342842E3,1.0473515E2,6.877293E3,5.1514224E3,8.0382095E3,8.576189E3,3.0674286E2,1.543948E1,1.1580488E3,1.6157905E4,4.1995195E3,1.8503467E4,6.5890923E3,4.3264214E3,2.1590338E4,4.314294E3,4.2945625E3,8.1267104E3,2.7819062E4,2.2137672E4,1.0433509E4,4.14226E4,1.6518701E4,2.05866E4,3.2249321E3,4.3142974E3,4.2006016E4,8.697795E4,1.25149734E2,1.669179E1,1.5901491E2,5.464287E1,1.6943076E2,2.2487826E4,6.707828E1,9.9836455E3,1.5165793E3,1.6177048E3,8.599998E1,1.873518E1,5.983519E1,6.8174575E3,7.039077E1,5.0810317E3,7.772246E3,2.6596344E2,4.7558706E3,3.8203186E3,1.06298065E2,2.0044481E2,4.763517E1,1.1104136E3,1.4425809E4,1.7320967E3,1.9709851E3,2.2285342E3,1.6603406E4,1.9000603E3,1.3391616E3,5.2499307E3,4.1969688E3,1.2945227E2,1.3008863E4,8.581476E3,1.537089E3,2.777205E3,4.113095E3,1.8146695E2,6.0091157E3,2.1175945E3,1.834425E4,9.474812E3,1.4122568E4,8.015104E3,2.3127327E3,8.120776E3,1.7870304E3,3.9635574E4,2.294328E3,1.4224373E4,1.6436834E4,4.149765E3,2.9013602E2,2.9347961E3,2.6079446E3,1.7063529E3,3.595224E4,6.053779E3,2.630548E4,6.0672477E4],"tree_param":{"num_deleted":"0","num_feature":"43","num_nodes":"125","size_leaf_vector":"1"}},{"base_weights":[-1.703923E-4,-9.4838846E-1,2.88644E-1,-1.3458321E0,-5.8739513E-1,-6.521839E-2,4.3896744E-1,-1.4597595E0,-1.1230075E0,-8.097922E-1,-4.8212937E-1,-2.35739E-1,4.2522263E-2,3.4042963E-1,5.0727886E-1,4.521392E-2,-1.476557E0,-9.2519253E-1,-1.1828204E0,-8.2447463E-1,-5.5690326E-2,-8.6179554E-2,-5.064252E-1,-3.3640367E-1,-1.4359702E-1,2.100114E-1,-8.659783E-3,2.647075E-1,3.9282545E-1,5.283354E-1,2.242975E-1,-7.149928E-1,5.2383786E-1,-1.5332029E0,-1.3832853E0,-9.615028E-1,1.1205363E-1,-1.2655135E0,-1.0615547E0,-5.2704334E-1,-8.569342E-1,2.921792E-1,-4.7824132E-1,-2.3717445E-1,2.0056452E-1,-4.6899828E-1,-7.515322E-1,-2.9754558E-1,-5.229516E-1,-1.0912564E-2,-2.2625919E-1,1.5361694E-1,3.5483384E-1,-6.26124E-2,8.009699E-2,4.1318644E-2,2.8159088E-1,3.7276143E-1,6.176117E-1,4.198227E-1,5.736476E-1,7.3572055E-2,4.2312828E-1,-1.359751E-2,-7.866037E-2,-4.0924284E-3,4.8543476E-2,-1.6174693E-2,-7.706457E-2,-3.1081608E-2,-7.02047E-2,3.3604316E-2,-4.8811603E-2,2.1638824E-2,-6.8694495E-2,-6.3830405E-2,2.3540335E-2,-3.523592E-2,-5.478626E-2,-2.1001225E-2,-4.8504565E-2,-4.7648996E-2,-3.8244747E-2,-5.863936E-3,3.363605E-2,-3.8920477E-2,1.6045757E-2,-3.9324246E-2,-6.1549866E-3,2.021258E-2,-7.2391527E-3,-2.4697637E-2,-1.5358778E-3,-4.3429222E-2,-3.0442048E-2,3.4258172E-3,-1.5921557E-2,-7.6147974E-3,-3.1235253E-2,5.76233E-4,-2.4457714E-2,-8.150513E-3,-1.8887008E-2,1.8934838E-2,5.7641487E-3,2.1258837E-2,5.399391E-3,-7.4065733E-3,4.3873486E-4,2.8165902E-3,1.434024E-2,2.0096382E-2,-1.2438868E-3,1.5564889E-2,8.133322E-3,2.4234323E-2,1.6625414E-2,2.8130306E-2,3.6618527E-2,2.5904065E-2,1.7842444E-2,3.429767E-2,2.6636887E-2,5.683663E-3,-1.0487855E-2,-1.3461974E-2,2.296905E-2],"categories":[],"categories_nodes":[],"categories_segments":[],"categories_sizes":[],"default_left":[0,0,0,0,0,0,0,0,0,0,0,0,0,0,0,0,0,0,0,0,0,0,0,0,0,0,0,0,0,0,0,0,0,0,0,0,0,0,0,0,0,0,0,0,0,0,0,0,0,0,0,0,0,0,0,0,0,0,0,0,0,0,0,0,0,0,0,0,0,0,0,0,0,0,0,0,0,0,0,0,0,0,0,0,0,0,0,0,0,0,0,0,0,0,0,0,0,0,0,0,0,0,0,0,0,0,0,0,0,0,0,0,0,0,0,0,0,0,0,0,0,0,0,0,0,0,0],"id":6,"left_children":[1,3,5,7,9,11,13,15,17,19,21,23,25,27,29,31,33,35,37,39,41,43,45,47,49,51,53,55,57,59,61,63,65,67,69,71,73,75,77,79,81,83,85,87,89,91,93,95,97,99,101,103,105,107,109,111,113,115,117,119,121,123,125,-1,-1,-1,-1,-1,-1,-1,-1,-1,-1,-1,-1,-1,-1,-1,-1,-1,-1,-1,-1,-1,-1,-1,-1,-1,-1,-1,-1,-1,-1,-1,-1,-1,-1,-1,-1,-1,-1,-1,-1,-1,-1,-1,-1,-1,-1,-1,-1,-1,-1,-1,-1,-1,-1,-1,-1,-1,-1,-1,-1,-1,-1,-1,-1],"loss_changes":[1.1738038E5,1.4356781E4,1.7476615E4,1.2074844E3,1.2273145E3,1.7996768E3,1.5519805E3,7.966953E2,1.8961328E2,1.8647461E2,3.4239258E2,3.5175415E2,5.146022E2,3.744746E2,8.113242E2,1.2729056E2,1.6253906E2,1.4121802E2,1.2272461E2,1.5908105E2,4.7589493E1,8.92032E1,3.073164E2,1.3123169E2,2.1720981E2,1.1469885E2,2.2018813E2,1.4562305E2,2.5142676E2,6.2297266E2,2.8266553E2,5.0973534E1,5.819143E1,1.891289E2,1.8591797E2,8.776099E1,6.141425E1,1.4220801E2,6.046826E1,7.680704E1,1.3095898E2,2.776242E1,3.530498E1,8.445562E1,5.0060852E1,3.1823486E2,7.364819E1,1.14724976E2,1.1770184E2,8.158923E1,1.1684772E2,8.722548E1,6.831802E1,1.745876E2,8.5380135E1,6.480751E1,1.26781006E2,2.3063867E2,2.8440552E1,2.308628E2,4.1041602E2,6.1000515E1,1.0221173E2,0E0,0E0,0E0,0E0,0E0,0E0,0E0,0E0,0E0,0E0,0E0,0E0,0E0,0E0,0E0,0E0,0E0,0E0,0E0,0E0,0E0,0E0,0E0,0E0,0E0,0E0,0E0,0E0,0E0,0E0,0E0,0E0,0E0,0E0,0E0,0E0,0E0,0E0,0E0,0E0,0E0,0E0,0E0,0E0,0E0,0E0,0E0,0E0,0E0,0E0,0E0,0E0,0E0,0E0,0E0,0E0,0E0,0E0,0E0,0E0,0E0,0E0,0E0,0E0],"parents":[2147483647,0,0,1,1,2,2,3,3,4,4,5,5,6,6,7,7,8,8,9,9,10,10,11,11,12,12,13,13,14,14,15,15,16,16,17,17,18,18,19,19,20,20,21,21,22,22,23,23,24,24,25,25,26,26,27,27,28,28,29,29,30,30,31,31,32,32,33,33,34,34,35,35,36,36,37,37,38,38,39,39,40,40,41,41,42,42,43,43,44,44,45,45,46,46,47,47,48,48,49,49,50,50,51,51,52,52,53,53,54,54,55,55,56,56,57,57,58,58,59,59,60,60,61,61,62,62],"right_children":[2,4,6,8,10,12,14,16,18,20,22,24,26,28,30,32,34,36,38,40,42,44,46,48,50,52,54,56,58,60,62,64,66,68,70,72,74,76,78,80,82,84,86,88,90,92,94,96,98,100,102,104,106,108,110,112,114,116,118,120,122,124,126,-1,-1,-1,-1,-1,-1,-1,-1,-1,-1,-1,-1,-1,-1,-1,-1,-1,-1,-1,-1,-1,-1,-1,-1,-1,-1,-1,-1,-1,-1,-1,-1,-1,-1,-1,-1,-1,-1,-1,-1,-1,-1,-1,-1,-1,-1,-1,-1,-1,-1,-1,-1,-1,-1,-1,-1,-1,-1,-1,-1,-1,-1,-1,-1],"split_conditions":[-3.75013E-1,-4.935569E-1,-1.1742169E-1,-5.4572105E-1,-4.5192808E-1,-2.8917712E-1,2.3377535E-1,-3.967956E-1,4.530836E-2,9.1642714E-1,-3.842449E-1,-1.3682388E-1,-3.4845293E-1,1.5111388E-2,-3.982721E-3,-5.758558E-1,-5.9468055E-1,2.260839E0,-5.123468E-1,-1.6037296E-1,-4.461672E-3,-4.4973597E-1,-4.1087708E-3,8.8027006E-1,7.48698E-3,7.971438E-2,-2.12921E-2,-5.407914E-1,1.456773E-1,-4.7519386E-1,-1.5430174E0,9.855531E-3,3.286866E-1,-2.5002006E-1,-8.111977E-1,-6.922804E-1,1.0093678E-2,9.721557E-1,-1.2672122E0,8.133111E-2,-4.7271892E-1,-3.078111E-2,1.4170719E0,9.75891E-3,-4.098697E-1,1.4856352E0,-6.048784E-2,-6.0312307E-1,-4.4791466E-3,1.6953453E0,3.0433607E-1,-9.7870034E-1,-4.2523895E-3,-2.2034293E-1,9.721557E-1,-7.125784E-1,7.240113E-1,-4.6385285E-2,6.765052E-1,-6.4337534E-1,-1.0162005E0,2.5965178E0,-7.443045E-1,-1.359751E-2,-7.866037E-2,-4.0924284E-3,4.8543476E-2,-1.6174693E-2,-7.706457E-2,-3.1081608E-2,-7.02047E-2,3.3604316E-2,-4.8811603E-2,2.1638824E-2,-6.8694495E-2,-6.3830405E-2,2.3540335E-2,-3.523592E-2,-5.478626E-2,-2.1001225E-2,-4.8504565E-2,-4.7648996E-2,-3.8244747E-2,-5.863936E-3,3.363605E-2,-3.8920477E-2,1.6045757E-2,-3.9324246E-2,-6.1549866E-3,2.021258E-2,-7.2391527E-3,-2.4697637E-2,-1.5358778E-3,-4.3429222E-2,-3.0442048E-2,3.4258172E-3,-1.5921557E-2,-7.6147974E-3,-3.1235253E-2,5.76233E-4,-2.4457714E-2,-8.150513E-3,-1.8887008E-2,1.8934838E-2,5.7641487E-3,2.1258837E-2,5.399391E-3,-7.4065733E-3,4.3873486E-4,2.8165902E-3,1.434024E-2,2.0096382E-2,-1.2438868E-3,1.5564889E-2,8.133322E-3,2.4234323E-2,1.6625414E-2,2.8130306E-2,3.6618527E-2,2.5904065E-2,1.7842444E-2,3.429767E-2,2.6636887E-2,5.683663E-3,-1.0487855E-2,-1.3461974E-2,2.296905E-2],"split_indices":[7,7,7,7,7,7,7,4,4,4,4,11,4,7,2,5,7,6,7,4,2,4,2,6,4,11,11,11,10,11,4,1,6,3,11,3,1,4,9,10,7,10,5,1,4,5,11,4,2,0,6,5,2,7,4,3,6,10,10,5,0,7,11,0,0,0,0,0,0,0,0,0,0,0,0,0,0,0,0,0,0,0,0,0,0,0,0,0,0,0,0,0,0,0,0,0,0,0,0,0,0,0,0,0,0,0,0,0,0,0,0,0,0,0,0,0,0,0,0,0,0,0,0,0,0,0,0],"split_type":[0,0,0,0,0,0,0,0,0,0,0,0,0,0,0,0,0,0,0,0,0,0,0,0,0,0,0,0,0,0,0,0,0,0,0,0,0,0,0,0,0,0,0,0,0,0,0,0,0,0,0,0,0,0,0,0,0,0,0,0,0,0,0,0,0,0,0,0,0,0,0,0,0,0,0,0,0,0,0,0,0,0,0,0,0,0,0,0,0,0,0,0,0,0,0,0,0,0,0,0,0,0,0,0,0,0,0,0,0,0,0,0,0,0,0,0,0,0,0,0,0,0,0,0,0,0,0],"sum_hessian":[4.286141E5,1.0006953E5,3.2854456E5,4.7628805E4,5.244073E4,9.795602E4,2.3058855E5,3.1511719E4,1.6117085E4,1.6845084E4,3.5595645E4,3.792737E4,6.0028652E4,9.441006E4,1.361785E5,3.478111E2,3.1163908E4,3.7456956E3,1.237139E4,1.652328E4,3.218037E2,2.0581697E3,3.3537477E4,1.8124158E4,1.980321E4,1.4049545E4,4.597911E4,3.8612926E4,5.5797133E4,1.2674648E5,9.432016E3,1.341865E2,2.136246E2,1.9379115E4,1.1784792E4,3.6190776E3,1.2661798E2,7.349925E3,5.021465E3,1.6274994E3,1.489578E4,1.7666826E2,1.4513545E2,1.3483322E3,7.0983746E2,2.9097334E4,4.440141E3,1.5001854E4,3.122304E3,7.6020225E3,1.2201189E4,1.0113404E4,3.9361404E3,2.859646E4,1.7382646E4,2.7134856E3,3.589944E4,5.122733E4,4.5698022E3,3.7338734E4,8.940774E4,5.3657964E3,4.0662192E3,8.936817E1,4.481833E1,9.106155E1,1.2256306E2,1.289859E2,1.9250129E4,3.142225E2,1.1470569E4,3.1941004E1,3.5871365E3,1.0472345E2,2.1894531E1,7.303522E3,4.640281E1,4.4072128E2,4.5807437E3,1.3124285E3,3.1507092E2,7.2846626E3,7.6111177E3,8.54341E1,9.123416E1,1.05525406E2,3.961005E1,2.3084357E2,1.1174885E3,4.4638666E2,2.634508E2,2.7529742E4,1.5675931E3,2.4364175E3,2.0037239E3,8.0960455E2,1.4192249E4,6.730593E2,2.4492446E3,7.262281E3,3.3974182E2,8.608779E3,3.5924097E3,1.4704868E3,8.642917E3,3.0626616E3,8.734788E2,1.3009951E4,1.558651E4,1.5591379E4,1.7912677E3,4.2006775E2,2.2934177E3,2.8722938E4,7.176504E3,1.3547393E4,3.7679938E4,3.093124E3,1.4766783E3,1.4580863E4,2.2757871E4,2.3868395E4,6.553935E4,4.7010312E3,6.647651E2,2.0199603E2,3.8642231E3],"tree_param":{"num_deleted":"0","num_feature":"43","num_nodes":"127","size_leaf_vector":"1"}},{"base_weights":[-2.1949936E-4,-9.187231E-1,2.7213436E-1,-1.3370919E0,-5.977714E-1,-8.464283E-2,4.1040102E-1,1.2287382E-1,-1.3490453E0,-8.5000414E-1,-4.8185608E-1,-2.2719063E-1,2.18142E-2,2.7154812E-1,4.6400958E-1,-3.4137493E-1,6.6483337E-1,-1.4390366E0,-1.1563972E0,-8.66236E-1,-3.2899597E-1,-4.7813814E-2,-5.0716746E-1,-3.2171527E-1,-1.4073966E-1,1.8459411E-1,-2.5768736E-2,2.0933452E-1,3.237172E-1,5.726481E-1,4.2119586E-1,1.9872263E-1,-1.537253E0,7.369858E-3,1.1481105E0,-1.2014526E0,-1.4638758E0,-9.450876E-1,-1.2160156E0,-6.6824335E-1,-9.0750664E-1,-5.351943E-1,4.027158E-1,-2.0218897E-1,2.3364727E-1,-6.1164165E-1,-4.286577E-1,-2.8339186E-1,-5.062487E-1,-1.2731865E-2,-2.197991E-1,1.2668921E-1,3.319155E-1,-7.0545204E-2,6.432874E-2,3.196535E-1,1.6175342E-1,2.2825153E-1,3.6185566E-1,4.8624036E-1,6.2321067E-1,3.6410096E-1,5.104278E-1,2.6901528E-2,-6.368855E-2,-8.120729E-2,1.1092784E-2,-4.9340807E-2,4.3256056E-2,6.1365522E-2,-7.20731E-2,-5.3590597E-3,-6.4254336E-2,-7.583491E-2,-6.851541E-2,-4.8667483E-2,1.7609684E-2,-6.1208513E-2,1.4127791E-2,-3.56062E-2,2.5501514E-2,-4.8544887E-2,-3.9098933E-2,-2.985849E-2,5.7656497E-2,3.7622925E-2,-1.1336263E-2,-3.640426E-2,-4.638956E-3,2.135799E-2,-5.509754E-3,-2.601607E-2,-3.5618093E-2,-2.5801137E-2,-1.6564675E-2,-1.7567014E-2,-9.107476E-3,-7.901191E-3,-3.0138096E-2,4.2048126E-4,-2.316162E-2,-7.9619475E-3,-1.8253213E-2,1.7390195E-2,4.4862255E-3,2.0232707E-2,4.105201E-3,-1.5264654E-3,-9.116455E-3,5.5135856E-3,-3.2200634E-3,2.3633063E-2,1.2864356E-2,5.770347E-3,1.5796103E-2,2.0323813E-2,9.056928E-3,2.5165996E-2,1.6949376E-2,3.7098575E-2,2.3031406E-2,2.721625E-2,3.5384227E-2,2.4809234E-2,1.5479609E-2,2.6397644E-2,8.844257E-3],"categories":[],"categories_nodes":[],"categories_segments":[],"categories_sizes":[],"default_left":[0,0,0,0,0,0,0,0,0,0,0,0,0,0,0,0,0,0,0,0,0,0,0,0,0,0,0,0,0,0,0,0,0,0,0,0,0,0,0,0,0,0,0,0,0,0,0,0,0,0,0,0,0,0,0,0,0,0,0,0,0,0,0,0,0,0,0,0,0,0,0,0,0,0,0,0,0,0,0,0,0,0,0,0,0,0,0,0,0,0,0,0,0,0,0,0,0,0,0,0,0,0,0,0,0,0,0,0,0,0,0,0,0,0,0,0,0,0,0,0,0,0,0,0,0,0,0],"id":7,"left_children":[1,3,5,7,9,11,13,15,17,19,21,23,25,27,29,31,33,35,37,39,41,43,45,47,49,51,53,55,57,59,61,63,65,67,69,71,73,75,77,79,81,83,85,87,89,91,93,95,97,99,101,103,105,107,109,111,113,115,117,119,121,123,125,-1,-1,-1,-1,-1,-1,-1,-1,-1,-1,-1,-1,-1,-1,-1,-1,-1,-1,-1,-1,-1,-1,-1,-1,-1,-1,-1,-1,-1,-1,-1,-1,-1,-1,-1,-1,-1,-1,-1,-1,-1,-1,-1,-1,-1,-1,-1,-1,-1,-1,-1,-1,-1,-1,-1,-1,-1,-1,-1,-1,-1,-1,-1,-1],"loss_changes":[1.0685147E5,1.3116328E4,1.6251844E4,7.402344E2,1.6158945E3,1.3963723E3,1.76725E3,8.7106155E1,7.275625E2,1.469043E2,4.1611133E2,3.214298E2,4.0802072E2,2.1458984E2,7.965E2,1.2085805E2,5.072014E1,1.6741016E2,1.6763477E2,1.3731152E2,7.979827E1,9.078334E1,2.9330078E2,1.3274988E2,2.0795972E2,1.0160452E2,1.6445256E2,1.5830103E2,1.3088403E2,2.1124707E2,6.2583203E2,6.5368126E1,9.2539215E0,5.9391712E1,2.0639977E1,2.4869287E2,1.2616797E2,1.0859961E2,1.2799805E2,1.5108545E2,1.1035742E2,4.379107E1,2.5824493E1,7.755867E1,4.9294006E1,1.408501E2,1.7367896E2,1.0699365E2,1.0846686E2,7.473938E1,1.1169672E2,6.9893616E1,6.1045807E1,1.2180087E2,8.004648E1,8.661609E1,1.505769E2,8.616785E1,8.297266E1,1.1676318E2,2.0314453E2,5.3936035E2,2.8014746E2,0E0,0E0,0E0,0E0,0E0,0E0,0E0,0E0,0E0,0E0,0E0,0E0,0E0,0E0,0E0,0E0,0E0,0E0,0E0,0E0,0E0,0E0,0E0,0E0,0E0,0E0,0E0,0E0,0E0,0E0,0E0,0E0,0E0,0E0,0E0,0E0,0E0,0E0,0E0,0E0,0E0,0E0,0E0,0E0,0E0,0E0,0E0,0E0,0E0,0E0,0E0,0E0,0E0,0E0,0E0,0E0,0E0,0E0,0E0,0E0,0E0,0E0,0E0,0E0],"parents":[2147483647,0,0,1,1,2,2,3,3,4,4,5,5,6,6,7,7,8,8,9,9,10,10,11,11,12,12,13,13,14,14,15,15,16,16,17,17,18,18,19,19,20,20,21,21,22,22,23,23,24,24,25,25,26,26,27,27,28,28,29,29,30,30,31,31,32,32,33,33,34,34,35,35,36,36,37,37,38,38,39,39,40,40,41,41,42,42,43,43,44,44,45,45,46,46,47,47,48,48,49,49,50,50,51,51,52,52,53,53,54,54,55,55,56,56,57,57,58,58,59,59,60,60,61,61,62,62],"right_children":[2,4,6,8,10,12,14,16,18,20,22,24,26,28,30,32,34,36,38,40,42,44,46,48,50,52,54,56,58,60,62,64,66,68,70,72,74,76,78,80,82,84,86,88,90,92,94,96,98,100,102,104,106,108,110,112,114,116,118,120,122,124,126,-1,-1,-1,-1,-1,-1,-1,-1,-1,-1,-1,-1,-1,-1,-1,-1,-1,-1,-1,-1,-1,-1,-1,-1,-1,-1,-1,-1,-1,-1,-1,-1,-1,-1,-1,-1,-1,-1,-1,-1,-1,-1,-1,-1,-1,-1,-1,-1,-1,-1,-1,-1,-1,-1,-1,-1,-1,-1,-1,-1,-1,-1,-1,-1],"split_conditions":[-3.7809584E-1,-5.05922E-1,-1.4130543E-1,-4.925658E-1,-4.6082926E-1,-2.8917712E-1,8.940005E-2,-9.439998E-2,-5.536543E-1,8.017764E-1,-3.842449E-1,-1.3682388E-1,-3.4845293E-1,-4.048751E-2,-3.8700987E-2,-6.500592E-2,9.85259E-3,-8.111977E-1,4.530836E-2,-4.7918845E-2,1.4883257E-1,-4.4973597E-1,-1.6455056E-1,8.8027006E-1,7.48698E-3,7.971438E-2,2.8131703E-2,-3.7205994E-1,-3.2882452E-1,3.6533168E-1,-2.5508672E-2,-6.1609066E-1,-1.1783507E-2,-5.6580406E-1,9.90924E-3,-4.139285E-2,-5.9468055E-1,1.0569351E-2,9.721557E-1,2.260839E0,7.6709283E-3,2.9937546E0,6.67261E-1,9.75891E-3,-4.098697E-1,9.883624E-3,-4.17029E-1,3.0616438E-1,-4.4791466E-3,1.6953453E0,3.0433607E-1,-9.7870034E-1,-4.2523895E-3,-4.3017957E-3,4.058784E-1,-4.300307E-2,2.631563E-3,-6.7235583E-1,-9.207732E-1,9.640164E-3,-2.0743288E-1,-8.9684004E-1,1.9896396E0,2.6901528E-2,-6.368855E-2,-8.120729E-2,1.1092784E-2,-4.9340807E-2,4.3256056E-2,6.1365522E-2,-7.20731E-2,-5.3590597E-3,-6.4254336E-2,-7.583491E-2,-6.851541E-2,-4.8667483E-2,1.7609684E-2,-6.1208513E-2,1.4127791E-2,-3.56062E-2,2.5501514E-2,-4.8544887E-2,-3.9098933E-2,-2.985849E-2,5.7656497E-2,3.7622925E-2,-1.1336263E-2,-3.640426E-2,-4.638956E-3,2.135799E-2,-5.509754E-3,-2.601607E-2,-3.5618093E-2,-2.5801137E-2,-1.6564675E-2,-1.7567014E-2,-9.107476E-3,-7.901191E-3,-3.0138096E-2,4.2048126E-4,-2.316162E-2,-7.9619475E-3,-1.8253213E-2,1.7390195E-2,4.4862255E-3,2.0232707E-2,4.105201E-3,-1.5264654E-3,-9.116455E-3,5.5135856E-3,-3.2200634E-3,2.3633063E-2,1.2864356E-2,5.770347E-3,1.5796103E-2,2.0323813E-2,9.056928E-3,2.5165996E-2,1.6949376E-2,3.7098575E-2,2.3031406E-2,2.721625E-2,3.5384227E-2,2.4809234E-2,1.5479609E-2,2.6397644E-2,8.844257E-3],"split_indices":[7,7,7,4,7,7,7,6,7,4,4,11,4,7,10,3,1,11,4,4,11,4,11,6,4,11,11,4,11,7,10,7,10,7,1,4,7,1,4,6,11,4,5,1,4,1,7,0,2,0,6,5,2,2,6,10,10,3,4,1,11,5,7,0,0,0,0,0,0,0,0,0,0,0,0,0,0,0,0,0,0,0,0,0,0,0,0,0,0,0,0,0,0,0,0,0,0,0,0,0,0,0,0,0,0,0,0,0,0,0,0,0,0,0,0,0,0,0,0,0,0,0,0,0,0,0,0],"split_type":[0,0,0,0,0,0,0,0,0,0,0,0,0,0,0,0,0,0,0,0,0,0,0,0,0,0,0,0,0,0,0,0,0,0,0,0,0,0,0,0,0,0,0,0,0,0,0,0,0,0,0,0,0,0,0,0,0,0,0,0,0,0,0,0,0,0,0,0,0,0,0,0,0,0,0,0,0,0,0,0,0,0,0,0,0,0,0,0,0,0,0,0,0,0,0,0,0,0,0,0,0,0,0,0,0,0,0,0,0,0,0,0,0,0,0,0,0,0,0,0,0,0,0,0,0,0,0],"sum_hessian":[4.271339E5,9.768669E4,3.2944722E5,4.240609E4,5.52806E4,9.201531E4,2.374319E5,3.4430127E2,4.2061785E4,1.7403691E4,3.787691E4,3.933882E4,5.2676492E4,6.613641E4,1.712955E5,1.856454E2,1.5865587E2,2.8665062E4,1.3396724E4,1.6877227E4,5.264652E2,2.0872588E3,3.5789652E4,1.879062E4,2.0548201E4,1.1914486E4,4.0762008E4,3.016661E4,3.5969797E4,4.841967E4,1.2287583E5,1.2846173E2,5.7183678E1,6.7645E1,9.1010864E1,2.7179072E3,2.5947156E4,2.9516926E3,1.0445031E4,2.9141294E3,1.3963098E4,4.109321E2,1.1553315E2,1.3481243E3,7.391346E2,1.5352734E4,2.0436918E4,1.5561405E4,3.2292146E3,7.845862E3,1.2702339E4,8.554132E3,3.3603545E3,2.7229674E4,1.3532334E4,9.088585E3,2.1078023E4,1.0269883E4,2.5699914E4,1.7878033E4,3.0541639E4,7.4934305E4,4.794152E4,1.04919624E2,2.3542105E1,5.456511E1,2.6185696E0,3.1261057E1,3.638394E1,8.882043E1,2.1904404E0,1.931399E2,2.5247673E3,1.6574846E4,9.372311E3,2.8890037E3,6.268889E1,1.0388684E4,5.6347622E1,2.8098809E3,1.0424859E2,9.273356E3,4.6897407E3,3.97005E2,1.3927097E1,7.414164E1,4.139151E1,2.3119472E2,1.1169296E3,4.7280197E2,2.663326E2,8.055341E3,7.2973936E3,1.0769306E4,9.667612E3,9.310339E3,6.251066E3,7.013485E2,2.527866E3,7.495106E3,3.5075568E2,8.966398E3,3.7359404E3,1.2240034E3,7.3301284E3,2.6020771E3,7.5827734E2,2.0052605E4,7.177068E3,9.973127E3,3.5592065E3,2.629897E3,6.458688E3,1.6207454E4,4.8705693E3,2.1456035E3,8.12428E3,3.5734229E3,2.2126492E4,1.6249906E3,1.6253043E4,1.5797052E4,1.4744587E4,2.1887996E4,5.304631E4,4.5547758E4,2.3937607E3],"tree_param":{"num_deleted":"0","num_feature":"43","num_nodes":"127","size_leaf_vector":"1"}},{"base_weights":[-2.685185E-4,-9.172963E-1,2.4913669E-1,-1.2948145E0,-5.990044E-1,-9.4442196E-2,3.9077723E-1,1.1692341E-1,-1.3065335E0,-8.4026974E-1,-4.9549156E-1,-2.292511E-1,2.0728262E-2,2.5824758E-1,4.4202915E-1,-3.2656848E-1,6.3503623E-1,-1.3969404E0,-1.1143756E0,-9.1258985E-1,-7.0633036E-1,-4.0666074E-2,-5.1941323E-1,-1.2068592E-1,-2.9541656E-1,1.7546865E-1,-2.4481216E-2,1.911569E-1,3.0445153E-1,5.391704E-1,3.9791694E-1,1.8864624E-1,-1.4804604E0,6.921781E-3,1.1009775E0,-6.4382464E-1,-1.404631E0,-9.0674883E-1,-1.1732796E0,-8.505774E-1,-1.0373214E0,-7.327947E-1,1.1410736E-1,-4.9844772E-1,9.087772E-2,-5.40398E-1,-7.9840794E-2,-2.0752394E-1,2.5892905E-3,-4.2511648E-1,-2.0356278E-1,4.8747618E-2,2.3690596E-1,-4.539479E-2,1.6496707E-1,1.7565411E-1,5.454334E-1,4.6719053E-1,2.833959E-1,6.414731E-1,4.973562E-1,3.37239E-1,4.863687E-1,2.964509E-2,-4.708148E-2,-7.826653E-2,1.0683487E-2,-4.6936836E-2,4.1168246E-2,6.158438E-2,-2.8194046E-2,-5.550578E-2,2.5738591E-2,-7.264475E-2,-6.5441005E-2,-4.6381176E-2,4.1343614E-2,-5.906281E-2,1.3412441E-2,-3.0879352E-2,-4.5101758E-2,-5.895297E-2,-4.901379E-2,-3.7809454E-2,-3.2276602E-3,2.4714971E-2,-3.1572897E-2,3.382485E-2,-3.0406365E-2,-3.3097975E-3,1.732635E-2,-3.2410804E-2,-2.3262031E-2,5.6556906E-3,-4.12029E-2,-9.046537E-3,-2.9002244E-2,-1.8802566E-2,2.00199E-3,-2.3889385E-2,1.004388E-3,-8.419642E-3,-2.8343169E-2,5.162859E-3,-1.0880432E-2,1.4978361E-2,9.0191694E-4,-4.5116828E-4,-9.40552E-3,2.3642154E-2,4.01788E-3,8.145935E-3,2.9488934E-2,3.7076037E-2,1.6684275E-2,1.3926155E-2,2.5614401E-2,1.2236526E-2,1.8952118E-2,2.3404421E-2,3.4513317E-2,3.1154364E-2,2.3223082E-2,8.800589E-3,1.8817542E-2,2.5156064E-2,8.410157E-3],"categories":[],"categories_nodes":[],"categories_segments":[],"categories_sizes":[],"default_left":[0,0,0,0,0,0,0,0,0,0,0,0,0,0,0,0,0,0,0,0,0,0,0,0,0,0,0,0,0,0,0,0,0,0,0,0,0,0,0,0,0,0,0,0,0,0,0,0,0,0,0,0,0,0,0,0,0,0,0,0,0,0,0,0,0,0,0,0,0,0,0,0,0,0,0,0,0,0,0,0,0,0,0,0,0,0,0,0,0,0,0,0,0,0,0,0,0,0,0,0,0,0,0,0,0,0,0,0,0,0,0,0,0,0,0,0,0,0,0,0,0,0,0,0,0,0,0],"id":8,"left_children":[1,3,5,7,9,11,13,15,17,19,21,23,25,27,29,31,33,35,37,39,41,43,45,47,49,51,53,55,57,59,61,63,65,67,69,71,73,75,77,79,81,83,85,87,89,91,93,95,97,99,101,103,105,107,109,111,113,115,117,119,121,123,125,-1,-1,-1,-1,-1,-1,-1,-1,-1,-1,-1,-1,-1,-1,-1,-1,-1,-1,-1,-1,-1,-1,-1,-1,-1,-1,-1,-1,-1,-1,-1,-1,-1,-1,-1,-1,-1,-1,-1,-1,-1,-1,-1,-1,-1,-1,-1,-1,-1,-1,-1,-1,-1,-1,-1,-1,-1,-1,-1,-1,-1,-1,-1,-1],"loss_changes":[9.733109E4,1.09330625E4,1.6281758E4,6.8877344E2,1.232582E3,1.5163527E3,1.6090391E3,7.915753E1,7.1558594E2,1.4292188E2,3.7589648E2,3.2318506E2,3.6846774E2,2.0474658E2,7.3184375E2,1.10730515E2,4.6468704E1,1.6167188E2,1.6053125E2,7.353613E1,1.13012695E2,1.04072105E2,3.0274023E2,1.8241861E2,3.329751E2,9.270453E1,1.6150732E2,1.4790503E2,1.3392627E2,2.2788867E2,6.304121E2,5.9650135E1,8.596344E0,5.3767105E1,2.0533417E1,1.5485399E2,1.26578125E2,1.06599365E2,1.18625E2,7.65542E1,2.4639404E1,7.872241E1,4.6627228E1,5.012194E1,5.394187E1,2.5356348E2,2.1503065E2,9.893872E1,9.989646E1,2.71781E2,2.0904468E2,5.649782E1,1.09987854E2,1.905522E2,1.05530014E2,1.3607385E2,4.664096E1,3.797876E1,1.2802637E2,1.3059521E2,1.5635449E2,4.3938477E2,2.5470605E2,0E0,0E0,0E0,0E0,0E0,0E0,0E0,0E0,0E0,0E0,0E0,0E0,0E0,0E0,0E0,0E0,0E0,0E0,0E0,0E0,0E0,0E0,0E0,0E0,0E0,0E0,0E0,0E0,0E0,0E0,0E0,0E0,0E0,0E0,0E0,0E0,0E0,0E0,0E0,0E0,0E0,0E0,0E0,0E0,0E0,0E0,0E0,0E0,0E0,0E0,0E0,0E0,0E0,0E0,0E0,0E0,0E0,0E0,0E0,0E0,0E0,0E0,0E0,0E0],"parents":[2147483647,0,0,1,1,2,2,3,3,4,4,5,5,6,6,7,7,8,8,9,9,10,10,11,11,12,12,13,13,14,14,15,15,16,16,17,17,18,18,19,19,20,20,21,21,22,22,23,23,24,24,25,25,26,26,27,27,28,28,29,29,30,30,31,31,32,32,33,33,34,34,35,35,36,36,37,37,38,38,39,39,40,40,41,41,42,42,43,43,44,44,45,45,46,46,47,47,48,48,49,49,50,50,51,51,52,52,53,53,54,54,55,55,56,56,57,57,58,58,59,59,60,60,61,61,62,62],"right_children":[2,4,6,8,10,12,14,16,18,20,22,24,26,28,30,32,34,36,38,40,42,44,46,48,50,52,54,56,58,60,62,64,66,68,70,72,74,76,78,80,82,84,86,88,90,92,94,96,98,100,102,104,106,108,110,112,114,116,118,120,122,124,126,-1,-1,-1,-1,-1,-1,-1,-1,-1,-1,-1,-1,-1,-1,-1,-1,-1,-1,-1,-1,-1,-1,-1,-1,-1,-1,-1,-1,-1,-1,-1,-1,-1,-1,-1,-1,-1,-1,-1,-1,-1,-1,-1,-1,-1,-1,-1,-1,-1,-1,-1,-1,-1,-1,-1,-1,-1,-1,-1,-1,-1,-1,-1,-1],"split_conditions":[-3.9004055E-1,-5.05922E-1,-1.4130543E-1,-4.925658E-1,-4.6677813E-1,-2.8917712E-1,8.940005E-2,-9.439998E-2,-5.536543E-1,-7.158709E-3,-3.842449E-1,1.3155785E-2,-3.4845293E-1,-2.2648722E-1,-3.625547E-2,-6.500592E-2,9.85259E-3,-2.5002006E-1,4.530836E-2,-1.5664918E-2,8.017764E-1,-2.8500265E-1,8.444377E-1,-5.2147705E-2,3.2266194E-1,-2.5824216E-1,9.721557E-1,2.4684079E-1,-9.207732E-1,-1.1789443E0,-2.5508672E-2,-6.260212E-1,-1.1783507E-2,-5.6580406E-1,2.2454817E0,9.823546E-3,-5.9468055E-1,3.1714144E0,9.721557E-1,-4.139285E-2,-2.8041258E-1,2.1856146E0,1.0082809E-2,-1.2456162E0,-4.4973597E-1,-1.747302E-1,6.453278E-1,1.4544332E0,-4.5635463E-3,1.3374768E0,-4.006304E-3,9.906188E-3,-4.234976E-3,7.240113E-1,-8.149105E-2,1.6746415E0,8.47934E-2,-7.99711E-2,4.0737012E-1,2.8149864E-1,-2.2327557E-1,9.640164E-3,1.9896396E0,2.964509E-2,-4.708148E-2,-7.826653E-2,1.0683487E-2,-4.6936836E-2,4.1168246E-2,6.158438E-2,-2.8194046E-2,-5.550578E-2,2.5738591E-2,-7.264475E-2,-6.5441005E-2,-4.6381176E-2,4.1343614E-2,-5.906281E-2,1.3412441E-2,-3.0879352E-2,-4.5101758E-2,-5.895297E-2,-4.901379E-2,-3.7809454E-2,-3.2276602E-3,2.4714971E-2,-3.1572897E-2,3.382485E-2,-3.0406365E-2,-3.3097975E-3,1.732635E-2,-3.2410804E-2,-2.3262031E-2,5.6556906E-3,-4.12029E-2,-9.046537E-3,-2.9002244E-2,-1.8802566E-2,2.00199E-3,-2.3889385E-2,1.004388E-3,-8.419642E-3,-2.8343169E-2,5.162859E-3,-1.0880432E-2,1.4978361E-2,9.0191694E-4,-4.5116828E-4,-9.40552E-3,2.3642154E-2,4.01788E-3,8.145935E-3,2.9488934E-2,3.7076037E-2,1.6684275E-2,1.3926155E-2,2.5614401E-2,1.2236526E-2,1.8952118E-2,2.3404421E-2,3.4513317E-2,3.1154364E-2,2.3223082E-2,8.800589E-3,1.8817542E-2,2.5156064E-2,8.410157E-3],"split_indices":[7,7,7,4,7,7,7,6,7,11,4,4,4,11,10,3,1,3,4,10,4,3,4,11,4,11,4,10,4,0,10,7,10,7,0,1,7,6,4,4,11,6,1,6,4,11,3,0,2,5,2,1,2,6,3,3,6,7,3,7,10,1,7,0,0,0,0,0,0,0,0,0,0,0,0,0,0,0,0,0,0,0,0,0,0,0,0,0,0,0,0,0,0,0,0,0,0,0,0,0,0,0,0,0,0,0,0,0,0,0,0,0,0,0,0,0,0,0,0,0,0,0,0,0,0,0,0],"split_type":[0,0,0,0,0,0,0,0,0,0,0,0,0,0,0,0,0,0,0,0,0,0,0,0,0,0,0,0,0,0,0,0,0,0,0,0,0,0,0,0,0,0,0,0,0,0,0,0,0,0,0,0,0,0,0,0,0,0,0,0,0,0,0,0,0,0,0,0,0,0,0,0,0,0,0,0,0,0,0,0,0,0,0,0,0,0,0,0,0,0,0,0,0,0,0,0,0,0,0,0,0,0,0,0,0,0,0,0,0,0,0,0,0,0,0,0,0,0,0,0,0,0,0,0,0,0,0],"sum_hessian":[4.2556075E5,9.099228E4,3.3456847E5,4.162217E4,4.937011E4,9.766406E4,2.3690439E5,3.4259192E2,4.127958E4,1.4820265E4,3.4549844E4,4.499532E4,5.2668746E4,6.60682E4,1.7083619E5,1.847878E2,1.5780412E2,2.8067873E4,1.3211706E4,9.620109E3,5.2001553E3,1.7264939E3,3.282335E4,1.70395E4,2.7955818E4,1.1907967E4,4.076078E4,2.6946105E4,3.9122098E4,5.334713E4,1.1748906E5,1.2832637E2,5.6461426E1,6.763853E1,9.016559E1,2.8457986E2,2.7783293E4,2.9234463E3,1.0288259E4,6.4307646E3,3.1893447E3,5.037762E3,1.6239316E2,3.8474945E2,1.3417444E3,3.1327574E4,1.4957773E3,9.996818E3,7.042682E3,1.1588676E4,1.6367143E4,3.8887654E3,8.019201E3,3.6709145E4,4.0516348E3,2.5817838E4,1.1282666E3,4.47943E3,3.4642664E4,1.5474013E4,3.7873117E4,6.9687914E4,4.7801152E4,9.487037E1,3.3455994E1,5.3840237E1,2.6211874E0,3.1269886E1,3.636864E1,8.384315E1,6.3224397E0,2.0294435E2,8.163552E1,1.8466686E4,9.316607E3,2.889123E3,3.4323345E1,1.0231823E4,5.643624E1,1.1657001E3,5.2650645E3,9.096127E2,2.2797322E3,4.867235E3,1.705275E2,1.0777276E2,5.4620407E1,3.240819E1,3.5234128E2,8.315638E2,5.1018066E2,1.2864701E4,1.8462873E4,1.1884847E3,3.072927E2,9.332111E3,6.647072E2,6.330667E2,6.4096157E3,1.0362622E4,1.2260541E3,1.4923874E4,1.4432683E3,3.2286396E3,6.601257E2,6.2340415E3,1.7851597E3,2.9254602E4,7.4545444E3,8.724361E2,3.1791987E3,2.5048912E4,7.689273E2,5.8449664E2,5.437699E2,8.655482E2,3.613882E3,2.4672354E4,9.970313E3,3.4006233E3,1.207339E4,7.850119E3,3.0022996E4,1.3606122E4,5.608179E4,4.540959E4,2.3915605E3],"tree_param":{"num_deleted":"0","num_feature":"43","num_nodes":"127","size_leaf_vector":"1"}},{"base_weights":[-3.173198E-4,-8.820613E-1,2.3711975E-1,-1.2557099E0,-5.7183695E-1,-8.976202E-2,3.721342E-1,-1.3438758E0,-1.0688384E0,-7.8074014E-1,-4.6001464E-1,-2.179634E-1,1.9696133E-2,2.810291E-1,4.4048077E-1,2.875957E-2,-1.360235E0,-8.478567E-1,-1.1333385E0,-7.962119E-1,-2.8934234E-1,-2.7932169E-2,-4.8359466E-1,-1.7553398E-1,-3.7769768E-1,1.6679484E-1,-2.3257142E-2,1.9375272E-1,3.2513306E-1,1.4361902E-1,4.5796058E-1,-6.991092E-1,4.980585E-1,-1.1323783E0,-1.38396E0,2.711233E-1,-8.8643366E-1,-8.447798E-2,-1.1442846E0,-8.066169E-1,-6.1390925E-2,-4.783389E-1,3.7496683E-1,-4.4241512E-1,9.021028E-2,-5.1570916E-1,-2.0049992E-1,-2.498063E-1,-7.976722E-2,-4.0105078E-1,2.2845341E-1,1.1296384E-1,3.0394936E-1,-1.05023496E-1,2.1298287E-2,1.5682462E-1,3.1254336E-1,2.4199337E-1,3.6773226E-1,-9.842502E-3,2.5868586E-1,5.6117433E-1,3.9996287E-1,-6.4129554E-2,-1.7224838E-3,6.614441E-4,4.9491417E-2,-2.006815E-2,-6.172771E-2,-7.18903E-2,-6.446494E-2,-2.9106602E-2,4.033595E-2,-4.5739714E-2,1.8985191E-2,4.882846E-2,-2.0438455E-2,-5.910903E-2,-4.529781E-2,-4.2970713E-2,-3.359721E-2,3.535277E-2,-3.176347E-2,-2.691636E-2,5.717851E-2,-8.0191284E-2,2.3864908E-2,3.503557E-2,-2.7617443E-2,-3.3138178E-3,1.732546E-2,-2.9846732E-2,-2.0459697E-2,7.575045E-4,-1.8532699E-2,1.258189E-4,-1.4677112E-2,-7.9598103E-4,-1.7116912E-2,-2.637448E-2,-1.5404749E-2,6.3343938E-3,8.453998E-2,1.6013497E-2,3.9177504E-3,1.8524982E-2,3.7973323E-3,3.2688293E-3,-7.5370693E-3,2.9721905E-3,-6.8472885E-3,1.2889288E-2,4.743411E-3,1.8222058E-2,6.7418288E-3,1.7207531E-2,9.777762E-3,1.6313886E-2,2.376666E-2,-2.5963008E-2,2.0388993E-3,6.3820304E-3,2.3003275E-2,2.4587357E-2,3.175978E-2,1.5572987E-2,2.2576222E-2],"categories":[],"categories_nodes":[],"categories_segments":[],"categories_sizes":[],"default_left":[0,0,0,0,0,0,0,0,0,0,0,0,0,0,0,0,0,0,0,0,0,0,0,0,0,0,0,0,0,0,0,0,0,0,0,0,0,0,0,0,0,0,0,0,0,0,0,0,0,0,0,0,0,0,0,0,0,0,0,0,0,0,0,0,0,0,0,0,0,0,0,0,0,0,0,0,0,0,0,0,0,0,0,0,0,0,0,0,0,0,0,0,0,0,0,0,0,0,0,0,0,0,0,0,0,0,0,0,0,0,0,0,0,0,0,0,0,0,0,0,0,0,0,0,0,0,0],"id":9,"left_children":[1,3,5,7,9,11,13,15,17,19,21,23,25,27,29,31,33,35,37,39,41,43,45,47,49,51,53,55,57,59,61,63,65,67,69,71,73,75,77,79,81,83,85,87,89,91,93,95,97,99,101,103,105,107,109,111,113,115,117,119,121,123,125,-1,-1,-1,-1,-1,-1,-1,-1,-1,-1,-1,-1,-1,-1,-1,-1,-1,-1,-1,-1,-1,-1,-1,-1,-1,-1,-1,-1,-1,-1,-1,-1,-1,-1,-1,-1,-1,-1,-1,-1,-1,-1,-1,-1,-1,-1,-1,-1,-1,-1,-1,-1,-1,-1,-1,-1,-1,-1,-1,-1,-1,-1,-1,-1],"loss_changes":[8.8749016E4,1.0423883E4,1.4739627E4,6.706992E2,1.1475244E3,1.3699232E3,1.4715801E3,6.223672E2,1.8550488E2,1.3001465E2,3.261079E2,3.046621E2,3.3274326E2,3.8991016E2,7.0068164E2,1.12180275E2,1.4648828E2,1.2800146E2,1.1613281E2,1.26927734E2,6.602907E1,8.120349E1,2.7584375E2,2.5268127E2,1.336582E2,8.784158E1,1.4850008E2,1.4915442E2,2.3826758E2,1.326314E2,7.632031E2,4.9889126E1,4.7584515E1,1.9282837E2,1.2455469E2,4.5896076E1,1.03092285E2,3.6748688E1,8.9416016E1,1.15859375E2,1.03183136E2,4.0385628E1,2.4401745E1,4.661004E1,5.178806E1,2.3559619E2,1.1353699E2,2.2080933E2,2.601759E2,1.0662683E2,5.1972363E1,6.1311127E1,5.086664E1,1.1201254E2,1.592752E2,1.6228918E2,7.433057E1,1.0811328E2,1.983291E2,8.304038E1,1.13217285E2,2.3546289E2,3.724795E2,0E0,0E0,0E0,0E0,0E0,0E0,0E0,0E0,0E0,0E0,0E0,0E0,0E0,0E0,0E0,0E0,0E0,0E0,0E0,0E0,0E0,0E0,0E0,0E0,0E0,0E0,0E0,0E0,0E0,0E0,0E0,0E0,0E0,0E0,0E0,0E0,0E0,0E0,0E0,0E0,0E0,0E0,0E0,0E0,0E0,0E0,0E0,0E0,0E0,0E0,0E0,0E0,0E0,0E0,0E0,0E0,0E0,0E0,0E0,0E0,0E0,0E0,0E0,0E0],"parents":[2147483647,0,0,1,1,2,2,3,3,4,4,5,5,6,6,7,7,8,8,9,9,10,10,11,11,12,12,13,13,14,14,15,15,16,16,17,17,18,18,19,19,20,20,21,21,22,22,23,23,24,24,25,25,26,26,27,27,28,28,29,29,30,30,31,31,32,32,33,33,34,34,35,35,36,36,37,37,38,38,39,39,40,40,41,41,42,42,43,43,44,44,45,45,46,46,47,47,48,48,49,49,50,50,51,51,52,52,53,53,54,54,55,55,56,56,57,57,58,58,59,59,60,60,61,61,62,62],"right_children":[2,4,6,8,10,12,14,16,18,20,22,24,26,28,30,32,34,36,38,40,42,44,46,48,50,52,54,56,58,60,62,64,66,68,70,72,74,76,78,80,82,84,86,88,90,92,94,96,98,100,102,104,106,108,110,112,114,116,118,120,122,124,126,-1,-1,-1,-1,-1,-1,-1,-1,-1,-1,-1,-1,-1,-1,-1,-1,-1,-1,-1,-1,-1,-1,-1,-1,-1,-1,-1,-1,-1,-1,-1,-1,-1,-1,-1,-1,-1,-1,-1,-1,-1,-1,-1,-1,-1,-1,-1,-1,-1,-1,-1,-1,-1,-1,-1,-1,-1,-1,-1,-1,-1,-1,-1,-1],"split_conditions":[-3.9004055E-1,-5.05922E-1,-1.4130543E-1,-5.536543E-1,-4.6082926E-1,-2.8917712E-1,2.3377535E-1,-3.967956E-1,4.530836E-2,8.017764E-1,-3.842449E-1,6.455001E-1,-3.4845293E-1,-2.6877413E-2,8.695248E-3,-5.758558E-1,-8.111977E-1,-1.549019E0,-1.9518083E0,2.7109377E0,1.4883257E-1,-2.8500265E-1,6.815109E-1,2.2558334E-1,1.2702404E0,7.971438E-2,-2.4230695E-1,2.631563E-3,-2.9957217E-1,1.936653E-3,-6.495757E-1,-4.3538227E-3,1.0176946E0,-1.0146348E-2,-5.9468055E-1,-1.1420346E-1,1.0569351E-2,-6.2496233E-1,5.186979E-1,-4.7271892E-1,1.02283515E-1,2.9937546E0,-1.406794E0,-1.2456162E0,-4.4973597E-1,-6.46996E-2,2.5755483E-1,-3.035969E-1,1.0053345E-2,-3.499331E-1,2.3655179E0,-9.7870034E-1,-4.2523895E-3,-4.4578183E-3,7.240113E-1,-4.2268295E-2,7.240113E-1,-5.083226E-1,4.0737012E-1,-3.5481088E0,-1.3816469E0,6.927584E-1,-4.1268808E-1,-6.4129554E-2,-1.7224838E-3,6.614441E-4,4.9491417E-2,-2.006815E-2,-6.172771E-2,-7.18903E-2,-6.446494E-2,-2.9106602E-2,4.033595E-2,-4.5739714E-2,1.8985191E-2,4.882846E-2,-2.0438455E-2,-5.910903E-2,-4.529781E-2,-4.2970713E-2,-3.359721E-2,3.535277E-2,-3.176347E-2,-2.691636E-2,5.717851E-2,-8.0191284E-2,2.3864908E-2,3.503557E-2,-2.7617443E-2,-3.3138178E-3,1.732546E-2,-2.9846732E-2,-2.0459697E-2,7.575045E-4,-1.8532699E-2,1.258189E-4,-1.4677112E-2,-7.9598103E-4,-1.7116912E-2,-2.637448E-2,-1.5404749E-2,6.3343938E-3,8.453998E-2,1.6013497E-2,3.9177504E-3,1.8524982E-2,3.7973323E-3,3.2688293E-3,-7.5370693E-3,2.9721905E-3,-6.8472885E-3,1.2889288E-2,4.743411E-3,1.8222058E-2,6.7418288E-3,1.7207531E-2,9.777762E-3,1.6313886E-2,2.376666E-2,-2.5963008E-2,2.0388993E-3,6.3820304E-3,2.3003275E-2,2.4587357E-2,3.175978E-2,1.5572987E-2,2.2576222E-2],"split_indices":[7,7,7,7,7,7,7,4,4,4,4,6,4,7,1,5,11,8,0,6,11,3,4,0,3,11,11,10,11,1,0,2,6,3,7,6,1,11,4,7,4,4,9,6,4,11,3,4,1,7,3,5,2,2,6,10,6,3,3,4,4,7,11,0,0,0,0,0,0,0,0,0,0,0,0,0,0,0,0,0,0,0,0,0,0,0,0,0,0,0,0,0,0,0,0,0,0,0,0,0,0,0,0,0,0,0,0,0,0,0,0,0,0,0,0,0,0,0,0,0,0,0,0,0,0,0,0],"split_type":[0,0,0,0,0,0,0,0,0,0,0,0,0,0,0,0,0,0,0,0,0,0,0,0,0,0,0,0,0,0,0,0,0,0,0,0,0,0,0,0,0,0,0,0,0,0,0,0,0,0,0,0,0,0,0,0,0,0,0,0,0,0,0,0,0,0,0,0,0,0,0,0,0,0,0,0,0,0,0,0,0,0,0,0,0,0,0,0,0,0,0,0,0,0,0,0,0,0,0,0,0,0,0,0,0,0,0,0,0,0,0,0,0,0,0,0,0,0,0,0,0,0,0,0,0,0,0],"sum_hessian":[4.2390684E5,8.993232E4,3.339745E5,4.07945E4,4.9137824E4,9.762243E4,2.363521E5,2.7713215E4,1.3081285E4,1.7130025E4,3.2007799E4,4.4961215E4,5.266121E4,1.0131099E5,1.350411E5,3.2638873E2,2.7386824E4,2.9587043E3,1.0122581E4,1.6606543E4,5.2348096E2,1.6564811E3,3.0351318E4,3.5526566E4,9.434649E3,1.1901205E4,4.0760008E4,3.401158E4,6.7299414E4,7.509835E3,1.2753126E5,1.2775494E2,1.9863382E2,2.5872766E3,2.4799549E4,9.840147E1,2.860303E3,1.0464007E2,1.001794E4,1.6374584E4,2.319596E2,4.077544E2,1.1572653E2,3.6681778E2,1.2896633E3,2.7258291E4,3.0930269E3,2.0007812E4,1.5518754E4,9.084972E3,3.4967737E2,8.548053E3,3.353153E3,1.4376137E4,2.6383871E4,2.5947633E4,8.063945E3,2.28027E4,4.4496715E4,3.2184246E3,4.29141E3,4.5877746E4,8.1653516E4,6.753691E1,6.0218025E1,1.0053981E2,9.809401E1,3.1788727E2,2.2693894E3,1.5798647E4,9.000901E3,3.7913975E1,6.0487488E1,2.7979092E3,6.2393818E1,2.4024145E1,8.061593E1,8.640137E3,1.3778038E3,1.1759129E4,4.615455E3,9.9069496E1,1.3289009E2,3.9385526E2,1.3899139E1,4.968928E0,1.1075761E2,3.1710274E1,3.3510748E2,8.0121344E2,4.8844983E2,1.5462466E4,1.1795825E4,1.3645425E3,1.7284844E3,2.95584E3,1.7051973E4,1.2484133E4,3.0346204E3,3.8472515E3,5.23772E3,3.279423E2,2.1735067E1,1.2217206E3,7.3263315E3,2.5950693E3,7.580836E2,3.041057E3,1.1335079E4,2.125973E4,5.12414E3,9.866502E3,1.6081131E4,6.2404287E3,1.8235159E3,7.1241567E3,1.5678542E4,3.2124424E4,1.2372291E4,2.900688E2,2.9283557E3,2.6006826E3,1.6907278E3,2.3677465E4,2.2200283E4,3.0061418E4,5.1592094E4],"tree_param":{"num_deleted":"0","num_feature":"43","num_nodes":"127","size_leaf_vector":"1"}},{"base_weights":[-3.649431E-4,-8.4876233E-1,2.257015E-1,-1.2193447E0,-5.4606336E-1,-8.5314445E-2,3.544185E-1,-1.3450966E0,-1.0853812E0,-7.484017E-1,-4.3837416E-1,-2.0723443E-1,1.8716002E-2,2.3301387E-1,4.0153545E-1,-1.2037762E-1,-1.3673707E0,-2.59956E-1,-1.1047689E0,-8.131089E-1,-6.3628507E-1,-2.6539773E-2,-4.6091118E-1,-2.963123E-1,-1.358912E-1,1.7348796E-1,-1.8284721E-2,1.6023949E-1,2.7042034E-1,4.9352512E-1,3.5985318E-1,1.2009907E0,-2.5032818E-1,-5.155668E-1,-1.3738067E0,5.395867E-1,-6.301334E-1,-1.2099707E0,-1.0089209E0,-7.209995E-1,-9.031172E-1,-6.887743E-1,-3.4896672E-1,-4.210446E-1,8.5711055E-2,-4.9163273E-1,-1.9070652E-1,-1.9100735E-1,-3.617318E-1,2.798258E-2,-1.878342E-1,1.08474314E-1,2.8225127E-1,-6.076527E-2,6.713282E-2,2.6195377E-1,1.1785425E-1,3.5814494E-1,2.3947944E-1,4.3042782E-1,5.577241E-1,3.0214518E-1,4.4410768E-1,8.302788E-2,-9.008039E-2,-2.4652427E-2,2.2458311E-2,-5.0169915E-2,3.7173558E-2,-6.019295E-2,-6.9846295E-2,6.1656977E-3,8.6873285E-2,5.555908E-2,-4.0458463E-2,-6.0963105E-2,8.5181445E-3,-3.9639857E-2,-5.3668436E-2,-2.054287E-2,-3.947094E-2,-4.5636628E-2,6.3035666E-4,-3.574155E-2,-5.2729426E-3,-7.1254084E-3,-4.4904582E-2,-4.1609835E-2,-6.8329475E-3,-3.148735E-3,1.6458098E-2,-2.8473912E-2,-1.9485855E-2,1.425621E-3,-1.7134262E-2,-7.3621757E-3,-2.4761649E-2,-1.878813E-2,1.2676844E-2,-1.4656138E-3,9.606416E-3,-7.575358E-3,-2.2493435E-2,8.000369E-3,-1.6342689E-3,1.6583022E-2,9.5544476E-4,-7.858508E-3,-7.3971186E-4,5.4039117E-3,-2.4390928E-3,1.9668167E-2,1.0146237E-2,-1.8240113E-2,6.6933753E-3,2.0672305E-2,1.3430813E-2,8.570413E-3,1.7069772E-2,2.5575384E-2,1.8465614E-2,2.3367556E-2,3.1091982E-2,2.1148356E-2,1.2606035E-2,2.3008207E-2,6.999362E-3],"categories":[],"categories_nodes":[],"categories_segments":[],"categories_sizes":[],"default_left":[0,0,0,0,0,0,0,0,0,0,0,0,0,0,0,0,0,0,0,0,0,0,0,0,0,0,0,0,0,0,0,0,0,0,0,0,0,0,0,0,0,0,0,0,0,0,0,0,0,0,0,0,0,0,0,0,0,0,0,0,0,0,0,0,0,0,0,0,0,0,0,0,0,0,0,0,0,0,0,0,0,0,0,0,0,0,0,0,0,0,0,0,0,0,0,0,0,0,0,0,0,0,0,0,0,0,0,0,0,0,0,0,0,0,0,0,0,0,0,0,0,0,0,0,0,0,0],"id":10,"left_children":[1,3,5,7,9,11,13,15,17,19,21,23,25,27,29,31,33,35,37,39,41,43,45,47,49,51,53,55,57,59,61,63,65,67,69,71,73,75,77,79,81,83,85,87,89,91,93,95,97,99,101,103,105,107,109,111,113,115,117,119,121,123,125,-1,-1,-1,-1,-1,-1,-1,-1,-1,-1,-1,-1,-1,-1,-1,-1,-1,-1,-1,-1,-1,-1,-1,-1,-1,-1,-1,-1,-1,-1,-1,-1,-1,-1,-1,-1,-1,-1,-1,-1,-1,-1,-1,-1,-1,-1,-1,-1,-1,-1,-1,-1,-1,-1,-1,-1,-1,-1,-1,-1,-1,-1,-1,-1],"loss_changes":[8.0972305E4,9.963496E3,1.3345291E4,6.7128906E2,1.065041E3,1.2376443E3,1.3486094E3,5.6164453E2,3.0923438E2,1.2268164E2,2.9618408E2,2.8547534E2,3.015334E2,1.7941602E2,6.5110156E2,6.3655865E1,1.1017969E2,1.3209921E2,1.8932422E2,8.858838E1,9.3548584E1,7.340556E1,2.5106982E2,1.3756812E2,2.1237085E2,7.180551E1,1.5420264E2,9.6468506E1,1.18096436E2,2.142998E2,5.682217E2,4.881676E1,5.7395714E1,9.489054E1,7.71875E1,7.030467E1,9.590801E1,1.1568555E2,1.3696094E2,1.12666504E2,4.791162E1,7.983203E1,1.0900982E2,4.281765E1,4.6739098E1,2.1531299E2,1.0297597E2,1.0188544E2,1.0647034E2,5.6486015E1,1.8026001E2,4.6270363E1,4.9401398E1,1.2577938E2,6.699796E1,5.098468E1,1.2217682E2,5.6087524E1,2.2326843E2,1.3218945E2,1.5180176E2,4.1922607E2,2.3195605E2,0E0,0E0,0E0,0E0,0E0,0E0,0E0,0E0,0E0,0E0,0E0,0E0,0E0,0E0,0E0,0E0,0E0,0E0,0E0,0E0,0E0,0E0,0E0,0E0,0E0,0E0,0E0,0E0,0E0,0E0,0E0,0E0,0E0,0E0,0E0,0E0,0E0,0E0,0E0,0E0,0E0,0E0,0E0,0E0,0E0,0E0,0E0,0E0,0E0,0E0,0E0,0E0,0E0,0E0,0E0,0E0,0E0,0E0,0E0,0E0,0E0,0E0,0E0,0E0],"parents":[2147483647,0,0,1,1,2,2,3,3,4,4,5,5,6,6,7,7,8,8,9,9,10,10,11,11,12,12,13,13,14,14,15,15,16,16,17,17,18,18,19,19,20,20,21,21,22,22,23,23,24,24,25,25,26,26,27,27,28,28,29,29,30,30,31,31,32,32,33,33,34,34,35,35,36,36,37,37,38,38,39,39,40,40,41,41,42,42,43,43,44,44,45,45,46,46,47,47,48,48,49,49,50,50,51,51,52,52,53,53,54,54,55,55,56,56,57,57,58,58,59,59,60,60,61,61,62,62],"right_children":[2,4,6,8,10,12,14,16,18,20,22,24,26,28,30,32,34,36,38,40,42,44,46,48,50,52,54,56,58,60,62,64,66,68,70,72,74,76,78,80,82,84,86,88,90,92,94,96,98,100,102,104,106,108,110,112,114,116,118,120,122,124,126,-1,-1,-1,-1,-1,-1,-1,-1,-1,-1,-1,-1,-1,-1,-1,-1,-1,-1,-1,-1,-1,-1,-1,-1,-1,-1,-1,-1,-1,-1,-1,-1,-1,-1,-1,-1,-1,-1,-1,-1,-1,-1,-1,-1,-1,-1,-1,-1,-1,-1,-1,-1,-1,-1,-1,-1,-1,-1,-1,-1,-1,-1,-1,-1],"split_conditions":[-3.9004055E-1,-5.05922E-1,-1.4130543E-1,-5.821654E-1,-4.6082926E-1,-2.8917712E-1,8.940005E-2,-1.9540606E-1,-8.111977E-1,-2.12921E-2,-3.842449E-1,-1.6120318E-1,-4.098697E-1,-6.7156315E-2,-3.625547E-2,9.684257E-3,-2.4177453E-1,-4.139285E-2,-5.4186714E-1,-3.034361E-2,5.2815914E-1,-2.8500265E-1,6.815109E-1,-4.8253143E-1,-1.6037296E-1,-3.0341335E-2,2.8131703E-2,-3.7205994E-1,-4.6385285E-2,-1.9134353E-1,-2.5508672E-2,-3.957452E-3,1.1746359E0,9.8248655E-3,-7.9899347E-1,1.2955564E0,-4.50711E-3,7.816174E-1,4.530836E-2,-4.7918845E-2,2.890655E0,1.9939408E0,3.9908272E-1,-2.507402E-1,-4.4973597E-1,-6.46996E-2,2.315341E-1,1.00046415E-2,1.2702404E0,3.256099E-1,-4.0948037E-3,9.8743625E-3,8.133111E-2,-2.4691716E-1,4.058784E-1,-3.9200183E-2,-9.702694E-1,1.5114306E-1,-1.8772291E-2,-6.0312307E-1,3.6533168E-1,-8.741784E-1,1.9896396E0,8.302788E-2,-9.008039E-2,-2.4652427E-2,2.2458311E-2,-5.0169915E-2,3.7173558E-2,-6.019295E-2,-6.9846295E-2,6.1656977E-3,8.6873285E-2,5.555908E-2,-4.0458463E-2,-6.0963105E-2,8.5181445E-3,-3.9639857E-2,-5.3668436E-2,-2.054287E-2,-3.947094E-2,-4.5636628E-2,6.3035666E-4,-3.574155E-2,-5.2729426E-3,-7.1254084E-3,-4.4904582E-2,-4.1609835E-2,-6.8329475E-3,-3.148735E-3,1.6458098E-2,-2.8473912E-2,-1.9485855E-2,1.425621E-3,-1.7134262E-2,-7.3621757E-3,-2.4761649E-2,-1.878813E-2,1.2676844E-2,-1.4656138E-3,9.606416E-3,-7.575358E-3,-2.2493435E-2,8.000369E-3,-1.6342689E-3,1.6583022E-2,9.5544476E-4,-7.858508E-3,-7.3971186E-4,5.4039117E-3,-2.4390928E-3,1.9668167E-2,1.0146237E-2,-1.8240113E-2,6.6933753E-3,2.0672305E-2,1.3430813E-2,8.570413E-3,1.7069772E-2,2.5575384E-2,1.8465614E-2,2.3367556E-2,3.1091982E-2,2.1148356E-2,1.2606035E-2,2.3008207E-2,6.999362E-3],"split_indices":[7,7,7,7,7,7,7,4,11,11,4,11,4,7,10,1,3,4,7,10,4,3,4,6,4,11,11,4,10,11,10,2,6,1,11,0,2,4,4,4,6,6,3,0,4,11,3,1,3,11,2,1,10,7,6,10,3,6,10,4,7,5,7,0,0,0,0,0,0,0,0,0,0,0,0,0,0,0,0,0,0,0,0,0,0,0,0,0,0,0,0,0,0,0,0,0,0,0,0,0,0,0,0,0,0,0,0,0,0,0,0,0,0,0,0,0,0,0,0,0,0,0,0,0,0,0,0],"split_type":[0,0,0,0,0,0,0,0,0,0,0,0,0,0,0,0,0,0,0,0,0,0,0,0,0,0,0,0,0,0,0,0,0,0,0,0,0,0,0,0,0,0,0,0,0,0,0,0,0,0,0,0,0,0,0,0,0,0,0,0,0,0,0,0,0,0,0,0,0,0,0,0,0,0,0,0,0,0,0,0,0,0,0,0,0,0,0,0,0,0,0,0,0,0,0,0,0,0,0,0,0,0,0,0,0,0,0,0,0,0,0,0,0,0,0,0,0,0,0,0,0,0,0,0,0,0,0],"sum_hessian":[4.221813E5,8.882607E4,3.3335522E5,3.9933742E4,4.8892332E4,9.757861E4,2.3577662E5,2.0593518E4,1.9340225E4,1.6980865E4,3.1911467E4,4.4925973E4,5.2652633E4,6.592246E4,1.6985416E5,3.67961E2,2.0225557E4,4.441736E2,1.889605E4,1.0762895E4,6.2179707E3,1.6558132E3,3.0255654E4,1.9978287E4,2.4947684E4,1.0158115E4,4.249452E4,2.2382518E4,4.353994E4,5.2961434E4,1.1689273E5,3.2209114E1,3.3575186E2,1.5228035E2,2.0073275E4,1.404213E2,3.0375232E2,9.002914E3,9.893137E3,5.3238125E3,5.439082E3,5.2563145E3,9.616561E2,3.6616785E2,1.2896455E3,2.7166117E4,3.089536E3,7.6569346E3,1.2321354E4,6.004545E3,1.894314E4,6.3589995E3,3.799116E3,2.8380424E4,1.4114095E4,6.5820386E3,1.58004795E4,1.1349873E4,3.2190068E4,2.6713785E4,2.6247646E4,6.937835E4,4.7514375E4,2.8321316E1,3.8877993E0,2.4947922E2,8.627266E1,1.09900826E2,4.237953E1,2.4100728E3,1.7663203E4,1.0502663E2,3.5394672E1,2.783366E1,2.7591864E2,8.942834E3,6.007989E1,2.275525E3,7.617612E3,9.634661E2,4.360346E3,5.382567E3,5.651516E1,5.0313394E3,2.2497517E2,6.998049E2,2.6185126E2,1.4892802E2,2.1723982E2,8.011131E2,4.8853232E2,1.539924E4,1.1766877E4,1.2652751E3,1.8242607E3,6.695281E3,9.616535E2,1.2047019E4,2.743346E2,4.451556E3,1.5529884E3,1.6638102E4,2.3050386E3,4.6582734E3,1.7007263E3,3.1983203E3,6.007955E2,9.162828E3,1.9217596E4,1.0429923E4,3.6841724E3,2.0384376E3,4.543601E3,5.0668427E2,1.5293795E4,7.013854E3,4.336019E3,1.9301201E4,1.2888866E4,1.1478411E4,1.5235374E4,1.0896691E4,1.5350955E4,2.0312057E4,4.9066293E4,4.513111E4,2.3832678E3],"tree_param":{"num_deleted":"0","num_feature":"43","num_nodes":"127","size_leaf_vector":"1"}},{"base_weights":[-4.117062E-4,-8.171404E-1,2.1483909E-1,-1.185336E0,-5.215329E-1,-5.55908E-2,3.4913614E-1,-1.3130044E0,-1.0504621E0,-7.422466E-1,-4.284808E-1,-1.8926059E-1,4.7665287E-2,2.7951846E-1,4.0902278E-1,-1.14935376E-1,-1.3352784E0,-2.4835469E-1,-1.069538E0,-8.111848E-1,-6.1528045E-1,-1.6758798E-2,-4.488099E-1,-1.479154E-1,-3.4535515E-1,1.9463179E-1,1.1251256E-2,2.3085207E-1,3.4832948E-1,4.317714E-1,1.5086274E-1,1.1189157E-1,-8.196752E-1,-1.1360654E0,-1.3631774E0,5.127325E-1,-6.0431165E-1,-1.1750684E0,-9.739542E-1,-7.516564E-1,-9.314047E-1,-6.7589957E-1,-2.9886922E-1,-3.9837977E-1,9.565694E-2,-4.677804E-1,-5.2938614E-2,-2.1906877E-1,-5.591512E-2,-3.721176E-1,1.7267351E-1,2.9311645E-1,1.2397416E-1,-5.1156852E-2,7.397537E-2,3.365309E-1,2.01512E-1,3.1587708E-1,4.6659374E-1,3.477877E-1,4.8184294E-1,4.6832293E-2,3.6920875E-1,-2.4881808E-2,2.9098937E-2,-6.013555E-2,3.1359557E-2,3.1130768E-3,-5.855034E-2,-6.832195E-2,-4.8981067E-2,5.857197E-3,8.245506E-2,5.2321102E-2,-3.8885687E-2,-5.921436E-2,8.076536E-3,-3.8048033E-2,-5.189658E-2,-3.8110375E-2,2.0306734E-2,-5.3631913E-2,-4.3738578E-2,-3.6583092E-2,-1.9904805E-2,-7.1196067E-3,-6.2241804E-2,-4.1310094E-2,-5.204359E-3,-2.719213E-3,1.9838082E-2,-2.2007622E-2,-3.58977E-2,6.3664713E-3,-3.7665147E-2,1.015101E-3,-1.308754E-2,-6.736401E-4,-1.9578932E-2,-9.563067E-3,-2.1929681E-2,-8.378394E-2,1.06466375E-2,7.893331E-3,1.7817985E-2,1.2877933E-2,1.5586617E-3,-7.562457E-3,-4.784089E-6,1.7377429E-3,1.0027891E-2,5.2833906E-3,2.0411303E-2,9.710793E-3,2.9842256E-2,3.2419708E-2,1.5195489E-2,1.773119E-2,2.653253E-2,6.1771967E-3,1.8745616E-2,2.8984994E-2,2.2176227E-2,4.2808065E-3,-1.2603595E-2,4.304747E-2,1.4372458E-2],"categories":[],"categories_nodes":[],"categories_segments":[],"categories_sizes":[],"default_left":[0,0,0,0,0,0,0,0,0,0,0,0,0,0,0,0,0,0,0,0,0,0,0,0,0,0,0,0,0,0,0,0,0,0,0,0,0,0,0,0,0,0,0,0,0,0,0,0,0,0,0,0,0,0,0,0,0,0,0,0,0,0,0,0,0,0,0,0,0,0,0,0,0,0,0,0,0,0,0,0,0,0,0,0,0,0,0,0,0,0,0,0,0,0,0,0,0,0,0,0,0,0,0,0,0,0,0,0,0,0,0,0,0,0,0,0,0,0,0,0,0,0,0,0,0,0,0],"id":11,"left_children":[1,3,5,7,9,11,13,15,17,19,21,23,25,27,29,31,33,35,37,39,41,43,45,47,49,51,53,55,57,59,61,63,65,67,69,71,73,75,77,79,81,83,85,87,89,91,93,95,97,99,101,103,105,107,109,111,113,115,117,119,121,123,125,-1,-1,-1,-1,-1,-1,-1,-1,-1,-1,-1,-1,-1,-1,-1,-1,-1,-1,-1,-1,-1,-1,-1,-1,-1,-1,-1,-1,-1,-1,-1,-1,-1,-1,-1,-1,-1,-1,-1,-1,-1,-1,-1,-1,-1,-1,-1,-1,-1,-1,-1,-1,-1,-1,-1,-1,-1,-1,-1,-1,-1,-1,-1,-1],"loss_changes":[7.391051E4,9.543844E3,1.208404E4,6.7103125E2,9.986885E2,1.5238757E3,9.267871E2,5.3508594E2,2.9036523E2,1.2575293E2,2.8640234E2,3.1048767E2,3.3335632E2,3.442124E2,7.017988E2,5.8787067E1,1.07890625E2,1.201991E2,1.8599805E2,6.617871E1,9.723474E1,6.91556E1,2.4486377E2,2.4902307E2,1.3974634E2,8.603641E1,1.9542618E2,1.8666309E2,1.6330713E2,4.6170312E2,2.1985725E2,8.013327E1,5.036919E1,1.0160547E2,2.0261719E1,6.344259E1,8.725174E1,1.0878027E2,1.3194824E2,7.6726074E1,2.3782715E1,6.573767E1,1.2098674E2,4.6095535E1,5.6283043E1,2.1476123E2,1.8850537E2,2.1917358E2,2.3637616E2,1.15101685E2,3.7238113E1,4.4134735E1,8.9295166E1,1.278986E2,1.2360611E2,2.1654199E2,1.3585303E2,1.3279883E2,6.557007E1,2.4950586E2,2.5774707E2,7.60384E1,1.2533267E2,0E0,0E0,0E0,0E0,0E0,0E0,0E0,0E0,0E0,0E0,0E0,0E0,0E0,0E0,0E0,0E0,0E0,0E0,0E0,0E0,0E0,0E0,0E0,0E0,0E0,0E0,0E0,0E0,0E0,0E0,0E0,0E0,0E0,0E0,0E0,0E0,0E0,0E0,0E0,0E0,0E0,0E0,0E0,0E0,0E0,0E0,0E0,0E0,0E0,0E0,0E0,0E0,0E0,0E0,0E0,0E0,0E0,0E0,0E0,0E0,0E0,0E0,0E0,0E0],"parents":[2147483647,0,0,1,1,2,2,3,3,4,4,5,5,6,6,7,7,8,8,9,9,10,10,11,11,12,12,13,13,14,14,15,15,16,16,17,17,18,18,19,19,20,20,21,21,22,22,23,23,24,24,25,25,26,26,27,27,28,28,29,29,30,30,31,31,32,32,33,33,34,34,35,35,36,36,37,37,38,38,39,39,40,40,41,41,42,42,43,43,44,44,45,45,46,46,47,47,48,48,49,49,50,50,51,51,52,52,53,53,54,54,55,55,56,56,57,57,58,58,59,59,60,60,61,61,62,62],"right_children":[2,4,6,8,10,12,14,16,18,20,22,24,26,28,30,32,34,36,38,40,42,44,46,48,50,52,54,56,58,60,62,64,66,68,70,72,74,76,78,80,82,84,86,88,90,92,94,96,98,100,102,104,106,108,110,112,114,116,118,120,122,124,126,-1,-1,-1,-1,-1,-1,-1,-1,-1,-1,-1,-1,-1,-1,-1,-1,-1,-1,-1,-1,-1,-1,-1,-1,-1,-1,-1,-1,-1,-1,-1,-1,-1,-1,-1,-1,-1,-1,-1,-1,-1,-1,-1,-1,-1,-1,-1,-1,-1,-1,-1,-1,-1,-1,-1,-1,-1,-1,-1,-1,-1,-1,-1,-1],"split_conditions":[-3.9004055E-1,-5.05922E-1,-9.876558E-2,-5.821654E-1,-4.6677813E-1,-2.8131154E-1,3.0192688E-1,-1.9540606E-1,-8.111977E-1,-7.158709E-3,-3.967956E-1,6.455001E-1,-4.3654257E-1,-7.68335E-2,-4.04688E-3,-3.2171664E-1,-7.9899347E-1,-4.139285E-2,-5.4186714E-1,-1.5664918E-2,5.186979E-1,-2.8500265E-1,8.444377E-1,2.2558334E-1,1.0031222E0,-3.1700984E-2,-2.0094422E-1,-8.225287E-1,5.525749E-1,-4.1268808E-1,-1.0046027E0,-8.629633E-1,2.4466286E0,-2.4177453E-1,2.890655E0,1.2955564E0,-4.50711E-3,7.816174E-1,4.530836E-2,-3.2305052E-3,-2.8041258E-1,-4.7271892E-1,1.0441317E-2,-2.507402E-1,-4.4973597E-1,-4.006304E-3,6.453278E-1,-3.035969E-1,1.0203731E-2,-1.0383929E-1,-1.4527985E0,-2.518215E-1,-2.759488E-1,-2.4548666E-1,5.4102856E-1,9.801589E-3,-3.5204971E-3,-6.505898E-1,3.700372E-2,-4.553891E-3,-1.0162005E0,2.5965178E0,-7.570121E-1,-2.4881808E-2,2.9098937E-2,-6.013555E-2,3.1359557E-2,3.1130768E-3,-5.855034E-2,-6.832195E-2,-4.8981067E-2,5.857197E-3,8.245506E-2,5.2321102E-2,-3.8885687E-2,-5.921436E-2,8.076536E-3,-3.8048033E-2,-5.189658E-2,-3.8110375E-2,2.0306734E-2,-5.3631913E-2,-4.3738578E-2,-3.6583092E-2,-1.9904805E-2,-7.1196067E-3,-6.2241804E-2,-4.1310094E-2,-5.204359E-3,-2.719213E-3,1.9838082E-2,-2.2007622E-2,-3.58977E-2,6.3664713E-3,-3.7665147E-2,1.015101E-3,-1.308754E-2,-6.736401E-4,-1.9578932E-2,-9.563067E-3,-2.1929681E-2,-8.378394E-2,1.06466375E-2,7.893331E-3,1.7817985E-2,1.2877933E-2,1.5586617E-3,-7.562457E-3,-4.784089E-6,1.7377429E-3,1.0027891E-2,5.2833906E-3,2.0411303E-2,9.710793E-3,2.9842256E-2,3.2419708E-2,1.5195489E-2,1.773119E-2,2.653253E-2,6.1771967E-3,1.8745616E-2,2.8984994E-2,2.2176227E-2,4.2808065E-3,-1.2603595E-2,4.304747E-2,1.4372458E-2],"split_indices":[7,7,7,7,7,7,7,4,11,11,4,6,4,11,2,0,11,4,7,10,4,3,4,0,4,10,7,4,3,11,4,5,6,3,6,0,2,4,4,2,11,7,1,0,4,2,3,4,1,4,9,11,3,11,3,1,2,10,7,2,0,7,6,0,0,0,0,0,0,0,0,0,0,0,0,0,0,0,0,0,0,0,0,0,0,0,0,0,0,0,0,0,0,0,0,0,0,0,0,0,0,0,0,0,0,0,0,0,0,0,0,0,0,0,0,0,0,0,0,0,0,0,0,0,0,0,0],"split_type":[0,0,0,0,0,0,0,0,0,0,0,0,0,0,0,0,0,0,0,0,0,0,0,0,0,0,0,0,0,0,0,0,0,0,0,0,0,0,0,0,0,0,0,0,0,0,0,0,0,0,0,0,0,0,0,0,0,0,0,0,0,0,0,0,0,0,0,0,0,0,0,0,0,0,0,0,0,0,0,0,0,0,0,0,0,0,0,0,0,0,0,0,0,0,0,0,0,0,0,0,0,0,0,0,0,0,0,0,0,0,0,0,0,0,0,0,0,0,0,0,0,0,0,0,0,0,0],"sum_hessian":[4.204182E5,8.769045E4,3.3272775E5,3.904933E4,4.8641125E4,1.10406375E5,2.2232138E5,2.0056045E4,1.8993283E4,1.4423204E4,3.4217918E4,4.8116504E4,6.228987E4,1.028106E5,1.19510766E5,3.6618106E2,1.9689863E4,4.415357E2,1.8551748E4,9.344228E3,5.0789766E3,1.6101228E3,3.2607797E4,3.8042133E4,1.0074373E4,1.2368092E4,4.992178E4,6.022267E4,4.2587934E4,1.0983191E5,9.678862E3,2.7765613E2,8.8524925E1,2.4238813E3,1.7265982E4,1.4055928E2,3.009764E2,8.811749E3,9.739999E3,6.2544907E3,3.089737E3,4.2614233E3,8.1755316E2,3.6579706E2,1.2443257E3,3.1116482E4,1.4913131E3,2.1450697E4,1.6591434E4,9.579745E3,4.9462827E2,5.165341E3,7.2027505E3,2.5024018E4,2.4897764E4,1.3084319E4,4.713835E4,3.3420758E4,9.167177E3,4.102675E4,6.880516E4,6.556329E3,3.1225332E3,1.2087184E2,1.5678429E2,7.012828E1,1.8396648E1,6.865209E1,2.3552292E3,1.7117857E4,1.4812546E2,1.050817E2,3.547758E1,2.813218E1,2.7284424E2,8.751502E3,6.0246902E1,2.2528174E3,7.487182E3,6.198346E3,5.6144375E1,8.7920526E2,2.210532E3,3.54768E3,7.137436E2,7.024997E2,1.1505345E2,1.4834134E2,2.1745572E2,8.3103723E2,4.1328848E2,2.8024363E4,3.092119E3,1.1866876E3,3.0462546E2,3.2461357E3,1.8204562E4,1.4729972E4,1.8614623E3,2.5758096E3,7.003935E3,9.677976E0,4.849503E2,1.6468788E3,3.5184622E3,2.9518562E3,4.2508945E3,8.452704E3,1.6571314E4,1.9009197E4,5.8885664E3,3.1010884E3,9.983231E3,4.628561E4,8.5274036E2,1.1591827E3,3.2261576E4,3.3383525E3,5.8288237E3,4.427706E3,3.6599043E4,1.9357125E4,4.944803E4,5.803959E3,7.523698E2,4.437974E2,2.6787358E3],"tree_param":{"num_deleted":"0","num_feature":"43","num_nodes":"127","size_leaf_vector":"1"}},{"base_weights":[-4.5662952E-4,-8.3858514E-1,1.9228421E-1,-1.1698959E0,-5.538733E-1,-1.0986146E-1,3.154163E-1,-1.2832837E0,-1.037081E0,-7.291669E-1,-4.435442E-1,-2.0500907E-1,1.3867673E-3,1.8425113E-1,3.5958788E-1,-1.0990237E-1,-1.3056065E0,-2.3805225E-1,-1.0574367E0,-7.9704607E-1,-6.032163E-1,-2.4991746E-1,-4.8770604E-1,-2.9727378E-1,-1.3775982E-1,1.5197356E-1,-3.0073691E-2,2.609381E-1,1.4863397E-1,4.5207682E-1,3.2313544E-1,1.020452E0,-2.4760681E-1,-1.1052432E0,-1.3338255E0,5.4862946E-1,-6.0689956E-1,-1.1422336E0,-9.615704E-1,-2.0765714E-1,-8.079326E-1,-6.604562E-1,-2.9888344E-1,-4.235741E-1,-6.874795E-2,-5.0350446E-1,-4.7542978E-2,-1.8468164E-1,-3.6233363E-1,-1.1047372E-1,-3.845104E-1,6.826789E-2,2.8573522E-1,5.5287513E-3,-1.4584674E-1,4.4734034E-1,2.273857E-1,1.2301113E-1,3.3383843E-1,3.8063788E-1,5.0278115E-1,2.7265254E-1,4.038944E-1,6.8233594E-2,-8.501306E-2,-5.2288312E-2,-8.4620266E-4,-5.84519E-2,-2.1418715E-2,-6.8207204E-2,-6.449401E-2,9.650991E-3,7.680164E-2,5.1243782E-2,-3.8081396E-2,-5.7569772E-2,7.659157E-3,-3.6890026E-2,-5.1412653E-2,-2.7336035E-2,7.893883E-2,-4.3666672E-2,-3.5775844E-2,-2.0684768E-2,-3.641127E-2,-1.0681791E-3,-3.9214823E-2,-2.074012E-3,-2.7320972E-2,2.5417391E-2,-8.0480445E-3,-2.6476989E-2,-1.2269123E-2,4.2128704E-2,-1.152015E-2,-6.747935E-3,-2.6696265E-2,-2.3870988E-2,-1.402677E-2,-1.0620395E-2,1.023847E-3,