{"learner":{"attributes":{"best_iteration":"174","best_score":"0.7180227588143183","scikit_learn":"{\"_estimator_type\": \"classifier\"}"},"feature_names":["rsi_14","macd_signal","macd_histogram","sma20_sma50_ratio","sma50_sma200_ratio","bollinger_pct_b","adx","atr_normalized","stoch_k","stoch_d","obv_slope_5d","volume_ratio_20d","best_pattern_confidence","best_pattern_direction","num_active_patterns","days_since_pattern","pe_ratio","forward_pe","peg_ratio","price_to_book","profit_margin","operating_margin","roe","debt_to_equity","fcf_to_mcap","revenue_per_share","earnings_per_share","beta","dividend_yield","value_score","quality_score","growth_score","safety_score","news_positive","news_negative","news_neutral","reddit_positive","reddit_negative","reddit_neutral","stocktwits_positive","stocktwits_negative","stocktwits_neutral","sentiment_sample_size"],"feature_types":["float","float","float","float","float","float","float","float","float","float","float","float","float","float","float","float","float","float","float","float","float","float","float","float","float","float","float","float","float","float","float","float","float","float","float","float","float","float","float","float","float","float","float"],"gradient_booster":{"model":{"cats":{"enc":[],"feature_segments":[],"sorted_idx":[]},"gbtree_model_param":{"num_parallel_tree":"1","num_trees":"225"},"iteration_indptr":[0,1,2,3,4,5,6,7,8,9,10,11,12,13,14,15,16,17,18,19,20,21,22,23,24,25,26,27,28,29,30,31,32,33,34,35,36,37,38,39,40,41,42,43,44,45,46,47,48,49,50,51,52,53,54,55,56,57,58,59,60,61,62,63,64,65,66,67,68,69,70,71,72,73,74,75,76,77,78,79,80,81,82,83,84,85,86,87,88,89,90,91,92,93,94,95,96,97,98,99,100,101,102,103,104,105,106,107,108,109,110,111,112,113,114,115,116,117,118,119,120,121,122,123,124,125,126,127,128,129,130,131,132,133,134,135,136,137,138,139,140,141,142,143,144,145,146,147,148,149,150,151,152,153,154,155,156,157,158,159,160,161,162,163,164,165,166,167,168,169,170,171,172,173,174,175,176,177,178,179,180,181,182,183,184,185,186,187,188,189,190,191,192,193,194,195,196,197,198,199,200,201,202,203,204,205,206,207,208,209,210,211,212,213,214,215,216,217,218,219,220,221,222,223,224,225],"tree_info":[0,0,0,0,0,0,0,0,0,0,0,0,0,0,0,0,0,0,0,0,0,0,0,0,0,0,0,0,0,0,0,0,0,0,0,0,0,0,0,0,0,0,0,0,0,0,0,0,0,0,0,0,0,0,0,0,0,0,0,0,0,0,0,0,0,0,0,0,0,0,0,0,0,0,0,0,0,0,0,0,0,0,0,0,0,0,0,0,0,0,0,0,0,0,0,0,0,0,0,0,0,0,0,0,0,0,0,0,0,0,0,0,0,0,0,0,0,0,0,0,0,0,0,0,0,0,0,0,0,0,0,0,0,0,0,0,0,0,0,0,0,0,0,0,0,0,0,0,0,0,0,0,0,0,0,0,0,0,0,0,0,0,0,0,0,0,0,0,0,0,0,0,0,0,0,0,0,0,0,0,0,0,0,0,0,0,0,0,0,0,0,0,0,0,0,0,0,0,0,0,0,0,0,0,0,0,0,0,0,0,0,0,0,0,0,0,0,0,0,0,0,0,0,0,0],"trees":[{"base_weights":[-1.2730161E-8,-1.1666684E0,4.0205583E-1,-1.638568E0,-7.584827E-1,-2.5749553E-2,6.0515666E-1,-1.8353872E0,-1.354673E0,-1.0007398E0,-5.9276885E-1,-2.140297E-1,1.4124437E-1,4.50683E-1,7.071116E-1,-1.9212418E0,-1.7028011E0,-1.1385425E0,-1.3980846E0,-1.083552E0,-7.9348487E-1,-6.7234755E-1,-3.7318072E-1,-3.0672777E-1,1.0171649E-2,2.3593888E-2,2.678914E-1,3.414765E-1,5.12437E-1,6.533639E-1,7.767643E-1,-1.2550814E0,-1.9284577E0,-7.942898E-1,-1.7115773E0,-6.8246424E-1,-1.1785699E0,-1.4390686E0,-1.1918812E0,-7.850489E-1,-1.1249754E0,-9.4511443E-1,-6.9370407E-1,-7.8785545E-1,-5.864619E-1,-4.6997157E-1,-2.728209E-1,-4.042707E-1,-2.074911E-1,2.7186978E-1,-2.8133232E-2,-6.527565E-2,1.008722E-1,1.0305898E-1,3.1481218E-1,2.4073571E-1,3.9580584E-1,4.1095278E-1,5.645058E-1,5.8722055E-1,7.203323E-1,7.1402174E-1,8.316501E-1,-6.53553E-2,2.3336431E-2,-8.060711E-2,-9.678967E-2,3.357831E-2,-4.72877E-2,-8.327366E-2,-9.2322886E-2,-2.0320717E-2,-5.2534945E-2,-7.313505E-2,-5.6753047E-2,-3.7312936E-2,-7.2528504E-2,-6.631863E-2,-5.083376E-2,-1.4751519E-2,-4.1252647E-2,-5.6772996E-2,-2.289967E-2,-5.888641E-2,-4.523673E-2,-1.9835703E-2,-3.8047694E-2,-2.9793626E-2,-4.146078E-2,-2.0727366E-2,-3.139111E-2,-5.21549E-2,-2.2684256E-2,1.2918979E-2,-1.4252419E-2,-1.2236993E-2,-2.296245E-2,2.217765E-4,-1.2382953E-2,2.7561883E-2,1.0007025E-2,-5.129415E-3,2.9159167E-3,-7.82917E-3,4.5575682E-4,1.1734883E-2,3.233969E-3,1.8004247E-3,1.202693E-2,1.48169445E-2,2.7311588E-2,2.0687338E-2,1.0529036E-2,2.7165491E-2,1.8491277E-2,1.6301904E-2,2.305069E-2,2.5966236E-2,3.275821E-2,2.2479283E-2,3.0474136E-2,2.6929716E-2,3.7195243E-2,3.43656E-2,4.087177E-2,4.6677273E-2,3.970717E-2],"categories":[],"categories_nodes":[],"categories_segments":[],"categories_sizes":[],"default_left":[0,0,0,0,0,0,0,0,0,0,0,0,0,0,0,0,0,0,0,0,0,0,0,0,0,0,0,0,0,0,0,0,0,0,0,0,0,0,0,0,0,0,0,0,0,0,0,0,0,0,0,0,0,0,0,0,0,0,0,0,0,0,0,0,0,0,0,0,0,0,0,0,0,0,0,0,0,0,0,0,0,0,0,0,0,0,0,0,0,0,0,0,0,0,0,0,0,0,0,0,0,0,0,0,0,0,0,0,0,0,0,0,0,0,0,0,0,0,0,0,0,0,0,0,0,0,0],"id":0,"left_children":[1,3,5,7,9,11,13,15,17,19,21,23,25,27,29,31,33,35,37,39,41,43,45,47,49,51,53,55,57,59,61,63,65,67,69,71,73,75,77,79,81,83,85,87,89,91,93,95,97,99,101,103,105,107,109,111,113,115,117,119,121,123,125,-1,-1,-1,-1,-1,-1,-1,-1,-1,-1,-1,-1,-1,-1,-1,-1,-1,-1,-1,-1,-1,-1,-1,-1,-1,-1,-1,-1,-1,-1,-1,-1,-1,-1,-1,-1,-1,-1,-1,-1,-1,-1,-1,-1,-1,-1,-1,-1,-1,-1,-1,-1,-1,-1,-1,-1,-1,-1,-1,-1,-1,-1,-1,-1],"loss_changes":[2.0037672E5,2.1087984E4,2.7604035E4,2.8348125E3,2.3562305E3,3.2156926E3,3.3924844E3,3.380547E2,1.9351172E2,4.0839453E2,6.089697E2,9.991172E2,8.0760046E2,5.7747656E2,4.853164E2,8.503125E1,9.267578E1,6.2788086E1,1.4458594E2,2.0975E2,1.0239697E2,2.5338867E2,8.9977295E1,3.2914014E2,1.4098195E2,1.9298763E2,2.0184692E2,1.6926147E2,2.8887988E2,3.240625E2,1.9402734E2,1.832956E1,3.8632812E1,2.610263E1,6.955859E1,2.8384079E1,3.791162E1,1.1395117E2,6.642285E1,4.051355E1,1.04072266E2,2.4300293E1,8.182007E1,8.613135E1,1.0412158E2,4.3589355E1,2.9668518E1,1.5031421E2,1.4353595E2,3.5873688E1,7.897549E1,8.878119E1,7.2785416E1,5.332129E1,8.670032E1,5.648535E1,7.682837E1,7.8731445E1,1.4776172E2,1.1266504E2,1.5551953E2,7.2299805E1,1.14447266E2,0E0,0E0,0E0,0E0,0E0,0E0,0E0,0E0,0E0,0E0,0E0,0E0,0E0,0E0,0E0,0E0,0E0,0E0,0E0,0E0,0E0,0E0,0E0,0E0,0E0,0E0,0E0,0E0,0E0,0E0,0E0,0E0,0E0,0E0,0E0,0E0,0E0,0E0,0E0,0E0,0E0,0E0,0E0,0E0,0E0,0E0,0E0,0E0,0E0,0E0,0E0,0E0,0E0,0E0,0E0,0E0,0E0,0E0,0E0,0E0,0E0,0E0,0E0,0E0],"parents":[2147483647,0,0,1,1,2,2,3,3,4,4,5,5,6,6,7,7,8,8,9,9,10,10,11,11,12,12,13,13,14,14,15,15,16,16,17,17,18,18,19,19,20,20,21,21,22,22,23,23,24,24,25,25,26,26,27,27,28,28,29,29,30,30,31,31,32,32,33,33,34,34,35,35,36,36,37,37,38,38,39,39,40,40,41,41,42,42,43,43,44,44,45,45,46,46,47,47,48,48,49,49,50,50,51,51,52,52,53,53,54,54,55,55,56,56,57,57,58,58,59,59,60,60,61,61,62,62],"right_children":[2,4,6,8,10,12,14,16,18,20,22,24,26,28,30,32,34,36,38,40,42,44,46,48,50,52,54,56,58,60,62,64,66,68,70,72,74,76,78,80,82,84,86,88,90,92,94,96,98,100,102,104,106,108,110,112,114,116,118,120,122,124,126,-1,-1,-1,-1,-1,-1,-1,-1,-1,-1,-1,-1,-1,-1,-1,-1,-1,-1,-1,-1,-1,-1,-1,-1,-1,-1,-1,-1,-1,-1,-1,-1,-1,-1,-1,-1,-1,-1,-1,-1,-1,-1,-1,-1,-1,-1,-1,-1,-1,-1,-1,-1,-1,-1,-1,-1,-1,-1,-1,-1,-1,-1,-1,-1],"split_conditions":[-3.6653847E-1,-4.971194E-1,-8.6976744E-2,-5.6244236E-1,-4.4081578E-1,-2.5286275E-1,2.5006035E-1,-6.0787845E-1,3.8805674E-3,6.836995E-2,9.979721E-2,8.059092E-2,-1.1422552E-1,-2.7625045E-1,-2.095656E-1,-2.1538728E-1,-2.2228868E0,-6.7548966E-1,2.6719335E-1,-1.2532139E-1,-4.733037E-1,-4.0893564E-1,3.676688E-1,-3.1318995E-1,-3.6952412E-1,-1.8152805E-1,-2.2092482E-1,2.7793322E-2,1.3475359E-2,7.1101475E-1,5.445787E-1,2.2219946E0,-5.245178E-2,-6.285324E-2,-2.9070372E-2,6.5749305E-1,-5.505108E-1,-1.5754547E0,-5.2354175E-1,-6.328088E-1,1.7936378E0,-4.5627197E-3,-6.5821536E-2,-1.2532139E-1,-1.5816537E-1,-5.491266E-3,-5.5084646E-1,-1.3317785E-1,-3.6952412E-1,-8.197154E-1,3.979883E-1,-3.2455248E-1,-8.150671E-1,3.3931547E-1,1.7491487E0,-9.642365E-1,-9.880255E-1,-6.362972E-2,2.5583383E-1,-6.667413E-1,-7.764205E-1,7.604511E-1,-1.2019386E0,-6.53553E-2,2.3336431E-2,-8.060711E-2,-9.678967E-2,3.357831E-2,-4.72877E-2,-8.327366E-2,-9.2322886E-2,-2.0320717E-2,-5.2534945E-2,-7.313505E-2,-5.6753047E-2,-3.7312936E-2,-7.2528504E-2,-6.631863E-2,-5.083376E-2,-1.4751519E-2,-4.1252647E-2,-5.6772996E-2,-2.289967E-2,-5.888641E-2,-4.523673E-2,-1.9835703E-2,-3.8047694E-2,-2.9793626E-2,-4.146078E-2,-2.0727366E-2,-3.139111E-2,-5.21549E-2,-2.2684256E-2,1.2918979E-2,-1.4252419E-2,-1.2236993E-2,-2.296245E-2,2.217765E-4,-1.2382953E-2,2.7561883E-2,1.0007025E-2,-5.129415E-3,2.9159167E-3,-7.82917E-3,4.5575682E-4,1.1734883E-2,3.233969E-3,1.8004247E-3,1.202693E-2,1.48169445E-2,2.7311588E-2,2.0687338E-2,1.0529036E-2,2.7165491E-2,1.8491277E-2,1.6301904E-2,2.305069E-2,2.5966236E-2,3.275821E-2,2.2479283E-2,3.0474136E-2,2.6929716E-2,3.7195243E-2,3.43656E-2,4.087177E-2,4.6677273E-2,3.970717E-2],"split_indices":[7,7,7,7,7,7,7,7,4,11,11,11,11,11,11,3,0,11,11,4,7,7,11,7,4,7,7,7,7,7,7,5,4,10,10,8,7,8,7,11,5,2,4,4,4,2,4,4,4,4,11,11,5,11,5,5,5,11,11,11,11,11,5,0,0,0,0,0,0,0,0,0,0,0,0,0,0,0,0,0,0,0,0,0,0,0,0,0,0,0,0,0,0,0,0,0,0,0,0,0,0,0,0,0,0,0,0,0,0,0,0,0,0,0,0,0,0,0,0,0,0,0,0,0,0,0,0],"split_type":[0,0,0,0,0,0,0,0,0,0,0,0,0,0,0,0,0,0,0,0,0,0,0,0,0,0,0,0,0,0,0,0,0,0,0,0,0,0,0,0,0,0,0,0,0,0,0,0,0,0,0,0,0,0,0,0,0,0,0,0,0,0,0,0,0,0,0,0,0,0,0,0,0,0,0,0,0,0,0,0,0,0,0,0,0,0,0,0,0,0,0,0,0,0,0,0,0,0,0,0,0,0,0,0,0,0,0,0,0,0,0,0,0,0,0,0,0,0,0,0,0,0,0,0,0,0,0],"sum_hessian":[4.271805E5,1.0948365E5,3.1769688E5,5.077739E4,5.8706254E4,1.02273016E5,2.1542386E5,2.9984334E4,2.0793057E4,2.3843865E4,3.486239E4,4.8072535E4,5.420048E4,8.565378E4,1.2977008E5,1.8191283E4,1.1793052E4,3.4824495E3,1.7310605E4,1.7033588E4,6.8102773E3,2.5587447E4,9.274943E3,3.40103E4,1.4062234E4,2.8098857E4,2.6101623E4,3.0942037E4,5.4711742E4,7.325383E4,5.6516246E4,1.968143E2,1.7994469E4,1.1370568E2,1.1679346E4,2.8243112E2,3.2000183E3,1.4435506E4,2.8751006E3,2.078145E3,1.4955442E4,2.699529E3,4.110748E3,1.0908451E4,1.4678995E4,4.719549E3,4.555395E3,1.7149967E4,1.6860332E4,1.7947108E3,1.2267523E4,1.306935E4,1.5029508E4,5.7843667E3,2.0317258E4,1.0842552E4,2.0099486E4,1.8555406E4,3.6156332E4,3.6858863E4,3.639496E4,2.637724E4,3.0139008E4,1.9127574E2,5.5385513E0,4.1285175E2,1.7581617E4,1.0327106E1,1.0337857E2,8.714088E3,2.9652576E3,1.6262312E2,1.19808014E2,4.2061508E2,2.779403E3,2.3680894E2,1.4198696E4,1.6228213E3,1.2522794E3,1.5748221E2,1.9206628E3,1.47233E4,2.3214282E2,3.9513528E2,2.3043938E3,7.6024347E2,3.3505046E3,1.9362563E3,8.972195E3,2.8488308E3,1.1830164E4,1.2866702E2,4.590882E3,1.0204628E2,4.4533486E3,4.396901E3,1.2753066E4,2.6866145E3,1.4173718E4,3.652944E2,1.4294164E3,6.5909683E3,5.6765557E3,5.867022E3,7.2023276E3,3.198255E3,1.1831253E4,3.8889436E3,1.8954232E3,1.8817418E4,1.4998384E3,1.6074216E3,9.23513E3,3.0070356E3,1.709245E4,6.8847847E3,1.1670623E4,2.4134994E4,1.202134E4,5.1347393E3,3.1724127E4,4.1813813E3,3.221358E4,2.0968998E4,5.4082407E3,8.1025996E3,2.2036408E4],"tree_param":{"num_deleted":"0","num_feature":"43","num_nodes":"127","size_leaf_vector":"1"}},{"base_weights":[-5.510768E-6,-1.1093516E0,3.8204396E-1,-1.5902891E0,-7.456134E-1,-2.4462331E-2,5.7508683E-1,-1.7555242E0,-1.3296912E0,-9.77363E-1,-5.6323546E-1,-2.033343E-1,1.3418986E-1,4.2823356E-1,6.720328E-1,-1.8290746E0,-1.6302185E0,-1.1282367E0,-1.3684824E0,-1.0482835E0,-7.6741165E-1,-6.388753E-1,-3.545497E-1,-2.9240412E-1,7.3575564E-3,2.2414789E-2,2.5452098E-1,3.2444432E-1,4.8693067E-1,6.0739404E-1,7.2481495E-1,-1.1936226E0,-1.8359663E0,-1.1228061E0,-1.6465578E0,-7.419178E-1,-1.1795936E0,-7.6882344E-1,-1.3796669E0,-7.5874454E-1,-1.0906619E0,-9.523062E-1,-6.7201906E-1,-7.4869907E-1,-5.572284E-1,-4.4652945E-1,-2.5918508E-1,-3.695142E-1,-1.7608103E-1,2.555351E-1,-2.9037707E-2,-6.201238E-2,9.583174E-2,9.7911045E-2,2.9910457E-1,2.287175E-1,3.7607372E-1,3.9046928E-1,5.364279E-1,5.1684797E-1,6.610891E-1,6.664086E-1,7.766203E-1,-7.1574055E-2,-3.9350342E-2,-7.6698326E-2,-9.214874E-2,-5.7632804E-2,3.13729E-2,-3.4692675E-2,-8.2600795E-2,-5.2845012E-2,-2.666434E-2,-7.117053E-2,-5.5746794E-2,-6.874651E-2,-1.9463649E-2,-6.93832E-2,-2.665312E-2,-1.5685387E-2,-3.9747354E-2,-5.8931034E-2,-5.010006E-2,-4.85313E-2,-1.5766073E-2,-2.0601625E-2,-3.6265247E-2,-2.8309112E-2,-3.940135E-2,-3.0640671E-2,-2.1607606E-2,-4.9595263E-2,-2.1551955E-2,2.1804245E-2,-1.3413385E-2,-1.2209137E-2,-2.1988159E-2,1.4871714E-3,-1.0821248E-2,2.7344054E-2,9.751641E-3,-4.9859597E-3,2.7701762E-3,-7.437753E-3,4.3296884E-4,1.8139724E-3,8.572507E-3,1.710444E-3,1.142665E-2,2.0344488E-2,1.2985999E-2,1.9656716E-2,1.000317E-2,2.5814159E-2,1.756906E-2,1.5488572E-2,2.190241E-2,2.4673717E-2,3.1131333E-2,3.2119326E-2,2.4158902E-2,3.7634257E-2,3.0933646E-2,3.225804E-2,3.88488E-2,4.628864E-2,3.7687883E-2],"categories":[],"categories_nodes":[],"categories_segments":[],"categories_sizes":[],"default_left":[0,0,0,0,0,0,0,0,0,0,0,0,0,0,0,0,0,0,0,0,0,0,0,0,0,0,0,0,0,0,0,0,0,0,0,0,0,0,0,0,0,0,0,0,0,0,0,0,0,0,0,0,0,0,0,0,0,0,0,0,0,0,0,0,0,0,0,0,0,0,0,0,0,0,0,0,0,0,0,0,0,0,0,0,0,0,0,0,0,0,0,0,0,0,0,0,0,0,0,0,0,0,0,0,0,0,0,0,0,0,0,0,0,0,0,0,0,0,0,0,0,0,0,0,0,0,0],"id":1,"left_children":[1,3,5,7,9,11,13,15,17,19,21,23,25,27,29,31,33,35,37,39,41,43,45,47,49,51,53,55,57,59,61,63,65,67,69,71,73,75,77,79,81,83,85,87,89,91,93,95,97,99,101,103,105,107,109,111,113,115,117,119,121,123,125,-1,-1,-1,-1,-1,-1,-1,-1,-1,-1,-1,-1,-1,-1,-1,-1,-1,-1,-1,-1,-1,-1,-1,-1,-1,-1,-1,-1,-1,-1,-1,-1,-1,-1,-1,-1,-1,-1,-1,-1,-1,-1,-1,-1,-1,-1,-1,-1,-1,-1,-1,-1,-1,-1,-1,-1,-1,-1,-1,-1,-1,-1,-1,-1],"loss_changes":[1.8097906E5,1.9134562E4,2.4925113E4,2.0259609E3,2.6319688E3,2.9022937E3,3.0657031E3,2.6266406E2,1.4132227E2,4.075957E2,5.4999414E2,9.0213794E2,7.289716E2,5.215635E2,4.4213672E2,7.731641E1,8.6615234E1,5.7803955E1,1.0172461E2,2.5070898E2,1.21576904E2,2.2897949E2,8.124463E1,3.0300464E2,1.2903575E2,1.7417776E2,1.8221008E2,1.5282593E2,2.6096094E2,2.8318555E2,2.1553516E2,1.7988373E1,3.5179688E1,1.827835E1,5.2595703E1,2.2419342E1,3.954004E1,6.453708E1,1.0111133E2,4.1973145E1,1.3825781E2,2.7186523E1,6.307373E1,7.783838E1,1.0178027E2,3.9448364E1,2.8889465E1,1.7878076E2,1.1186847E2,3.2099136E1,7.436535E1,8.012594E1,6.767847E1,4.8130478E1,8.613818E1,5.1004272E1,6.9398926E1,7.1100586E1,1.3353125E2,9.146924E1,1.417461E2,7.8368164E1,1.2831836E2,0E0,0E0,0E0,0E0,0E0,0E0,0E0,0E0,0E0,0E0,0E0,0E0,0E0,0E0,0E0,0E0,0E0,0E0,0E0,0E0,0E0,0E0,0E0,0E0,0E0,0E0,0E0,0E0,0E0,0E0,0E0,0E0,0E0,0E0,0E0,0E0,0E0,0E0,0E0,0E0,0E0,0E0,0E0,0E0,0E0,0E0,0E0,0E0,0E0,0E0,0E0,0E0,0E0,0E0,0E0,0E0,0E0,0E0,0E0,0E0,0E0,0E0,0E0,0E0],"parents":[2147483647,0,0,1,1,2,2,3,3,4,4,5,5,6,6,7,7,8,8,9,9,10,10,11,11,12,12,13,13,14,14,15,15,16,16,17,17,18,18,19,19,20,20,21,21,22,22,23,23,24,24,25,25,26,26,27,27,28,28,29,29,30,30,31,31,32,32,33,33,34,34,35,35,36,36,37,37,38,38,39,39,40,40,41,41,42,42,43,43,44,44,45,45,46,46,47,47,48,48,49,49,50,50,51,51,52,52,53,53,54,54,55,55,56,56,57,57,58,58,59,59,60,60,61,61,62,62],"right_children":[2,4,6,8,10,12,14,16,18,20,22,24,26,28,30,32,34,36,38,40,42,44,46,48,50,52,54,56,58,60,62,64,66,68,70,72,74,76,78,80,82,84,86,88,90,92,94,96,98,100,102,104,106,108,110,112,114,116,118,120,122,124,126,-1,-1,-1,-1,-1,-1,-1,-1,-1,-1,-1,-1,-1,-1,-1,-1,-1,-1,-1,-1,-1,-1,-1,-1,-1,-1,-1,-1,-1,-1,-1,-1,-1,-1,-1,-1,-1,-1,-1,-1,-1,-1,-1,-1,-1,-1,-1,-1,-1,-1,-1,-1,-1,-1,-1,-1,-1,-1,-1,-1,-1,-1,-1,-1],"split_conditions":[-3.6653847E-1,-5.0652105E-1,-8.6976744E-2,-5.665218E-1,-4.4081578E-1,-2.5286275E-1,2.5006035E-1,-6.0787845E-1,3.8805674E-3,1.06555E-1,9.979721E-2,7.459463E-2,-1.1422552E-1,-2.7625045E-1,-3.345326E-1,-2.1538728E-1,-8.111977E-1,-6.243472E-1,-1.5754547E0,-1.0951691E-1,-4.8213762E-1,-4.0893564E-1,3.676688E-1,-3.0199632E-1,-3.6952412E-1,-1.8152805E-1,-2.2092482E-1,2.7793322E-2,1.3475359E-2,5.941482E-1,5.445787E-1,1.127614E0,-5.245178E-2,7.9170394E-1,-2.2228868E0,-5.42571E-1,-5.505108E-1,-3.126348E-2,2.0830288E0,-6.328088E-1,-4.733037E-1,2.0544603E0,-7.254983E-2,-1.2532139E-1,-1.105081E-1,-5.491266E-3,-2.2228868E0,-1.419982E-2,-3.6952412E-1,-8.674377E-1,3.979883E-1,-3.2455248E-1,-2.9534256E-1,3.3931547E-1,-3.3429307E-1,-9.642365E-1,-9.880255E-1,-6.362972E-2,2.5583383E-1,-8.9413583E-1,-7.820992E-1,7.604511E-1,-1.4893081E0,-7.1574055E-2,-3.9350342E-2,-7.6698326E-2,-9.214874E-2,-5.7632804E-2,3.13729E-2,-3.4692675E-2,-8.2600795E-2,-5.2845012E-2,-2.666434E-2,-7.117053E-2,-5.5746794E-2,-6.874651E-2,-1.9463649E-2,-6.93832E-2,-2.665312E-2,-1.5685387E-2,-3.9747354E-2,-5.8931034E-2,-5.010006E-2,-4.85313E-2,-1.5766073E-2,-2.0601625E-2,-3.6265247E-2,-2.8309112E-2,-3.940135E-2,-3.0640671E-2,-2.1607606E-2,-4.9595263E-2,-2.1551955E-2,2.1804245E-2,-1.3413385E-2,-1.2209137E-2,-2.1988159E-2,1.4871714E-3,-1.0821248E-2,2.7344054E-2,9.751641E-3,-4.9859597E-3,2.7701762E-3,-7.437753E-3,4.3296884E-4,1.8139724E-3,8.572507E-3,1.710444E-3,1.142665E-2,2.0344488E-2,1.2985999E-2,1.9656716E-2,1.000317E-2,2.5814159E-2,1.756906E-2,1.5488572E-2,2.190241E-2,2.4673717E-2,3.1131333E-2,3.2119326E-2,2.4158902E-2,3.7634257E-2,3.0933646E-2,3.225804E-2,3.88488E-2,4.628864E-2,3.7687883E-2],"split_indices":[7,7,7,7,7,7,7,7,4,11,11,11,11,11,11,3,11,11,8,4,7,7,11,7,4,7,7,7,7,7,7,6,4,3,0,7,7,10,5,11,7,0,4,4,11,2,0,4,4,4,11,11,11,11,4,5,5,11,11,5,5,11,5,0,0,0,0,0,0,0,0,0,0,0,0,0,0,0,0,0,0,0,0,0,0,0,0,0,0,0,0,0,0,0,0,0,0,0,0,0,0,0,0,0,0,0,0,0,0,0,0,0,0,0,0,0,0,0,0,0,0,0,0,0,0,0,0],"split_type":[0,0,0,0,0,0,0,0,0,0,0,0,0,0,0,0,0,0,0,0,0,0,0,0,0,0,0,0,0,0,0,0,0,0,0,0,0,0,0,0,0,0,0,0,0,0,0,0,0,0,0,0,0,0,0,0,0,0,0,0,0,0,0,0,0,0,0,0,0,0,0,0,0,0,0,0,0,0,0,0,0,0,0,0,0,0,0,0,0,0,0,0,0,0,0,0,0,0,0,0,0,0,0,0,0,0,0,0,0,0,0,0,0,0,0,0,0,0,0,0,0,0,0,0,0,0,0],"sum_hessian":[4.270115E5,1.09386664E5,3.1762484E5,4.710316E4,6.2283508E4,1.0226915E5,2.1535569E5,2.882231E4,1.828085E4,2.7427158E4,3.4856348E4,4.8071168E4,5.4197984E4,8.56376E4,1.2971809E5,1.8153295E4,1.0669015E4,2.9565667E3,1.5324282E4,2.0498785E4,6.928373E3,2.5581916E4,9.274433E3,3.378725E4,1.4283918E4,2.8098549E4,2.6099438E4,3.0938379E4,5.4699223E4,5.8315547E4,7.140255E4,1.9663779E2,1.7956656E4,3.3501285E2,1.0334002E4,3.487361E2,2.6078303E3,2.8186383E2,1.5042418E4,2.6196538E3,1.7879133E4,2.3549373E3,4.573436E3,1.0905152E4,1.4676764E4,4.7191255E3,4.5553076E3,2.031701E4,1.347024E4,1.8260627E3,1.24578545E4,1.3069356E4,1.5029191E4,5.7842266E3,2.0315209E4,1.0841823E4,2.0096557E4,1.8552523E4,3.61467E4,2.1712447E4,3.6603098E4,3.3569508E4,3.783304E4,1.2247375E2,7.416404E1,4.1225812E2,1.7544398E4,3.297309E2,5.281963E0,5.959621E1,1.0274406E4,1.3733199E2,2.1140413E2,5.4220856E2,2.0656218E3,1.0752843E2,1.7433542E2,1.4901024E4,1.4139365E2,1.9779745E2,2.4218562E3,8.968924E3,8.910208E3,2.288593E3,6.634413E1,7.794007E2,3.7940352E3,1.9359591E3,8.969193E3,1.0158384E4,4.51838E3,1.2859496E2,4.590531E3,5.813436E1,4.4971733E3,7.2991143E3,1.30178955E4,2.2076467E3,1.1262593E4,3.1261942E2,1.5134434E3,6.781349E3,5.676506E3,5.867037E3,7.2023193E3,8.408593E3,6.6205986E3,3.8889243E3,1.8953024E3,5.4341255E3,1.4881085E4,1.6071732E3,9.23465E3,3.0062935E3,1.7090264E4,6.8840693E3,1.1668455E4,2.4129486E4,1.2017212E4,4.587994E3,1.7124453E4,1.1579947E4,2.5023152E4,2.8164031E4,5.4054756E3,5.023166E3,3.280987E4],"tree_param":{"num_deleted":"0","num_feature":"43","num_nodes":"127","size_leaf_vector":"1"}},{"base_weights":[-2.4566185E-5,-1.0568591E0,3.631497E-1,-1.5182625E0,-7.0917374E-1,-2.3241434E-2,5.4675907E-1,-1.6776676E0,-1.2674869E0,-9.3024236E-1,-5.3541285E-1,-1.9319248E-1,1.2749407E-1,4.0700507E-1,6.390678E-1,-1.74883E0,-1.5565915E0,-1.0745225E0,-1.3046833E0,-9.97976E-1,-7.299094E-1,-6.073992E-1,-3.3690882E-1,-2.76909E-1,9.255283E-3,2.1294713E-2,2.4183996E-1,3.0830643E-1,4.6283853E-1,5.9004605E-1,7.026226E-1,-1.1375927E0,-1.7554837E0,-1.069906E0,-1.5722971E0,-7.058653E-1,-1.1236022E0,-7.316801E-1,-1.3153942E0,-7.52708E-1,-1.0437155E0,-9.258746E-1,-6.475928E-1,-7.120099E-1,-5.2966475E-1,-4.2437115E-1,-2.4625027E-1,-3.6574557E-1,-1.8654978E-1,2.4560508E-1,-2.5330104E-2,-5.8913123E-2,9.104395E-2,9.30221E-2,2.842123E-1,2.1731496E-1,3.5739106E-1,3.7108025E-1,5.099356E-1,5.294559E-1,6.5141654E-1,8.3471733E-1,6.804788E-1,-5.937762E-2,2.5034536E-2,-8.802276E-2,-6.677428E-2,-3.0457316E-2,-5.9561323E-2,-8.446657E-2,-7.6420836E-2,-5.0315958E-2,-2.5354607E-2,-6.788274E-2,-5.3081702E-2,-7.146423E-2,-2.1420224E-2,-6.6152416E-2,-2.535629E-2,-4.1493148E-2,-2.8069159E-2,-5.6384604E-2,-4.7950804E-2,-4.7232013E-2,-1.55012375E-2,-1.956999E-2,-3.4984563E-2,-2.6909713E-2,-3.7474193E-2,-1.8307908E-2,-2.8450746E-2,-2.7873296E-2,-1.8176451E-2,1.2914836E-2,-1.2893425E-2,-2.3254681E-2,-1.4542393E-2,2.50874E-4,-1.1143121E-2,1.338193E-2,-2.7314201E-2,-3.4799748E-3,4.9368E-3,-7.066123E-3,4.1132388E-4,1.089146E-2,2.8379068E-3,1.624943E-3,1.08570345E-2,1.3333196E-2,2.520558E-2,1.8681075E-2,9.504047E-3,2.560232E-2,1.6855424E-2,1.7459227E-2,2.7010715E-2,2.3452794E-2,2.959984E-2,3.0774793E-2,2.4801712E-2,2.3994325E-2,3.368376E-2,4.751149E-2,3.7596077E-2,3.123315E-2,3.6262255E-2],"categories":[],"categories_nodes":[],"categories_segments":[],"categories_sizes":[],"default_left":[0,0,0,0,0,0,0,0,0,0,0,0,0,0,0,0,0,0,0,0,0,0,0,0,0,0,0,0,0,0,0,0,0,0,0,0,0,0,0,0,0,0,0,0,0,0,0,0,0,0,0,0,0,0,0,0,0,0,0,0,0,0,0,0,0,0,0,0,0,0,0,0,0,0,0,0,0,0,0,0,0,0,0,0,0,0,0,0,0,0,0,0,0,0,0,0,0,0,0,0,0,0,0,0,0,0,0,0,0,0,0,0,0,0,0,0,0,0,0,0,0,0,0,0,0,0,0],"id":2,"left_children":[1,3,5,7,9,11,13,15,17,19,21,23,25,27,29,31,33,35,37,39,41,43,45,47,49,51,53,55,57,59,61,63,65,67,69,71,73,75,77,79,81,83,85,87,89,91,93,95,97,99,101,103,105,107,109,111,113,115,117,119,121,123,125,-1,-1,-1,-1,-1,-1,-1,-1,-1,-1,-1,-1,-1,-1,-1,-1,-1,-1,-1,-1,-1,-1,-1,-1,-1,-1,-1,-1,-1,-1,-1,-1,-1,-1,-1,-1,-1,-1,-1,-1,-1,-1,-1,-1,-1,-1,-1,-1,-1,-1,-1,-1,-1,-1,-1,-1,-1,-1,-1,-1,-1,-1,-1,-1],"loss_changes":[1.6371333E5,1.7499547E4,2.2521648E4,1.8718047E3,2.3893105E3,2.6196611E3,2.7758555E3,2.4419531E2,1.2938867E2,3.7077344E2,4.9758984E2,8.1463965E2,6.5809503E2,4.7158008E2,4.0334375E2,7.137891E1,7.94707E1,5.2591797E1,9.276953E1,2.2871484E2,1.11052734E2,2.075039E2,7.3425415E1,2.7289355E2,1.1495742E2,1.572029E2,1.6452783E2,1.3807056E2,2.360752E2,2.7172852E2,1.6448047E2,1.6728058E1,3.490625E1,1.8003174E1,5.0228516E1,2.035321E1,3.6299805E1,5.915416E1,9.2072266E1,4.705237E1,1.21541016E2,2.3341553E1,6.482617E1,7.056299E1,9.4177734E1,3.800641E1,2.6772614E1,1.2744531E2,1.1728381E2,3.1469208E1,6.7388916E1,7.231764E1,6.532084E1,4.3449913E1,7.8246826E1,4.607898E1,6.2849365E1,6.8496826E1,1.209082E2,1.0558301E2,1.3844531E2,7.672168E1,1.2031055E2,0E0,0E0,0E0,0E0,0E0,0E0,0E0,0E0,0E0,0E0,0E0,0E0,0E0,0E0,0E0,0E0,0E0,0E0,0E0,0E0,0E0,0E0,0E0,0E0,0E0,0E0,0E0,0E0,0E0,0E0,0E0,0E0,0E0,0E0,0E0,0E0,0E0,0E0,0E0,0E0,0E0,0E0,0E0,0E0,0E0,0E0,0E0,0E0,0E0,0E0,0E0,0E0,0E0,0E0,0E0,0E0,0E0,0E0,0E0,0E0,0E0,0E0,0E0,0E0],"parents":[2147483647,0,0,1,1,2,2,3,3,4,4,5,5,6,6,7,7,8,8,9,9,10,10,11,11,12,12,13,13,14,14,15,15,16,16,17,17,18,18,19,19,20,20,21,21,22,22,23,23,24,24,25,25,26,26,27,27,28,28,29,29,30,30,31,31,32,32,33,33,34,34,35,35,36,36,37,37,38,38,39,39,40,40,41,41,42,42,43,43,44,44,45,45,46,46,47,47,48,48,49,49,50,50,51,51,52,52,53,53,54,54,55,55,56,56,57,57,58,58,59,59,60,60,61,61,62,62],"right_children":[2,4,6,8,10,12,14,16,18,20,22,24,26,28,30,32,34,36,38,40,42,44,46,48,50,52,54,56,58,60,62,64,66,68,70,72,74,76,78,80,82,84,86,88,90,92,94,96,98,100,102,104,106,108,110,112,114,116,118,120,122,124,126,-1,-1,-1,-1,-1,-1,-1,-1,-1,-1,-1,-1,-1,-1,-1,-1,-1,-1,-1,-1,-1,-1,-1,-1,-1,-1,-1,-1,-1,-1,-1,-1,-1,-1,-1,-1,-1,-1,-1,-1,-1,-1,-1,-1,-1,-1,-1,-1,-1,-1,-1,-1,-1,-1,-1,-1,-1,-1,-1,-1,-1,-1,-1,-1],"split_conditions":[-3.6653847E-1,-5.0652105E-1,-8.6976744E-2,-5.665218E-1,-4.4081578E-1,-2.5286275E-1,2.5006035E-1,-6.0787845E-1,3.8805674E-3,1.06555E-1,9.979721E-2,8.059092E-2,-1.1422552E-1,-2.7625045E-1,-2.095656E-1,-2.1538728E-1,-8.111977E-1,-6.243472E-1,-1.5754547E0,-7.254983E-2,-4.850177E-1,-4.0893564E-1,3.676688E-1,-3.1318995E-1,-3.6952412E-1,-1.8152805E-1,-2.2092482E-1,2.7793322E-2,1.3475359E-2,7.1101475E-1,-1.4408828E0,2.2219946E0,5.0127834E-1,-7.1607304E-1,-3.1156912E-2,-5.42571E-1,-5.505108E-1,-3.1689763E-2,2.0830288E0,-4.5549247E-1,-4.733037E-1,2.0544603E0,-7.254983E-2,-1.2532139E-1,-1.5816537E-1,-4.177365E-1,-5.5084646E-1,-2.540168E-1,-3.6952412E-1,1.7420608E0,6.9049376E-1,-3.2455248E-1,-8.150671E-1,3.3931547E-1,1.7491487E0,-9.642365E-1,-1.0765517E0,8.420382E-1,2.5583383E-1,-3.5313163E-2,-7.764205E-1,-1.4290142E0,5.1417714E-1,-5.937762E-2,2.5034536E-2,-8.802276E-2,-6.677428E-2,-3.0457316E-2,-5.9561323E-2,-8.446657E-2,-7.6420836E-2,-5.0315958E-2,-2.5354607E-2,-6.788274E-2,-5.3081702E-2,-7.146423E-2,-2.1420224E-2,-6.6152416E-2,-2.535629E-2,-4.1493148E-2,-2.8069159E-2,-5.6384604E-2,-4.7950804E-2,-4.7232013E-2,-1.55012375E-2,-1.956999E-2,-3.4984563E-2,-2.6909713E-2,-3.7474193E-2,-1.8307908E-2,-2.8450746E-2,-2.7873296E-2,-1.8176451E-2,1.2914836E-2,-1.2893425E-2,-2.3254681E-2,-1.4542393E-2,2.50874E-4,-1.1143121E-2,1.338193E-2,-2.7314201E-2,-3.4799748E-3,4.9368E-3,-7.066123E-3,4.1132388E-4,1.089146E-2,2.8379068E-3,1.624943E-3,1.08570345E-2,1.3333196E-2,2.520558E-2,1.8681075E-2,9.504047E-3,2.560232E-2,1.6855424E-2,1.7459227E-2,2.7010715E-2,2.3452794E-2,2.959984E-2,3.0774793E-2,2.4801712E-2,2.3994325E-2,3.368376E-2,4.751149E-2,3.7596077E-2,3.123315E-2,3.6262255E-2],"split_indices":[7,7,7,7,7,7,7,7,4,11,11,11,11,11,11,3,11,11,8,4,7,7,11,7,4,7,7,7,7,7,5,5,4,5,10,7,7,10,5,7,7,0,4,4,4,7,4,11,4,6,11,11,5,11,5,5,5,11,11,10,11,0,7,0,0,0,0,0,0,0,0,0,0,0,0,0,0,0,0,0,0,0,0,0,0,0,0,0,0,0,0,0,0,0,0,0,0,0,0,0,0,0,0,0,0,0,0,0,0,0,0,0,0,0,0,0,0,0,0,0,0,0,0,0,0,0,0],"split_type":[0,0,0,0,0,0,0,0,0,0,0,0,0,0,0,0,0,0,0,0,0,0,0,0,0,0,0,0,0,0,0,0,0,0,0,0,0,0,0,0,0,0,0,0,0,0,0,0,0,0,0,0,0,0,0,0,0,0,0,0,0,0,0,0,0,0,0,0,0,0,0,0,0,0,0,0,0,0,0,0,0,0,0,0,0,0,0,0,0,0,0,0,0,0,0,0,0,0,0,0,0,0,0,0,0,0,0,0,0,0,0,0,0,0,0,0,0,0,0,0,0,0,0,0,0,0,0],"sum_hessian":[4.265402E5,1.09089266E5,3.174509E5,4.68769E4,6.2212367E4,1.0225802E5,2.1519289E5,2.8656049E4,1.822085E4,2.7377182E4,3.4835184E4,4.8065227E4,5.41928E4,8.560049E4,1.295924E5,1.8039748E4,1.06163E4,2.9495068E3,1.5271343E4,2.0456686E4,6.920495E3,2.5562887E4,9.272298E3,3.400363E4,1.4061599E4,2.8097908E4,2.6094893E4,3.093038E4,5.4670113E4,7.3166836E4,5.642556E4,1.96114E2,1.7843633E4,3.340437E2,1.0282257E4,3.483425E2,2.6011643E3,2.8149506E2,1.4989848E4,3.2180464E3,1.723864E4,2.0440742E3,4.876421E3,1.0894088E4,1.4668799E4,4.7174673E3,4.5548306E3,1.7144742E4,1.6858887E4,1.7942107E3,1.2267389E4,1.3069196E4,1.5028712E4,5.783961E3,2.0310932E4,1.084034E4,2.0090041E4,1.8546068E4,3.6124043E4,3.6822305E4,3.6344527E4,8.095653E3,4.8329906E4,1.9057742E2,5.5365777E0,1.763174E4,2.1189424E2,7.0878235E1,2.6316547E2,2.79368E3,7.4885767E3,1.3707912E2,2.1126338E2,5.401427E2,2.0610217E3,8.4170494E1,1.9732457E2,1.4848599E4,1.4124863E2,2.2908757E3,9.271708E2,8.650064E3,8.588575E3,1.9831127E3,6.0961536E1,8.2550995E2,4.0509111E3,1.9348811E3,8.959206E3,2.847455E3,1.1821344E4,1.477409E3,3.240058E3,1.02045746E2,4.452785E3,7.367248E3,9.777494E3,2.6865994E3,1.4172287E4,1.7462842E3,4.792654E1,9.041596E3,3.2257925E3,5.8668853E3,7.2023115E3,3.1978933E3,1.1830818E4,3.8889004E3,1.8950604E3,1.8811918E4,1.4990132E3,1.6066189E3,9.233722E3,2.3264617E3,1.7763578E4,1.6423043E4,2.1230251E3,2.4116725E4,1.2007319E4,1.0296864E4,2.6525441E4,4.1771406E3,3.2167389E4,3.3756472E3,4.7200054E3,2.151693E4,2.6812977E4],"tree_param":{"num_deleted":"0","num_feature":"43","num_nodes":"127","size_leaf_vector":"1"}},{"base_weights":[-5.357014E-5,-1.0084919E0,3.452876E-1,-1.4536463E0,-6.7498374E-1,-2.2083296E-2,5.2002686E-1,-1.6012335E0,-1.1980277E0,-8.8635707E-1,-5.0915915E-1,-1.8357174E-1,1.21138416E-1,3.9200047E-1,6.116591E-1,-1.6783011E0,-1.4827089E0,-1.0275971E0,-1.2390467E0,-9.354641E-1,-6.3039E-1,-5.932372E-1,-3.5456705E-1,-2.9549158E-1,-4.524902E-2,2.0230975E-2,2.2981022E-1,2.982775E-1,4.4538873E-1,7.3962903E-1,5.8746773E-1,-1.0856442E0,-1.6847899E0,-6.5097773E-1,-1.4908212E0,-5.3487265E-1,-1.0555286E0,-1.277741E0,-1.0605922E0,-6.889666E-1,-9.814343E-1,-7.9845923E-1,-5.024213E-1,-6.9257253E-1,-5.194019E-1,-4.361928E-1,-2.493073E-1,-1.475178E-1,-3.5385442E-1,-9.978481E-2,8.142773E-2,-5.596928E-2,8.6496755E-2,8.8379234E-2,2.7008915E-1,2.3796865E-1,3.7140524E-1,3.7125912E-1,5.023306E-1,6.630036E-1,7.889872E-1,5.2882737E-1,6.2955034E-1,-6.5759085E-2,-3.4752887E-2,-6.942134E-2,-8.458481E-2,4.746668E-2,-3.89355E-2,-7.228458E-2,-8.115119E-2,-4.506291E-2,-9.371335E-3,-5.7975322E-2,-4.6815928E-2,-4.5394663E-2,-6.509254E-2,-5.490417E-2,-2.4684219E-2,-3.798689E-2,-2.5770528E-2,-5.303784E-2,-4.5097735E-2,-4.364362E-2,-2.5121054E-2,-2.7832258E-2,-8.490779E-3,-2.2586746E-2,-3.6006562E-2,-2.6680885E-2,-6.8799034E-3,-1.0098615E-2,-2.4184907E-2,-1.9246897E-2,-9.898326E-3,-1.0700049E-2,-2.2321998E-3,-2.1105023E-2,-1.2215524E-2,9.875885E-3,-6.2677674E-3,1.0216675E-2,6.2873965E-4,1.8005563E-3,-5.743741E-3,1.5042656E-3,7.906641E-3,-8.815379E-4,7.7412026E-3,1.8626167E-2,1.1633399E-2,1.9846512E-2,1.04007935E-2,7.2515323E-3,1.947846E-2,1.6318148E-2,2.2889765E-2,2.4131909E-2,3.3823747E-2,3.5890684E-2,2.9306239E-2,3.524851E-2,4.169659E-2,2.2020949E-2,2.8691936E-2,3.0439196E-2,3.6223914E-2],"categories":[],"categories_nodes":[],"categories_segments":[],"categories_sizes":[],"default_left":[0,0,0,0,0,0,0,0,0,0,0,0,0,0,0,0,0,0,0,0,0,0,0,0,0,0,0,0,0,0,0,0,0,0,0,0,0,0,0,0,0,0,0,0,0,0,0,0,0,0,0,0,0,0,0,0,0,0,0,0,0,0,0,0,0,0,0,0,0,0,0,0,0,0,0,0,0,0,0,0,0,0,0,0,0,0,0,0,0,0,0,0,0,0,0,0,0,0,0,0,0,0,0,0,0,0,0,0,0,0,0,0,0,0,0,0,0,0,0,0,0,0,0,0,0,0,0],"id":3,"left_children":[1,3,5,7,9,11,13,15,17,19,21,23,25,27,29,31,33,35,37,39,41,43,45,47,49,51,53,55,57,59,61,63,65,67,69,71,73,75,77,79,81,83,85,87,89,91,93,95,97,99,101,103,105,107,109,111,113,115,117,119,121,123,125,-1,-1,-1,-1,-1,-1,-1,-1,-1,-1,-1,-1,-1,-1,-1,-1,-1,-1,-1,-1,-1,-1,-1,-1,-1,-1,-1,-1,-1,-1,-1,-1,-1,-1,-1,-1,-1,-1,-1,-1,-1,-1,-1,-1,-1,-1,-1,-1,-1,-1,-1,-1,-1,-1,-1,-1,-1,-1,-1,-1,-1,-1,-1,-1],"loss_changes":[1.4829216E5,1.61254375E4,2.0361863E4,1.7532266E3,2.1762285E3,2.3647397E3,2.521418E3,2.6689844E2,1.17802734E2,3.425586E2,4.5214062E2,7.4395605E2,5.9418964E2,4.485547E2,3.8740625E2,6.686328E1,7.749219E1,4.4990723E1,9.341211E1,2.588496E2,9.4176025E1,1.6496436E2,1.0524939E2,2.2935376E2,1.4850002E2,1.4188434E2,1.4859839E2,1.4344604E2,2.4094922E2,7.479297E1,2.596875E2,1.668248E1,3.3816406E1,2.406289E1,6.635742E1,2.2694515E1,3.7729736E1,9.934375E1,5.1559814E1,4.3866455E1,1.2072461E2,4.1398438E1,4.497937E1,6.344287E1,7.012695E1,7.673535E1,3.7235046E1,5.1390015E1,1.4230737E2,1.1425586E2,5.4743042E1,7.081885E1,6.0728897E1,4.0748302E1,7.7749146E1,8.485449E1,6.0419678E1,9.62854E1,1.10461426E2,3.2480713E1,4.5128418E1,1.7495801E2,1.20478516E2,0E0,0E0,0E0,0E0,0E0,0E0,0E0,0E0,0E0,0E0,0E0,0E0,0E0,0E0,0E0,0E0,0E0,0E0,0E0,0E0,0E0,0E0,0E0,0E0,0E0,0E0,0E0,0E0,0E0,0E0,0E0,0E0,0E0,0E0,0E0,0E0,0E0,0E0,0E0,0E0,0E0,0E0,0E0,0E0,0E0,0E0,0E0,0E0,0E0,0E0,0E0,0E0,0E0,0E0,0E0,0E0,0E0,0E0,0E0,0E0,0E0,0E0,0E0,0E0],"parents":[2147483647,0,0,1,1,2,2,3,3,4,4,5,5,6,6,7,7,8,8,9,9,10,10,11,11,12,12,13,13,14,14,15,15,16,16,17,17,18,18,19,19,20,20,21,21,22,22,23,23,24,24,25,25,26,26,27,27,28,28,29,29,30,30,31,31,32,32,33,33,34,34,35,35,36,36,37,37,38,38,39,39,40,40,41,41,42,42,43,43,44,44,45,45,46,46,47,47,48,48,49,49,50,50,51,51,52,52,53,53,54,54,55,55,56,56,57,57,58,58,59,59,60,60,61,61,62,62],"right_children":[2,4,6,8,10,12,14,16,18,20,22,24,26,28,30,32,34,36,38,40,42,44,46,48,50,52,54,56,58,60,62,64,66,68,70,72,74,76,78,80,82,84,86,88,90,92,94,96,98,100,102,104,106,108,110,112,114,116,118,120,122,124,126,-1,-1,-1,-1,-1,-1,-1,-1,-1,-1,-1,-1,-1,-1,-1,-1,-1,-1,-1,-1,-1,-1,-1,-1,-1,-1,-1,-1,-1,-1,-1,-1,-1,-1,-1,-1,-1,-1,-1,-1,-1,-1,-1,-1,-1,-1,-1,-1,-1,-1,-1,-1,-1,-1,-1,-1,-1,-1,-1,-1,-1,-1,-1,-1],"split_conditions":[-3.6653847E-1,-5.0652105E-1,-8.6976744E-2,-5.6244236E-1,-4.4081578E-1,-2.5286275E-1,2.690227E-1,-6.0787845E-1,3.1637356E-2,2.6719335E-1,3.613384E-3,-7.567594E-2,-1.1422552E-1,-2.7625045E-1,-1.2019386E0,-2.1538728E-1,-2.2228868E0,-1.4016418E0,2.3595622E-1,-7.254983E-2,-4.762712E-1,-4.0893564E-1,3.0155522E-1,-1.3317785E-1,3.979883E-1,-1.8152805E-1,-2.2092482E-1,1.0300056E-1,4.981571E-2,5.941482E-1,-4.0367225E-1,1.127614E0,-5.245178E-2,-6.698144E-2,-2.9070372E-2,-3.1156912E-2,-4.3362584E-3,-6.9427395E-1,1.7491487E0,-4.5549247E-1,-4.733037E-1,1.1825528E0,4.5035255E-1,-2.407359E-1,1.5164822E0,-1.5816537E-1,-4.0361244E-2,-2.2868122E-1,-3.0199632E-1,-5.19499E-1,-2.0394651E-2,-2.8203616E-1,-2.9534256E-1,7.459463E-2,-3.3429307E-1,-9.522919E-1,-7.039638E-1,2.0726787E-1,1.1352088E0,-1.2705843E0,9.755659E-3,5.941482E-1,1.1207963E0,-6.5759085E-2,-3.4752887E-2,-6.942134E-2,-8.458481E-2,4.746668E-2,-3.89355E-2,-7.228458E-2,-8.115119E-2,-4.506291E-2,-9.371335E-3,-5.7975322E-2,-4.6815928E-2,-4.5394663E-2,-6.509254E-2,-5.490417E-2,-2.4684219E-2,-3.798689E-2,-2.5770528E-2,-5.303784E-2,-4.5097735E-2,-4.364362E-2,-2.5121054E-2,-2.7832258E-2,-8.490779E-3,-2.2586746E-2,-3.6006562E-2,-2.6680885E-2,-6.8799034E-3,-1.0098615E-2,-2.4184907E-2,-1.9246897E-2,-9.898326E-3,-1.0700049E-2,-2.2321998E-3,-2.1105023E-2,-1.2215524E-2,9.875885E-3,-6.2677674E-3,1.0216675E-2,6.2873965E-4,1.8005563E-3,-5.743741E-3,1.5042656E-3,7.906641E-3,-8.815379E-4,7.7412026E-3,1.8626167E-2,1.1633399E-2,1.9846512E-2,1.04007935E-2,7.2515323E-3,1.947846E-2,1.6318148E-2,2.2889765E-2,2.4131909E-2,3.3823747E-2,3.5890684E-2,2.9306239E-2,3.524851E-2,4.169659E-2,2.2020949E-2,2.8691936E-2,3.0439196E-2,3.6223914E-2],"split_indices":[7,7,7,7,7,7,7,7,4,11,11,11,11,11,5,3,0,8,11,4,7,7,11,4,11,7,7,7,7,7,11,6,4,10,10,10,2,11,5,7,7,0,3,4,5,4,10,11,7,4,4,8,11,11,4,5,11,11,11,8,1,7,3,0,0,0,0,0,0,0,0,0,0,0,0,0,0,0,0,0,0,0,0,0,0,0,0,0,0,0,0,0,0,0,0,0,0,0,0,0,0,0,0,0,0,0,0,0,0,0,0,0,0,0,0,0,0,0,0,0,0,0,0,0,0,0,0],"split_type":[0,0,0,0,0,0,0,0,0,0,0,0,0,0,0,0,0,0,0,0,0,0,0,0,0,0,0,0,0,0,0,0,0,0,0,0,0,0,0,0,0,0,0,0,0,0,0,0,0,0,0,0,0,0,0,0,0,0,0,0,0,0,0,0,0,0,0,0,0,0,0,0,0,0,0,0,0,0,0,0,0,0,0,0,0,0,0,0,0,0,0,0,0,0,0,0,0,0,0,0,0,0,0,0,0,0,0,0,0,0,0,0,0,0,0,0,0,0,0,0,0,0,0,0,0,0,0],"sum_hessian":[4.2581256E5,1.0862178E5,3.1719078E5,4.6522242E4,6.2099543E4,1.02240914E5,2.1494984E5,2.9490162E4,1.7032078E4,2.7298436E4,3.4801105E4,4.805576E4,5.4185156E4,8.967012E4,1.25279734E5,1.7862406E4,1.1627755E4,3.3090938E3,1.3722984E4,2.2902049E4,4.3963867E3,2.2539625E4,1.2261481E4,2.6562414E4,2.1493348E4,2.8096902E4,2.6088252E4,3.254464E4,5.7125473E4,1.9912885E4,1.0536685E5,1.952719E2,1.7667135E4,1.13101425E2,1.1514653E4,1.7860394E2,3.13049E3,1.1272593E4,2.4503918E3,3.6022683E3,1.9299781E4,1.8981661E3,2.4982207E3,9.606722E3,1.2932903E4,6.904277E3,5.357204E3,7.514242E3,1.9048172E4,1.5025088E4,6.4682593E3,1.3068894E4,1.5028009E4,5.7835884E3,2.0304664E4,1.7837887E4,1.4706754E4,2.4820496E4,3.2304977E4,7.807174E3,1.210571E4,4.4028516E4,6.1338336E4,1.21501495E2,7.37704E1,4.069296E2,1.7260205E4,7.884698E0,1.0521673E2,8.593161E3,2.9214927E3,8.615676E1,9.244718E1,1.6674106E3,1.4630793E3,6.922381E2,1.05803545E4,2.297514E3,1.5287788E2,2.556445E3,1.0458235E3,9.653259E3,9.646522E3,1.5153213E3,3.8284476E2,2.1474536E3,3.5076706E2,9.881956E2,8.618526E3,1.2468272E4,4.646305E2,1.1651019E3,5.7391753E3,1.4692592E3,3.8879446E3,4.5637773E3,2.9504646E3,1.1734626E4,7.3135454E3,1.1894077E3,1.383568E4,2.3217888E3,4.1464707E3,5.102219E3,7.966675E3,8.4082E3,6.619808E3,2.228632E3,3.5549563E3,5.4305337E3,1.487413E4,2.8262927E3,1.5011595E4,1.0930652E3,1.3613689E4,1.6345168E4,8.475329E3,2.902641E4,3.278565E3,4.5528945E3,3.2542795E3,4.2247896E3,7.8809204E3,1.4857374E4,2.917114E4,5.0334574E4,1.1003763E4],"tree_param":{"num_deleted":"0","num_feature":"43","num_nodes":"127","size_leaf_vector":"1"}},{"base_weights":[-8.9233035E-5,-9.6366817E-1,3.283806E-1,-1.4250112E0,-6.6342187E-1,-2.0983815E-2,4.9475974E-1,-1.5771936E0,-1.2312135E0,-9.022722E-1,-5.1094633E-1,-1.7444022E-1,1.1510294E-1,3.6776617E-1,5.7879585E-1,-1.2643604E0,-1.5909264E0,-1.333698E0,-1.1445506E0,-9.6401834E-1,-7.127119E-1,-5.752435E-1,-3.2891077E-1,-2.5145394E-1,7.6169027E-3,1.9220367E-2,2.1839233E-1,3.112833E-1,4.493433E-1,6.984053E-1,5.5637014E-1,-1.3461244E0,-8.84329E-1,-1.6346265E0,-1.5046563E0,-1.0016621E0,-1.3616624E0,-9.6415323E-1,-1.1983938E0,-7.564269E-1,-9.9874234E-1,-8.460644E-1,-6.0384053E-1,-6.7268455E-1,-4.7765598E-1,-3.9760825E-1,-2.2104008E-1,-3.3487067E-1,-1.6672494E-1,2.516651E-1,-2.0962378E-2,-5.317181E-2,8.2177185E-2,8.3967425E-2,2.5668818E-1,2.080454E-1,3.5089684E-1,4.1278195E-1,5.5857104E-1,5.840531E-1,7.3722625E-1,4.7063577E-1,5.8368564E-1,-5.6326997E-2,-7.539701E-2,-5.340163E-2,-1.9220654E-2,-5.597889E-2,-8.196042E-2,-7.534483E-2,7.1152754E-2,7.947984E-3,-5.2231174E-2,-6.553634E-2,-7.4155584E-2,-7.113176E-3,-4.929207E-2,-6.0413744E-2,-1.0647017E-2,2.0117996E-2,-3.84458E-2,-3.837991E-2,-5.0962556E-2,-4.5196127E-2,-3.446987E-2,-1.1177118E-2,-3.1996854E-2,-3.0583877E-2,-4.0898588E-2,-2.6557488E-2,-1.8010816E-2,-2.3839837E-2,-1.3873673E-2,-1.1638883E-2,1.9337095E-2,-1.1201747E-2,-1.9764222E-2,4.393046E-4,-9.999584E-3,1.3836916E-2,-2.28738E-2,-4.6484563E-3,2.3049116E-3,-6.570441E-3,5.2814576E-4,1.0115701E-2,2.4847586E-3,-1.5563692E-3,6.9904425E-3,1.2000228E-2,2.3294805E-2,1.1516118E-2,2.3402383E-3,1.4601836E-2,1.9944144E-2,2.5516588E-2,1.8856522E-2,2.5220398E-2,3.2809746E-2,3.2412194E-2,2.5149716E-2,4.020501E-2,3.4525868E-2,2.9425595E-2,2.0990182E-2,2.7120782E-2,3.1998105E-2],"categories":[],"categories_nodes":[],"categories_segments":[],"categories_sizes":[],"default_left":[0,0,0,0,0,0,0,0,0,0,0,0,0,0,0,0,0,0,0,0,0,0,0,0,0,0,0,0,0,0,0,0,0,0,0,0,0,0,0,0,0,0,0,0,0,0,0,0,0,0,0,0,0,0,0,0,0,0,0,0,0,0,0,0,0,0,0,0,0,0,0,0,0,0,0,0,0,0,0,0,0,0,0,0,0,0,0,0,0,0,0,0,0,0,0,0,0,0,0,0,0,0,0,0,0,0,0,0,0,0,0,0,0,0,0,0,0,0,0,0,0,0,0,0,0,0,0],"id":4,"left_children":[1,3,5,7,9,11,13,15,17,19,21,23,25,27,29,31,33,35,37,39,41,43,45,47,49,51,53,55,57,59,61,63,65,67,69,71,73,75,77,79,81,83,85,87,89,91,93,95,97,99,101,103,105,107,109,111,113,115,117,119,121,123,125,-1,-1,-1,-1,-1,-1,-1,-1,-1,-1,-1,-1,-1,-1,-1,-1,-1,-1,-1,-1,-1,-1,-1,-1,-1,-1,-1,-1,-1,-1,-1,-1,-1,-1,-1,-1,-1,-1,-1,-1,-1,-1,-1,-1,-1,-1,-1,-1,-1,-1,-1,-1,-1,-1,-1,-1,-1,-1,-1,-1,-1,-1,-1,-1],"loss_changes":[1.3447552E5,1.4960672E4,1.8418168E4,1.2539141E3,2.3825098E3,2.134729E3,2.2904492E3,1.004375E2,1.6486719E2,2.9770508E2,4.672793E2,6.736293E2,5.365454E2,3.9371387E2,3.4607422E2,3.0122803E1,8.366016E1,7.828223E1,9.7509766E1,1.3783984E2,9.048413E1,2.8032324E2,7.7183105E1,2.385708E2,9.962606E1,1.2805838E2,1.3424109E2,2.0649414E2,1.3941504E2,9.008594E1,2.5446875E2,2.7700562E1,1.624318E1,3.391797E1,5.2601562E1,3.357788E1,4.6978516E1,4.1571533E1,7.587695E1,4.0243774E1,7.728711E1,2.4889648E1,4.7272217E1,1.3037305E2,9.246655E1,6.045874E1,2.9047882E1,1.1382373E2,9.7808105E1,2.6750397E1,6.174919E1,6.51725E1,5.8634254E1,3.7179718E1,7.07345E1,5.030963E1,1.0298193E2,9.093457E1,4.602295E1,2.6587524E1,4.698047E1,1.5726855E2,1.9123828E2,0E0,0E0,0E0,0E0,0E0,0E0,0E0,0E0,0E0,0E0,0E0,0E0,0E0,0E0,0E0,0E0,0E0,0E0,0E0,0E0,0E0,0E0,0E0,0E0,0E0,0E0,0E0,0E0,0E0,0E0,0E0,0E0,0E0,0E0,0E0,0E0,0E0,0E0,0E0,0E0,0E0,0E0,0E0,0E0,0E0,0E0,0E0,0E0,0E0,0E0,0E0,0E0,0E0,0E0,0E0,0E0,0E0,0E0,0E0,0E0,0E0,0E0,0E0,0E0],"parents":[2147483647,0,0,1,1,2,2,3,3,4,4,5,5,6,6,7,7,8,8,9,9,10,10,11,11,12,12,13,13,14,14,15,15,16,16,17,17,18,18,19,19,20,20,21,21,22,22,23,23,24,24,25,25,26,26,27,27,28,28,29,29,30,30,31,31,32,32,33,33,34,34,35,35,36,36,37,37,38,38,39,39,40,40,41,41,42,42,43,43,44,44,45,45,46,46,47,47,48,48,49,49,50,50,51,51,52,52,53,53,54,54,55,55,56,56,57,57,58,58,59,59,60,60,61,61,62,62],"right_children":[2,4,6,8,10,12,14,16,18,20,22,24,26,28,30,32,34,36,38,40,42,44,46,48,50,52,54,56,58,60,62,64,66,68,70,72,74,76,78,80,82,84,86,88,90,92,94,96,98,100,102,104,106,108,110,112,114,116,118,120,122,124,126,-1,-1,-1,-1,-1,-1,-1,-1,-1,-1,-1,-1,-1,-1,-1,-1,-1,-1,-1,-1,-1,-1,-1,-1,-1,-1,-1,-1,-1,-1,-1,-1,-1,-1,-1,-1,-1,-1,-1,-1,-1,-1,-1,-1,-1,-1,-1,-1,-1,-1,-1,-1,-1,-1,-1,-1,-1,-1,-1,-1,-1,-1,-1,-1],"split_conditions":[-3.6653847E-1,-5.164001E-1,-8.6976744E-2,-5.82842E-1,-4.5257095E-1,-2.5286275E-1,2.5006035E-1,-3.9183073E-2,-5.505108E-1,1.1324245E-1,1.06555E-1,7.459463E-2,-1.1422552E-1,-6.775611E-2,-1.2019386E0,1.127614E0,-6.167339E-1,-7.039638E-1,5.6972068E-2,-7.254983E-2,-4.850177E-1,-4.0893564E-1,-3.9994666E-1,-3.1318995E-1,-4.1990426E-1,-1.8152805E-1,-2.2092482E-1,-7.09374E-4,1.0869315E0,4.451816E-1,-5.6592387E-1,-1.5403086E-1,2.7990964E-1,-1.420254E-1,9.4420713E-1,-4.1990426E-1,-2.9070372E-2,-1.5754547E0,2.0830288E0,-1.8475603E0,-5.592773E-1,3.8403013E-1,-1.8401147E-1,9.968663E-3,-1.105081E-1,4.6683612E-1,3.4537323E0,-1.419982E-2,-3.6952412E-1,-3.4021998E-3,-3.1682074E-1,-3.2455248E-1,-8.150671E-1,3.9980076E-2,1.7491487E0,1.16249E0,-3.6239037E-1,-1.1720206E0,1.1903893E-1,-1.0639488E0,-1.543171E0,-6.6093105E-1,6.495381E-1,-5.6326997E-2,-7.539701E-2,-5.340163E-2,-1.9220654E-2,-5.597889E-2,-8.196042E-2,-7.534483E-2,7.1152754E-2,7.947984E-3,-5.2231174E-2,-6.553634E-2,-7.4155584E-2,-7.113176E-3,-4.929207E-2,-6.0413744E-2,-1.0647017E-2,2.0117996E-2,-3.84458E-2,-3.837991E-2,-5.0962556E-2,-4.5196127E-2,-3.446987E-2,-1.1177118E-2,-3.1996854E-2,-3.0583877E-2,-4.0898588E-2,-2.6557488E-2,-1.8010816E-2,-2.3839837E-2,-1.3873673E-2,-1.1638883E-2,1.9337095E-2,-1.1201747E-2,-1.9764222E-2,4.393046E-4,-9.999584E-3,1.3836916E-2,-2.28738E-2,-4.6484563E-3,2.3049116E-3,-6.570441E-3,5.2814576E-4,1.0115701E-2,2.4847586E-3,-1.5563692E-3,6.9904425E-3,1.2000228E-2,2.3294805E-2,1.1516118E-2,2.3402383E-3,1.4601836E-2,1.9944144E-2,2.5516588E-2,1.8856522E-2,2.5220398E-2,3.2809746E-2,3.2412194E-2,2.5149716E-2,4.020501E-2,3.4525868E-2,2.9425595E-2,2.0990182E-2,2.7120782E-2,3.1998105E-2],"split_indices":[7,7,7,7,7,7,7,4,7,11,11,11,11,11,5,6,7,11,4,4,7,7,7,7,4,7,7,7,5,7,11,9,3,3,3,4,10,8,5,5,11,4,4,1,11,11,11,4,4,2,7,11,5,11,5,8,11,5,7,0,5,5,7,0,0,0,0,0,0,0,0,0,0,0,0,0,0,0,0,0,0,0,0,0,0,0,0,0,0,0,0,0,0,0,0,0,0,0,0,0,0,0,0,0,0,0,0,0,0,0,0,0,0,0,0,0,0,0,0,0,0,0,0,0,0,0,0],"split_type":[0,0,0,0,0,0,0,0,0,0,0,0,0,0,0,0,0,0,0,0,0,0,0,0,0,0,0,0,0,0,0,0,0,0,0,0,0,0,0,0,0,0,0,0,0,0,0,0,0,0,0,0,0,0,0,0,0,0,0,0,0,0,0,0,0,0,0,0,0,0,0,0,0,0,0,0,0,0,0,0,0,0,0,0,0,0,0,0,0,0,0,0,0,0,0,0,0,0,0,0,0,0,0,0,0,0,0,0,0,0,0,0,0,0,0,0,0,0,0,0,0,0,0,0,0,0,0],"sum_hessian":[4.2487222E5,1.08012234E5,3.1685997E5,4.2580895E4,6.543134E4,1.0221946E5,2.1464052E5,2.3847305E4,1.8733588E4,2.5492635E4,3.9938707E4,4.8043535E4,5.4175926E4,8.547617E4,1.2916434E5,1.0067374E3,2.2840568E4,8.576691E3,1.0156896E4,1.9226E4,6.2666353E3,2.9512414E4,1.0426292E4,3.3761414E4,1.428212E4,2.8095928E4,2.6079998E4,5.0509156E4,3.496702E4,2.0388844E4,1.087755E5,8.2639594E2,1.8034154E2,1.5148926E4,7.691642E3,6.690868E2,7.9076045E3,2.3390432E3,7.8178535E3,2.758366E3,1.6467635E4,2.8135947E3,3.4530405E3,1.4764339E4,1.4748075E4,6.368087E3,4.0582053E3,1.7010965E4,1.6750447E4,1.4963629E3,1.2785758E4,1.3068733E4,1.5027194E4,5.7831963E3,2.0296803E4,1.400822E4,3.6500938E4,2.6201484E4,8.765535E3,5.1715127E3,1.521733E4,2.6287125E4,8.2488375E4,3.539908E2,4.724051E2,1.3104877E2,4.929277E1,1.357363E2,1.5013189E4,7.6862456E3,5.3964396E0,2.3786377E1,6.453004E2,5.5794023E3,2.3282021E3,6.0330345E1,2.278713E3,7.7400186E3,7.783471E1,2.9079287E1,2.7292866E3,1.3451819E3,1.5122452E4,2.0512756E3,7.6231903E2,2.9996133E2,3.153079E3,1.0401777E4,4.362561E3,1.0130232E4,4.6178423E3,3.8363416E3,2.5317454E3,3.981923E3,7.62823E1,6.0028276E3,1.1008137E4,2.6691418E3,1.4081307E4,1.4458514E3,5.051145E1,6.16532E3,6.6204375E3,5.86641E3,7.202323E3,3.1971392E3,1.1830055E4,1.8893983E3,3.893798E3,1.8799734E4,1.4970674E3,1.2307404E4,1.7008158E3,1.6396238E4,2.01047E4,7.0093037E3,1.919218E4,5.6416406E3,3.1238945E3,2.8821394E3,2.2893735E3,6.2511816E3,8.966148E3,7.9171777E3,1.8369947E4,4.75953E4,3.489307E4],"tree_param":{"num_deleted":"0","num_feature":"43","num_nodes":"127","size_leaf_vector":"1"}},{"base_weights":[-1.2902993E-4,-9.389075E-1,3.0674693E-1,-1.3711941E0,-6.472775E-1,-2.7869565E-2,4.7084698E-1,-1.5215206E0,-1.1808479E0,-8.616837E-1,-5.002012E-1,-1.7385885E-1,1.0937248E-1,3.5429826E-1,5.5445385E-1,-1.5603193E0,-1.4115326E0,-1.2810395E0,-1.0963508E0,-9.211798E-1,-6.7945194E-1,-5.608167E-1,-3.2882223E-1,-2.8077447E-1,-4.9143422E-2,1.0885928E-2,2.0029204E-1,2.6849052E-1,4.032322E-1,5.102527E-1,6.1320025E-1,-1.247452E0,-1.5722454E0,-6.6244096E-1,-1.4203582E0,-9.589055E-1,-1.3082681E0,-9.215108E-1,-1.1486835E0,-7.2115564E-1,-9.547259E-1,-8.076408E-1,-5.750397E-1,-3.6418882E-1,-6.0035384E-1,-4.238642E-1,-2.6236627E-1,-3.9127895E-1,-2.0382282E-1,-1.00152105E-1,7.565118E-2,-6.1579134E-2,7.304998E-2,1.2349057E-1,2.545154E-1,2.1266867E-1,3.362238E-1,3.344717E-1,4.5610127E-1,4.5502836E-1,5.634157E-1,7.3337835E-1,5.927567E-1,-6.771105E-2,-4.160565E-2,-7.884613E-2,-5.8452647E-2,-4.4694703E-2,6.600145E-2,-6.895109E-2,-7.742973E-2,7.5607686E-3,-5.0017323E-2,-6.29316E-2,-7.134178E-2,-6.7669447E-3,-4.711854E-2,-5.791226E-2,-1.0130438E-2,1.9117579E-2,-3.6655392E-2,-3.214966E-2,-4.8440635E-2,-4.3157563E-2,-3.287565E-2,-1.062637E-2,-3.0475734E-2,-1.651894E-2,-3.144119E-2,-3.8179573E-2,-2.771807E-2,-3.140524E-2,-1.8906413E-2,-3.8942564E-3,-1.4432425E-2,-7.210251E-3,-2.0947702E-2,-9.038534E-3,-2.500912E-2,9.108833E-3,-6.1965045E-3,9.443034E-3,6.440762E-4,1.0409389E-2,-4.2664297E-3,-2.1888863E-3,5.355754E-3,2.5167998E-3,8.960567E-3,1.1777613E-2,2.3059493E-2,1.8173244E-2,9.213905E-3,6.768034E-3,1.7729681E-2,1.4670416E-2,2.0684464E-2,2.142614E-2,2.8308867E-2,2.7141377E-2,2.134761E-2,2.024145E-2,2.9197467E-2,4.219108E-2,3.2687504E-2,2.7054334E-2,3.152404E-2],"categories":[],"categories_nodes":[],"categories_segments":[],"categories_sizes":[],"default_left":[0,0,0,0,0,0,0,0,0,0,0,0,0,0,0,0,0,0,0,0,0,0,0,0,0,0,0,0,0,0,0,0,0,0,0,0,0,0,0,0,0,0,0,0,0,0,0,0,0,0,0,0,0,0,0,0,0,0,0,0,0,0,0,0,0,0,0,0,0,0,0,0,0,0,0,0,0,0,0,0,0,0,0,0,0,0,0,0,0,0,0,0,0,0,0,0,0,0,0,0,0,0,0,0,0,0,0,0,0,0,0,0,0,0,0,0,0,0,0,0,0,0,0,0,0,0,0],"id":5,"left_children":[1,3,5,7,9,11,13,15,17,19,21,23,25,27,29,31,33,35,37,39,41,43,45,47,49,51,53,55,57,59,61,63,65,67,69,71,73,75,77,79,81,83,85,87,89,91,93,95,97,99,101,103,105,107,109,111,113,115,117,119,121,123,125,-1,-1,-1,-1,-1,-1,-1,-1,-1,-1,-1,-1,-1,-1,-1,-1,-1,-1,-1,-1,-1,-1,-1,-1,-1,-1,-1,-1,-1,-1,-1,-1,-1,-1,-1,-1,-1,-1,-1,-1,-1,-1,-1,-1,-1,-1,-1,-1,-1,-1,-1,-1,-1,-1,-1,-1,-1,-1,-1,-1,-1,-1,-1,-1],"loss_changes":[1.2207921E5,1.3160008E4,1.7536287E4,1.2015625E3,1.9654512E3,2.1054849E3,2.0877734E3,9.80625E1,1.5573828E2,2.743672E2,3.839619E2,6.7895654E2,4.8501715E2,3.7572852E2,3.2366797E2,6.2804688E1,3.9631836E1,7.3180664E1,9.1140625E1,1.2759375E2,8.314136E1,2.1213672E2,6.0929443E1,2.3305518E2,1.4962979E2,1.17135994E2,1.1725891E2,1.22846924E2,2.070586E2,2.0879492E2,1.3116992E2,2.735199E1,2.9671875E1,3.483016E1,3.0010742E1,3.0750854E1,4.4239258E1,3.802307E1,6.988281E1,3.6549072E1,7.1259766E1,2.2779297E1,4.2936768E1,4.07312E1,1.7031152E2,3.6895508E1,2.7566284E1,7.688843E1,1.1033679E2,1.12035034E2,4.8464134E1,7.694287E1,5.5705963E1,4.751036E1,6.4589966E1,7.624335E1,5.4140503E1,8.048657E1,9.757031E1,8.5875E1,1.17890625E2,6.7896484E1,8.890039E1,0E0,0E0,0E0,0E0,0E0,0E0,0E0,0E0,0E0,0E0,0E0,0E0,0E0,0E0,0E0,0E0,0E0,0E0,0E0,0E0,0E0,0E0,0E0,0E0,0E0,0E0,0E0,0E0,0E0,0E0,0E0,0E0,0E0,0E0,0E0,0E0,0E0,0E0,0E0,0E0,0E0,0E0,0E0,0E0,0E0,0E0,0E0,0E0,0E0,0E0,0E0,0E0,0E0,0E0,0E0,0E0,0E0,0E0,0E0,0E0,0E0,0E0,0E0,0E0],"parents":[2147483647,0,0,1,1,2,2,3,3,4,4,5,5,6,6,7,7,8,8,9,9,10,10,11,11,12,12,13,13,14,14,15,15,16,16,17,17,18,18,19,19,20,20,21,21,22,22,23,23,24,24,25,25,26,26,27,27,28,28,29,29,30,30,31,31,32,32,33,33,34,34,35,35,36,36,37,37,38,38,39,39,40,40,41,41,42,42,43,43,44,44,45,45,46,46,47,47,48,48,49,49,50,50,51,51,52,52,53,53,54,54,55,55,56,56,57,57,58,58,59,59,60,60,61,61,62,62],"right_children":[2,4,6,8,10,12,14,16,18,20,22,24,26,28,30,32,34,36,38,40,42,44,46,48,50,52,54,56,58,60,62,64,66,68,70,72,74,76,78,80,82,84,86,88,90,92,94,96,98,100,102,104,106,108,110,112,114,116,118,120,122,124,126,-1,-1,-1,-1,-1,-1,-1,-1,-1,-1,-1,-1,-1,-1,-1,-1,-1,-1,-1,-1,-1,-1,-1,-1,-1,-1,-1,-1,-1,-1,-1,-1,-1,-1,-1,-1,-1,-1,-1,-1,-1,-1,-1,-1,-1,-1,-1,-1,-1,-1,-1,-1,-1,-1,-1,-1,-1,-1,-1,-1,-1,-1,-1,-1],"split_conditions":[-3.7271863E-1,-5.164001E-1,-8.6976744E-2,-5.82842E-1,-4.5257095E-1,-2.5286275E-1,2.690227E-1,-6.0787845E-1,-5.505108E-1,1.1324245E-1,1.06555E-1,-8.761601E-2,-1.4635885E-1,-2.7625045E-1,-2.0630218E-1,-7.426492E-2,-2.112435E0,-7.039638E-1,5.6972068E-2,-7.254983E-2,-4.850177E-1,-1.5816537E-1,3.0155522E-1,-3.273516E-1,3.979883E-1,-1.8152805E-1,-1.9144693E-1,1.0300056E-1,4.981571E-2,7.1101475E-1,-1.4408828E0,1.127614E0,5.0127834E-1,3.6929125E-1,-2.9070372E-2,-4.1990426E-1,-2.9070372E-2,-1.5754547E0,2.0830288E0,-1.8475603E0,-6.667413E-1,3.8403013E-1,-1.8401147E-1,-3.985368E-3,-4.3512398E-1,-1.0146312E0,-2.1178894E-1,-3.6952412E-1,1.43474E0,-5.19499E-1,-2.0394651E-2,-7.313538E-1,9.797928E-3,7.459463E-2,1.2147632E0,-9.522919E-1,-6.9427395E-1,2.0726787E-1,1.629503E-2,-3.7792332E-2,-7.764205E-1,-1.4290142E0,5.1417714E-1,-6.771105E-2,-4.160565E-2,-7.884613E-2,-5.8452647E-2,-4.4694703E-2,6.600145E-2,-6.895109E-2,-7.742973E-2,7.5607686E-3,-5.0017323E-2,-6.29316E-2,-7.134178E-2,-6.7669447E-3,-4.711854E-2,-5.791226E-2,-1.0130438E-2,1.9117579E-2,-3.6655392E-2,-3.214966E-2,-4.8440635E-2,-4.3157563E-2,-3.287565E-2,-1.062637E-2,-3.0475734E-2,-1.651894E-2,-3.144119E-2,-3.8179573E-2,-2.771807E-2,-3.140524E-2,-1.8906413E-2,-3.8942564E-3,-1.4432425E-2,-7.210251E-3,-2.0947702E-2,-9.038534E-3,-2.500912E-2,9.108833E-3,-6.1965045E-3,9.443034E-3,6.440762E-4,1.0409389E-2,-4.2664297E-3,-2.1888863E-3,5.355754E-3,2.5167998E-3,8.960567E-3,1.1777613E-2,2.3059493E-2,1.8173244E-2,9.213905E-3,6.768034E-3,1.7729681E-2,1.4670416E-2,2.0684464E-2,2.142614E-2,2.8308867E-2,2.7141377E-2,2.134761E-2,2.024145E-2,2.9197467E-2,4.219108E-2,3.2687504E-2,2.7054334E-2,3.152404E-2],"split_indices":[7,7,7,7,7,7,7,7,7,11,11,11,11,11,11,3,0,11,4,4,7,4,11,7,11,7,7,7,7,7,5,6,4,3,10,4,10,8,5,5,11,4,4,2,7,8,4,4,8,4,4,4,1,11,11,5,11,11,10,10,11,0,7,0,0,0,0,0,0,0,0,0,0,0,0,0,0,0,0,0,0,0,0,0,0,0,0,0,0,0,0,0,0,0,0,0,0,0,0,0,0,0,0,0,0,0,0,0,0,0,0,0,0,0,0,0,0,0,0,0,0,0,0,0,0,0,0],"split_type":[0,0,0,0,0,0,0,0,0,0,0,0,0,0,0,0,0,0,0,0,0,0,0,0,0,0,0,0,0,0,0,0,0,0,0,0,0,0,0,0,0,0,0,0,0,0,0,0,0,0,0,0,0,0,0,0,0,0,0,0,0,0,0,0,0,0,0,0,0,0,0,0,0,0,0,0,0,0,0,0,0,0,0,0,0,0,0,0,0,0,0,0,0,0,0,0,0,0,0,0,0,0,0,0,0,0,0,0,0,0,0,0,0,0,0,0,0,0,0,0,0,0,0,0,0,0,0],"sum_hessian":[4.2375388E5,1.0439432E5,3.1935956E5,4.205379E4,6.2340527E4,1.0508385E5,2.142757E5,2.3493072E4,1.8560717E4,2.536249E4,3.697804E4,5.091911E4,5.4164746E4,8.950715E4,1.2476856E5,1.7357104E4,6.135968E3,8.485248E3,1.0075469E4,1.9117008E4,6.245482E3,2.7314744E4,9.663294E3,2.741533E4,2.3503777E4,2.6000938E4,2.8163807E4,3.2508535E4,5.6998613E4,7.1204016E4,5.3564547E4,6.412076E2,1.6715896E4,7.233613E1,6.063632E3,6.6414465E2,7.821103E3,2.3253264E3,7.7501426E3,2.7488796E3,1.6368129E4,2.800509E3,3.4449731E3,4.574555E3,2.274019E4,3.9742073E3,5.689087E3,1.125245E4,1.6162881E4,1.6684383E4,6.819395E3,1.2005756E4,1.3995183E4,1.1656677E4,1.650713E4,1.7823543E4,1.4684993E4,2.4778945E4,3.2219668E4,3.492959E4,3.6274426E4,7.782141E3,4.5782402E4,5.0828506E2,1.3292252E2,1.6521334E4,1.9456386E2,6.5265495E1,7.0706363E0,4.5943984E3,1.4692336E3,2.3805052E1,6.403396E2,5.5213228E3,2.2997803E3,6.0298267E1,2.2650283E3,7.672376E3,7.7766365E1,2.9122116E1,2.7197576E3,7.096901E2,1.5658438E4,2.0410657E3,7.594433E2,2.9978873E2,3.1451843E3,4.0583096E3,5.162455E2,4.9952637E3,1.7744924E4,7.24795E2,3.249412E3,7.099242E2,4.9791626E3,1.1340693E3,1.0118381E4,1.499789E4,1.1649915E3,1.2955043E3,1.5388878E4,2.43168E3,4.387715E3,9.708003E2,1.1034955E4,3.1594453E3,1.0835737E4,5.0407246E3,6.615952E3,1.5121791E4,1.3853397E3,2.8221152E3,1.5001428E4,1.2311742E3,1.3453819E4,1.6322615E4,8.456329E3,2.5768514E4,6.4511543E3,8.458873E3,2.6470717E4,4.1607305E3,3.2113693E4,3.2562173E3,4.525924E3,1.9326533E4,2.6455871E4],"tree_param":{"num_deleted":"0","num_feature":"43","num_nodes":"127","size_leaf_vector":"1"}},{"base_weights":[-1.7176972E-4,-8.993073E-1,2.9183292E-1,-1.3219734E0,-6.172124E-1,-3.096736E-2,4.4604382E-1,-1.4712913E0,-1.1341523E0,-8.2354325E-1,-4.7621012E-1,-1.933149E-1,7.770055E-2,3.2976955E-1,5.249575E-1,-1.1600769E0,-1.4850616E0,-1.2325132E0,-1.0514578E0,-8.750126E-1,-6.26733E-1,-5.341502E-1,-3.126642E-1,-2.7156428E-1,-8.362186E-3,-9.63765E-3,1.7138806E-1,2.4937066E-1,3.791641E-1,4.7106186E-1,5.6907517E-1,-1.2400113E0,-7.916017E-1,-1.5209532E0,-1.3796309E0,-9.188073E-1,-1.2591469E0,-8.6257607E-1,-1.0974741E0,-6.7744565E-1,-9.0813774E-1,-7.256967E-1,-4.8068902E-1,-6.129497E-1,-4.4208908E-1,-4.468062E-1,-2.687235E-1,-1.4475311E-1,-3.16833E-1,2.559521E-1,-3.4365196E-2,-7.4759796E-2,6.60026E-2,6.2403932E-2,2.3023541E-1,1.6535664E-1,2.9764968E-1,3.0383757E-1,4.2078102E-1,3.8287985E-1,5.1107746E-1,5.3688514E-1,6.37209E-1,-5.117712E-2,-7.0027895E-2,-1.2338408E-2,-4.8096117E-2,-7.632826E-2,-5.3917088E-2,-2.3949957E-2,-6.936563E-2,7.192883E-3,-4.7942366E-2,-6.331823E-2,-2.317953E-2,-3.9138567E-2,-5.2020885E-2,-5.537937E-2,-6.7772553E-3,1.7245775E-2,-3.4446124E-2,-5.0578523E-2,-4.3318376E-2,-3.9704453E-2,-2.8805926E-2,-8.406081E-3,-2.672094E-2,-2.7743295E-2,-3.7574135E-2,-1.8823368E-2,-2.681957E-2,-2.7231311E-2,-1.665907E-2,-1.535012E-2,-4.159008E-3,-1.1268518E-2,-3.6623862E-3,-2.287789E-2,-1.4113726E-2,1.36182E-2,-4.7394287E-2,-3.6744834E-3,4.021616E-3,1.510486E-3,-6.498936E-3,4.364464E-3,-5.691192E-3,4.1862284E-3,-7.0779286E-3,1.6633304E-2,9.658187E-3,1.4740675E-2,6.6772215E-3,2.0096753E-2,1.3668505E-2,1.4466474E-2,2.5058528E-2,1.9649463E-2,2.6101042E-2,8.938683E-3,2.0033276E-2,2.9574323E-2,2.3660367E-2,2.477942E-2,2.9423192E-2,2.1324513E-2,3.338516E-2],"categories":[],"categories_nodes":[],"categories_segments":[],"categories_sizes":[],"default_left":[0,0,0,0,0,0,0,0,0,0,0,0,0,0,0,0,0,0,0,0,0,0,0,0,0,0,0,0,0,0,0,0,0,0,0,0,0,0,0,0,0,0,0,0,0,0,0,0,0,0,0,0,0,0,0,0,0,0,0,0,0,0,0,0,0,0,0,0,0,0,0,0,0,0,0,0,0,0,0,0,0,0,0,0,0,0,0,0,0,0,0,0,0,0,0,0,0,0,0,0,0,0,0,0,0,0,0,0,0,0,0,0,0,0,0,0,0,0,0,0,0,0,0,0,0,0,0],"id":6,"left_children":[1,3,5,7,9,11,13,15,17,19,21,23,25,27,29,31,33,35,37,39,41,43,45,47,49,51,53,55,57,59,61,63,65,67,69,71,73,75,77,79,81,83,85,87,89,91,93,95,97,99,101,103,105,107,109,111,113,115,117,119,121,123,125,-1,-1,-1,-1,-1,-1,-1,-1,-1,-1,-1,-1,-1,-1,-1,-1,-1,-1,-1,-1,-1,-1,-1,-1,-1,-1,-1,-1,-1,-1,-1,-1,-1,-1,-1,-1,-1,-1,-1,-1,-1,-1,-1,-1,-1,-1,-1,-1,-1,-1,-1,-1,-1,-1,-1,-1,-1,-1,-1,-1,-1,-1,-1,-1],"loss_changes":[1.10925164E5,1.2348273E4,1.5875467E4,1.1609688E3,1.8067852E3,1.8189397E3,1.9800703E3,9.724219E1,1.4808203E2,2.548789E2,3.495166E2,5.982986E2,5.0537265E2,3.4642383E2,3.0542188E2,2.797229E1,8.15625E1,6.887793E1,8.583008E1,1.3017871E2,7.52522E1,1.9739307E2,5.6795288E1,1.66719E2,8.448808E1,1.5746135E2,1.9109381E2,1.3465186E2,1.6930371E2,2.0401953E2,1.546914E2,2.6578491E1,1.6280518E1,3.9304688E1,3.8256836E1,2.8205688E1,4.3760742E1,2.7010254E1,7.7913086E1,3.3955933E1,7.305762E1,3.1419067E1,3.5443085E1,1.1769531E2,7.758472E1,2.6283417E1,5.1651245E1,4.4047943E1,1.03979004E2,2.2011742E1,5.027129E1,9.956919E1,5.6620514E1,4.5453087E1,7.341138E1,4.9881317E1,5.3286743E1,5.4931274E1,9.774072E1,6.552026E1,1.2093262E2,1.0197949E2,1.4542285E2,0E0,0E0,0E0,0E0,0E0,0E0,0E0,0E0,0E0,0E0,0E0,0E0,0E0,0E0,0E0,0E0,0E0,0E0,0E0,0E0,0E0,0E0,0E0,0E0,0E0,0E0,0E0,0E0,0E0,0E0,0E0,0E0,0E0,0E0,0E0,0E0,0E0,0E0,0E0,0E0,0E0,0E0,0E0,0E0,0E0,0E0,0E0,0E0,0E0,0E0,0E0,0E0,0E0,0E0,0E0,0E0,0E0,0E0,0E0,0E0,0E0,0E0,0E0,0E0],"parents":[2147483647,0,0,1,1,2,2,3,3,4,4,5,5,6,6,7,7,8,8,9,9,10,10,11,11,12,12,13,13,14,14,15,15,16,16,17,17,18,18,19,19,20,20,21,21,22,22,23,23,24,24,25,25,26,26,27,27,28,28,29,29,30,30,31,31,32,32,33,33,34,34,35,35,36,36,37,37,38,38,39,39,40,40,41,41,42,42,43,43,44,44,45,45,46,46,47,47,48,48,49,49,50,50,51,51,52,52,53,53,54,54,55,55,56,56,57,57,58,58,59,59,60,60,61,61,62,62],"right_children":[2,4,6,8,10,12,14,16,18,20,22,24,26,28,30,32,34,36,38,40,42,44,46,48,50,52,54,56,58,60,62,64,66,68,70,72,74,76,78,80,82,84,86,88,90,92,94,96,98,100,102,104,106,108,110,112,114,116,118,120,122,124,126,-1,-1,-1,-1,-1,-1,-1,-1,-1,-1,-1,-1,-1,-1,-1,-1,-1,-1,-1,-1,-1,-1,-1,-1,-1,-1,-1,-1,-1,-1,-1,-1,-1,-1,-1,-1,-1,-1,-1,-1,-1,-1,-1,-1,-1,-1,-1,-1,-1,-1,-1,-1,-1,-1,-1,-1,-1,-1,-1,-1,-1,-1,-1,-1],"split_conditions":[-3.7271863E-1,-5.164001E-1,-9.375319E-2,-5.82842E-1,-4.5257095E-1,-2.7820477E-1,2.5006035E-1,-3.9183073E-2,-5.505108E-1,1.7298944E-1,1.06555E-1,7.459463E-2,-1.1422552E-1,-2.6036155E-1,-3.345326E-1,1.127614E0,-6.0787845E-1,-7.039638E-1,3.1637356E-2,-7.254983E-2,-4.762712E-1,-4.0893564E-1,-4.3221027E-1,-1.4148226E-1,-4.332514E-1,-1.8613207E-1,-2.2092482E-1,2.7793322E-2,1.3475359E-2,5.290952E-1,7.824111E-1,-1.5403086E-1,-6.5651524E-1,5.0127834E-1,-2.2228868E0,-4.1990426E-1,2.0830288E0,-2.854313E-2,2.0830288E0,-1.8475603E0,-4.971194E-1,-4.3092147E-3,-9.425491E-2,9.968663E-3,2.9805383E-2,3.979883E-1,1.4220916E0,-2.2868122E-1,-3.8811997E-1,-2.6097666E-3,6.9049376E-1,-4.3001202E-1,1.2620597E0,1.0133835E-2,-3.3429307E-1,-4.9487047E-2,-4.641333E-2,1.7072057E0,5.28654E-1,-7.339531E-1,-7.713827E-1,8.6854205E-2,9.047008E-3,-5.117712E-2,-7.0027895E-2,-1.2338408E-2,-4.8096117E-2,-7.632826E-2,-5.3917088E-2,-2.3949957E-2,-6.936563E-2,7.192883E-3,-4.7942366E-2,-6.331823E-2,-2.317953E-2,-3.9138567E-2,-5.2020885E-2,-5.537937E-2,-6.7772553E-3,1.7245775E-2,-3.4446124E-2,-5.0578523E-2,-4.3318376E-2,-3.9704453E-2,-2.8805926E-2,-8.406081E-3,-2.672094E-2,-2.7743295E-2,-3.7574135E-2,-1.8823368E-2,-2.681957E-2,-2.7231311E-2,-1.665907E-2,-1.535012E-2,-4.159008E-3,-1.1268518E-2,-3.6623862E-3,-2.287789E-2,-1.4113726E-2,1.36182E-2,-4.7394287E-2,-3.6744834E-3,4.021616E-3,1.510486E-3,-6.498936E-3,4.364464E-3,-5.691192E-3,4.1862284E-3,-7.0779286E-3,1.6633304E-2,9.658187E-3,1.4740675E-2,6.6772215E-3,2.0096753E-2,1.3668505E-2,1.4466474E-2,2.5058528E-2,1.9649463E-2,2.6101042E-2,8.938683E-3,2.0033276E-2,2.9574323E-2,2.3660367E-2,2.477942E-2,2.9423192E-2,2.1324513E-2,3.338516E-2],"split_indices":[7,7,7,7,7,7,7,4,7,11,11,11,11,11,11,6,7,11,4,4,7,7,7,4,4,7,7,7,7,7,7,9,7,4,0,4,5,10,5,5,7,2,4,1,6,11,5,11,11,2,11,8,8,1,4,10,10,5,11,11,5,11,1,0,0,0,0,0,0,0,0,0,0,0,0,0,0,0,0,0,0,0,0,0,0,0,0,0,0,0,0,0,0,0,0,0,0,0,0,0,0,0,0,0,0,0,0,0,0,0,0,0,0,0,0,0,0,0,0,0,0,0,0,0,0,0,0],"split_type":[0,0,0,0,0,0,0,0,0,0,0,0,0,0,0,0,0,0,0,0,0,0,0,0,0,0,0,0,0,0,0,0,0,0,0,0,0,0,0,0,0,0,0,0,0,0,0,0,0,0,0,0,0,0,0,0,0,0,0,0,0,0,0,0,0,0,0,0,0,0,0,0,0,0,0,0,0,0,0,0,0,0,0,0,0,0,0,0,0,0,0,0,0,0,0,0,0,0,0,0,0,0,0,0,0,0,0,0,0,0,0,0,0,0,0,0,0,0,0,0,0,0,0,0,0,0,0],"sum_hessian":[4.224867E5,1.0357092E5,3.1891575E5,4.1454883E4,6.211604E4,1.0310115E5,2.1581461E5,2.3090838E4,1.8364045E4,2.5214467E4,3.6901574E4,4.1339715E4,6.1761434E4,8.725505E4,1.2855956E5,9.820239E2,2.2108812E4,8.381164E3,9.982882E3,1.998468E4,5.229787E3,2.724656E4,9.655012E3,2.9049184E4,1.2290532E4,3.1964293E4,2.979714E4,3.3208324E4,5.404672E4,5.787241E4,7.068715E4,8.050225E2,1.7700142E2,1.6483842E4,5.624971E3,6.586568E2,7.7225073E3,1.9595059E3,8.0233755E3,2.8726875E3,1.7111992E4,3.1150015E3,2.1147856E3,1.4677617E4,1.2568943E4,2.3800483E3,7.2749634E3,7.6430146E3,2.140617E4,1.1000409E3,1.1190491E4,1.7176377E4,1.4787915E4,1.0448602E4,1.934854E4,1.212066E4,2.1087664E4,1.9236676E4,3.4810047E4,1.8067602E4,3.980481E4,4.8012406E4,2.2674746E4,3.4594785E2,4.5907468E2,4.2737747E1,1.3426367E2,1.6275033E4,2.0880899E2,4.8106018E1,5.576865E3,2.3822142E1,6.3483466E2,7.6524883E3,7.001914E1,1.3562861E3,6.032197E2,7.9397495E3,8.3626114E1,3.1567682E1,2.8411196E3,4.9158887E3,1.21961045E4,2.1346543E3,9.8034735E2,3.108097E2,1.8039758E3,1.0345133E4,4.3324844E3,7.414465E3,5.1544785E3,1.276936E3,1.1031123E3,6.03023E3,1.2447336E3,3.591595E3,4.0514197E3,4.217981E3,1.718819E4,1.086009E3,1.4031788E1,8.346318E3,2.8441726E3,5.921064E3,1.1255313E4,1.3223159E4,1.5647559E3,9.460287E3,9.883144E2,5.1396084E3,1.420893E4,2.3893108E3,9.73135E3,3.979487E3,1.7108178E4,1.7921533E4,1.3151416E3,2.7316232E4,7.4938125E3,1.4490879E3,1.6618514E4,1.2739859E4,2.7064951E4,2.666976E4,2.1342645E4,2.868444E3,1.9806303E4],"tree_param":{"num_deleted":"0","num_feature":"43","num_nodes":"127","size_leaf_vector":"1"}},{"base_weights":[-2.1625719E-4,-8.541801E-1,2.802753E-1,-1.2766678E0,-5.819406E-1,-2.151258E-2,4.2673382E-1,-1.4256859E0,-1.0906193E0,-7.5680274E-1,-4.22634E-1,-1.5348196E-1,9.8976724E-2,3.2044592E-1,5.032048E-1,-1.4649489E0,-1.3151762E0,-1.1875157E0,-1.0094421E0,-8.236462E-1,-6.1463624E-1,-4.8139083E-1,-2.6970464E-1,-2.5066963E-1,-4.022147E-2,3.6161695E-2,2.1882327E-1,2.7070305E-1,3.9262342E-1,6.159084E-1,4.8197258E-1,-1.1517819E0,-1.4770032E0,-6.0161304E-1,-1.3237667E0,-8.810602E-1,-1.2136679E0,-8.486296E-1,-1.0614865E0,-9.0138483E-1,-7.284882E-1,-7.203007E-1,-4.962369E-1,-3.2081124E-1,-5.1539135E-1,-2.8390813E-1,1.421978E-1,-3.183145E-1,-1.4518006E-1,1.4129093E-1,-6.8870805E-2,-1.2097891E-2,1.1902109E-1,1.9427904E-1,4.0537733E-1,1.749312E-1,3.0515957E-1,3.588851E-1,4.9363828E-1,5.1676726E-1,6.4621204E-1,4.0512928E-1,5.070963E-1,-6.287556E-2,-3.729975E-2,-7.4079715E-2,-5.4319937E-2,-4.130472E-2,6.4538434E-2,-6.410774E-2,-7.26675E-2,-3.4876365E-2,-5.5565227E-2,-5.8199383E-2,-6.6635996E-2,-5.3440114E-3,-4.3383848E-2,-1.5019208E-2,-5.366422E-2,-3.352293E-2,-4.684863E-2,-3.7015088E-2,1.031698E-3,-4.3344416E-2,-3.4011666E-2,-1.2000384E-2,-2.774093E-2,-1.955398E-2,-8.205711E-3,-2.9352635E-2,-2.2757106E-2,-1.689638E-2,-8.769087E-3,2.5502851E-2,-2.1185507E-3,-1.46645205E-2,-3.0351225E-2,-7.5212665E-6,-1.0397164E-2,8.260752E-3,-1.990047E-2,-6.1513684E-3,1.4795195E-3,1.0562285E-2,-1.6327348E-3,1.5601348E-3,9.402235E-3,2.0184582E-2,8.917297E-3,1.7888201E-2,3.3681087E-2,9.804341E-3,1.0944073E-3,9.041454E-3,1.6248597E-2,2.235525E-2,1.6339561E-2,2.2015868E-2,2.8950168E-2,3.0757412E-2,2.3480674E-2,3.541228E-2,3.0148879E-2,2.5749916E-2,1.7879536E-2,2.4256976E-2,3.024068E-2],"categories":[],"categories_nodes":[],"categories_segments":[],"categories_sizes":[],"default_left":[0,0,0,0,0,0,0,0,0,0,0,0,0,0,0,0,0,0,0,0,0,0,0,0,0,0,0,0,0,0,0,0,0,0,0,0,0,0,0,0,0,0,0,0,0,0,0,0,0,0,0,0,0,0,0,0,0,0,0,0,0,0,0,0,0,0,0,0,0,0,0,0,0,0,0,0,0,0,0,0,0,0,0,0,0,0,0,0,0,0,0,0,0,0,0,0,0,0,0,0,0,0,0,0,0,0,0,0,0,0,0,0,0,0,0,0,0,0,0,0,0,0,0,0,0,0,0],"id":7,"left_children":[1,3,5,7,9,11,13,15,17,19,21,23,25,27,29,31,33,35,37,39,41,43,45,47,49,51,53,55,57,59,61,63,65,67,69,71,73,75,77,79,81,83,85,87,89,91,93,95,97,99,101,103,105,107,109,111,113,115,117,119,121,123,125,-1,-1,-1,-1,-1,-1,-1,-1,-1,-1,-1,-1,-1,-1,-1,-1,-1,-1,-1,-1,-1,-1,-1,-1,-1,-1,-1,-1,-1,-1,-1,-1,-1,-1,-1,-1,-1,-1,-1,-1,-1,-1,-1,-1,-1,-1,-1,-1,-1,-1,-1,-1,-1,-1,-1,-1,-1,-1,-1,-1,-1,-1,-1,-1],"loss_changes":[1.0086604E5,1.1974469E4,1.4010533E4,1.1295703E3,1.7635234E3,1.6468928E3,1.7344531E3,9.635156E1,1.4155664E2,2.8633008E2,2.9761133E2,5.44105E2,4.0757556E2,3.2051074E2,2.9670312E2,6.135547E1,3.5661133E1,6.519238E1,8.180762E1,1.5119824E2,1.2045972E2,1.3052441E2,5.386145E1,1.897887E2,1.1872614E2,1.420529E2,8.517096E1,1.7441455E2,1.2398584E2,5.87666E1,2.0142969E2,2.5819702E1,2.7234375E1,3.1900274E1,2.982129E1,2.684964E1,4.3489258E1,3.41156E1,6.668359E1,9.21875E1,8.174414E1,2.936914E1,6.827417E1,4.6019592E1,8.501465E1,5.207727E1,2.0886818E1,1.16921265E2,9.462839E1,4.0222885E1,1.0514501E2,1.03079475E2,7.924875E1,5.483319E1,2.7395172E1,4.529422E1,9.5713135E1,7.718872E1,4.1251953E1,2.1098145E1,3.9970703E1,1.3425049E2,1.6857617E2,0E0,0E0,0E0,0E0,0E0,0E0,0E0,0E0,0E0,0E0,0E0,0E0,0E0,0E0,0E0,0E0,0E0,0E0,0E0,0E0,0E0,0E0,0E0,0E0,0E0,0E0,0E0,0E0,0E0,0E0,0E0,0E0,0E0,0E0,0E0,0E0,0E0,0E0,0E0,0E0,0E0,0E0,0E0,0E0,0E0,0E0,0E0,0E0,0E0,0E0,0E0,0E0,0E0,0E0,0E0,0E0,0E0,0E0,0E0,0E0,0E0,0E0,0E0,0E0],"parents":[2147483647,0,0,1,1,2,2,3,3,4,4,5,5,6,6,7,7,8,8,9,9,10,10,11,11,12,12,13,13,14,14,15,15,16,16,17,17,18,18,19,19,20,20,21,21,22,22,23,23,24,24,25,25,26,26,27,27,28,28,29,29,30,30,31,31,32,32,33,33,34,34,35,35,36,36,37,37,38,38,39,39,40,40,41,41,42,42,43,43,44,44,45,45,46,46,47,47,48,48,49,49,50,50,51,51,52,52,53,53,54,54,55,55,56,56,57,57,58,58,59,59,60,60,61,61,62,62],"right_children":[2,4,6,8,10,12,14,16,18,20,22,24,26,28,30,32,34,36,38,40,42,44,46,48,50,52,54,56,58,60,62,64,66,68,70,72,74,76,78,80,82,84,86,88,90,92,94,96,98,100,102,104,106,108,110,112,114,116,118,120,122,124,126,-1,-1,-1,-1,-1,-1,-1,-1,-1,-1,-1,-1,-1,-1,-1,-1,-1,-1,-1,-1,-1,-1,-1,-1,-1,-1,-1,-1,-1,-1,-1,-1,-1,-1,-1,-1,-1,-1,-1,-1,-1,-1,-1,-1,-1,-1,-1,-1,-1,-1,-1,-1,-1,-1,-1,-1,-1,-1,-1,-1,-1,-1,-1,-1],"split_conditions":[-3.6961257E-1,-5.164001E-1,-8.6976744E-2,-5.82842E-1,-4.4081578E-1,-2.5286275E-1,2.690227E-1,-6.0787845E-1,-5.505108E-1,2.9085718E-2,8.6854205E-2,-8.761601E-2,1.8695988E-2,-6.775611E-2,-1.2019386E0,-7.426492E-2,-2.112435E0,-7.039638E-1,6.643358E-2,-4.733037E-1,-4.733037E-1,-1.5816537E-1,9.475914E-1,-3.0199632E-1,-3.5770088E-1,-1.5422678E-1,1.6345167E0,-7.09374E-4,1.0869315E0,4.451816E-1,-5.6592387E-1,1.127614E0,5.0127834E-1,3.6929125E-1,-2.9070372E-2,4.16975E-1,-2.9070372E-2,-1.5754547E0,-8.111977E-1,-5.0536186E-1,1.7936378E0,-8.739396E-1,-6.5821536E-2,-1.17957294E-1,-4.0893564E-1,5.28654E-1,9.926018E-3,1.4827362E0,-5.37068E-1,-3.5243277E-3,3.1345782E-1,-7.313538E-1,-2.9850873E-1,-1.5768389E0,2.1027017E0,1.16249E0,-5.7270104E-1,-1.1720206E0,1.1903893E-1,-1.4290142E0,-1.543171E0,-6.6093105E-1,1.1207963E0,-6.287556E-2,-3.729975E-2,-7.4079715E-2,-5.4319937E-2,-4.130472E-2,6.4538434E-2,-6.410774E-2,-7.26675E-2,-3.4876365E-2,-5.5565227E-2,-5.8199383E-2,-6.6635996E-2,-5.3440114E-3,-4.3383848E-2,-1.5019208E-2,-5.366422E-2,-3.352293E-2,-4.684863E-2,-3.7015088E-2,1.031698E-3,-4.3344416E-2,-3.4011666E-2,-1.2000384E-2,-2.774093E-2,-1.955398E-2,-8.205711E-3,-2.9352635E-2,-2.2757106E-2,-1.689638E-2,-8.769087E-3,2.5502851E-2,-2.1185507E-3,-1.46645205E-2,-3.0351225E-2,-7.5212665E-6,-1.0397164E-2,8.260752E-3,-1.990047E-2,-6.1513684E-3,1.4795195E-3,1.0562285E-2,-1.6327348E-3,1.5601348E-3,9.402235E-3,2.0184582E-2,8.917297E-3,1.7888201E-2,3.3681087E-2,9.804341E-3,1.0944073E-3,9.041454E-3,1.6248597E-2,2.235525E-2,1.6339561E-2,2.2015868E-2,2.8950168E-2,3.0757412E-2,2.3480674E-2,3.541228E-2,3.0148879E-2,2.5749916E-2,1.7879536E-2,2.4256976E-2,3.024068E-2],"split_indices":[7,7,7,7,7,7,7,7,7,11,11,11,11,11,5,3,0,11,4,7,7,4,4,7,4,7,5,7,5,7,11,6,4,3,10,5,10,8,11,11,5,8,4,11,7,11,1,6,5,2,11,4,11,0,11,8,11,5,7,0,5,5,3,0,0,0,0,0,0,0,0,0,0,0,0,0,0,0,0,0,0,0,0,0,0,0,0,0,0,0,0,0,0,0,0,0,0,0,0,0,0,0,0,0,0,0,0,0,0,0,0,0,0,0,0,0,0,0,0,0,0,0,0,0,0,0,0],"split_type":[0,0,0,0,0,0,0,0,0,0,0,0,0,0,0,0,0,0,0,0,0,0,0,0,0,0,0,0,0,0,0,0,0,0,0,0,0,0,0,0,0,0,0,0,0,0,0,0,0,0,0,0,0,0,0,0,0,0,0,0,0,0,0,0,0,0,0,0,0,0,0,0,0,0,0,0,0,0,0,0,0,0,0,0,0,0,0,0,0,0,0,0,0,0,0,0,0,0,0,0,0,0,0,0,0,0,0,0,0,0,0,0,0,0,0,0,0,0,0,0,0,0,0,0,0,0,0],"sum_hessian":[4.2109844E5,1.0411513E5,3.169833E5,4.0797664E4,6.331747E4,1.0357035E5,2.1341295E5,2.2649547E4,1.8148117E4,3.0183234E4,3.3134234E4,4.9430215E4,5.414014E4,8.929961E4,1.2411334E5,1.6702916E4,5.9466313E3,8.266845E3,9.881273E3,2.0527076E4,9.656159E3,2.3935758E4,9.198478E3,2.6602053E4,2.282816E4,3.5522875E4,1.8617262E4,5.2868652E4,3.6430957E4,1.9670715E4,1.04442625E5,6.2267444E2,1.6080241E4,7.158394E1,5.8750474E3,6.527276E2,7.614117E3,2.4202483E3,7.461025E3,1.1292929E4,9.234146E3,5.0998037E3,4.5563555E3,4.18431E3,1.9751447E4,8.892163E3,3.0631424E2,1.6207211E4,1.0394841E4,3.111408E3,1.9716752E4,2.2448885E4,1.3073992E4,1.6454453E4,2.1628098E3,1.3989877E4,3.8878773E4,2.7313105E4,9.117852E3,4.609236E3,1.50614795E4,2.5737934E4,7.8704695E4,4.9230396E2,1.303705E2,1.5890673E4,1.8956778E2,6.4496574E1,7.087361E0,4.4552666E3,1.4197811E3,3.6544928E2,2.8727835E2,5.3798823E3,2.2342349E3,6.0758812E1,2.3594895E3,1.1429222E2,7.3467324E3,1.5105986E3,9.78233E3,9.090799E3,1.4334813E2,1.0902943E3,4.0095095E3,8.4881885E2,3.7075366E3,2.8878171E3,1.2964928E3,9.017345E3,1.0734104E4,5.9355854E3,2.956578E3,1.0175183E2,2.045624E2,1.4916347E4,1.2908649E3,3.140034E3,7.254807E3,2.9799087E3,1.3149913E2,1.2720083E4,6.99667E3,1.891291E3,2.0557594E4,5.7542905E3,7.319702E3,1.1616948E3,1.5292758E4,1.8387637E3,3.2404614E2,1.2290625E4,1.6992527E3,5.345256E3,3.353352E4,7.2823706E3,2.0030736E4,5.6160796E3,3.5017715E3,1.4895055E3,3.1197307E3,6.1795547E3,8.881925E3,7.7701226E3,1.796781E4,6.4269484E4,1.4435209E4],"tree_param":{"num_deleted":"0","num_feature":"43","num_nodes":"127","size_leaf_vector":"1"}},{"base_weights":[-2.6060484E-4,-8.271657E-1,2.642641E-1,-1.2347167E0,-5.6191105E-1,-6.361956E-3,4.1556782E-1,-1.3840353E0,-1.0498289E0,-7.539691E-1,-4.3178177E-1,-1.4944868E-1,1.08865455E-1,3.168798E-1,4.7949374E-1,-1.4237471E0,-1.2727332E0,-1.1455824E0,-9.699209E-1,-8.205728E-1,-6.1757094E-1,-5.21723E-1,-3.3947682E-1,-2.4226485E-1,-4.134615E-2,5.078962E-2,2.1959758E-1,2.419605E-1,3.6028796E-1,5.8758676E-1,4.5915803E-1,-8.472994E-1,-1.4303576E0,-8.5205054E-1,-1.2871542E0,-8.4531325E-1,-1.1713604E0,-3.3010978E-1,-9.8259825E-1,-7.4240875E-1,-9.0419227E-1,-7.20529E-1,-5.162629E-1,-3.5001335E-1,-5.565496E-1,-4.1343385E-1,-2.5216535E-1,-3.4207487E-1,-1.7289272E-1,-8.605911E-2,6.800498E-2,-1.1492656E-2,1.2446449E-1,1.9838342E-1,3.9164287E-1,1.9922121E-1,3.0015343E-1,3.440597E-1,5.174788E-1,5.3152794E-1,6.3853717E-1,4.137762E-1,4.981453E-1,-4.493301E-2,3.7343275E-2,-6.335186E-2,-7.216825E-2,-4.434776E-2,6.405302E-2,-2.3391094E-2,-6.466246E-2,8.929551E-3,-4.422758E-2,-5.8928717E-2,-1.9313708E-2,-6.2416997E-2,-2.0190373E-4,-4.0318873E-2,-5.12742E-2,-4.1438688E-2,-2.5427634E-2,-4.59077E-2,-1.8332995E-2,-3.8621392E-2,-2.9346764E-2,-7.8105307E-3,-2.7560893E-2,-1.5706219E-2,-3.5842415E-2,-3.5166316E-2,-2.530309E-2,-2.374134E-2,-1.2518342E-2,-3.923124E-3,-1.4536289E-2,-5.659078E-3,-1.8388368E-2,-7.5597214E-3,-2.2605792E-2,8.929892E-3,-5.298679E-3,8.635818E-3,4.9854023E-4,5.0237193E-3,-2.5065204E-3,2.6435887E-3,9.139953E-3,3.9358744E-3,1.1341508E-2,1.7417809E-2,3.0882804E-2,1.49389235E-2,8.324242E-3,1.5125989E-2,-5.6103427E-2,1.4384836E-2,1.8884918E-2,2.4155421E-2,3.5179116E-2,2.9227644E-2,2.344936E-2,2.766836E-2,3.4385122E-2,1.753911E-2,2.3249779E-2,2.3962224E-2,2.9250508E-2],"categories":[],"categories_nodes":[],"categories_segments":[],"categories_sizes":[],"default_left":[0,0,0,0,0,0,0,0,0,0,0,0,0,0,0,0,0,0,0,0,0,0,0,0,0,0,0,0,0,0,0,0,0,0,0,0,0,0,0,0,0,0,0,0,0,0,0,0,0,0,0,0,0,0,0,0,0,0,0,0,0,0,0,0,0,0,0,0,0,0,0,0,0,0,0,0,0,0,0,0,0,0,0,0,0,0,0,0,0,0,0,0,0,0,0,0,0,0,0,0,0,0,0,0,0,0,0,0,0,0,0,0,0,0,0,0,0,0,0,0,0,0,0,0,0,0,0],"id":8,"left_children":[1,3,5,7,9,11,13,15,17,19,21,23,25,27,29,31,33,35,37,39,41,43,45,47,49,51,53,55,57,59,61,63,65,67,69,71,73,75,77,79,81,83,85,87,89,91,93,95,97,99,101,103,105,107,109,111,113,115,117,119,121,123,125,-1,-1,-1,-1,-1,-1,-1,-1,-1,-1,-1,-1,-1,-1,-1,-1,-1,-1,-1,-1,-1,-1,-1,-1,-1,-1,-1,-1,-1,-1,-1,-1,-1,-1,-1,-1,-1,-1,-1,-1,-1,-1,-1,-1,-1,-1,-1,-1,-1,-1,-1,-1,-1,-1,-1,-1,-1,-1,-1,-1,-1,-1,-1,-1],"loss_changes":[9.178595E4,1.0993656E4,1.3017678E4,1.1054531E3,1.5393809E3,1.8796898E3,1.2862734E3,9.621484E1,1.3598828E2,2.255293E2,3.0472852E2,5.1025757E2,4.0610608E2,2.6061523E2,2.717461E2,6.1039062E1,3.4341797E1,6.205664E1,7.895117E1,1.0857715E2,8.48186E1,1.1103223E2,1.1695386E2,1.8939758E2,1.1487958E2,1.9009198E2,7.921777E1,7.308911E1,1.2929199E2,5.5617188E1,1.8408594E2,1.6038101E1,3.2484375E1,1.5771744E1,2.7589844E1,2.6175293E1,4.201465E1,5.7302177E1,7.159766E1,1.7417871E2,6.023535E1,2.7614258E1,5.1769653E1,4.1100952E1,1.1422168E2,9.812109E1,5.5678223E1,6.5933716E1,9.774579E1,8.791101E1,4.1437286E1,9.71262E1,7.924707E1,6.5828125E1,2.3106781E1,5.5225403E1,4.2246338E1,8.712012E1,3.0027222E1,3.06792E1,4.2575195E1,1.5515625E2,9.169824E1,0E0,0E0,0E0,0E0,0E0,0E0,0E0,0E0,0E0,0E0,0E0,0E0,0E0,0E0,0E0,0E0,0E0,0E0,0E0,0E0,0E0,0E0,0E0,0E0,0E0,0E0,0E0,0E0,0E0,0E0,0E0,0E0,0E0,0E0,0E0,0E0,0E0,0E0,0E0,0E0,0E0,0E0,0E0,0E0,0E0,0E0,0E0,0E0,0E0,0E0,0E0,0E0,0E0,0E0,0E0,0E0,0E0,0E0,0E0,0E0,0E0,0E0,0E0,0E0],"parents":[2147483647,0,0,1,1,2,2,3,3,4,4,5,5,6,6,7,7,8,8,9,9,10,10,11,11,12,12,13,13,14,14,15,15,16,16,17,17,18,18,19,19,20,20,21,21,22,22,23,23,24,24,25,25,26,26,27,27,28,28,29,29,30,30,31,31,32,32,33,33,34,34,35,35,36,36,37,37,38,38,39,39,40,40,41,41,42,42,43,43,44,44,45,45,46,46,47,47,48,48,49,49,50,50,51,51,52,52,53,53,54,54,55,55,56,56,57,57,58,58,59,59,60,60,61,61,62,62],"right_children":[2,4,6,8,10,12,14,16,18,20,22,24,26,28,30,32,34,36,38,40,42,44,46,48,50,52,54,56,58,60,62,64,66,68,70,72,74,76,78,80,82,84,86,88,90,92,94,96,98,100,102,104,106,108,110,112,114,116,118,120,122,124,126,-1,-1,-1,-1,-1,-1,-1,-1,-1,-1,-1,-1,-1,-1,-1,-1,-1,-1,-1,-1,-1,-1,-1,-1,-1,-1,-1,-1,-1,-1,-1,-1,-1,-1,-1,-1,-1,-1,-1,-1,-1,-1,-1,-1,-1,-1,-1,-1,-1,-1,-1,-1,-1,-1,-1,-1,-1,-1,-1,-1,-1,-1,-1,-1],"split_conditions":[-3.7271863E-1,-5.164001E-1,-5.5635687E-2,-5.82842E-1,-4.5257095E-1,-2.5286275E-1,2.690227E-1,-6.0787845E-1,-5.505108E-1,1.8695988E-2,-1.105081E-1,-8.761601E-2,1.8695988E-2,-2.7625045E-1,-1.2019386E0,-2.1538728E-1,-8.111977E-1,-7.039638E-1,-1.5754547E0,-3.0079989E-2,-4.8213762E-1,-1.5816537E-1,-4.0893564E-1,-3.273516E-1,3.979883E-1,-1.5422678E-1,1.6692982E0,1.272156E-1,1.1352088E0,6.8940866E-1,-3.6239037E-1,2.2219946E0,-1.5754547E0,1.006559E0,-2.112435E0,-4.1990426E-1,2.0830288E0,-3.1689763E-2,3.1637356E-2,-3.1213002E-2,1.7936378E0,5.28654E-1,-1.9303499E-1,1.4473935E0,-4.3221027E-1,3.53102E-1,-1.5816537E-1,-3.6952412E-1,1.43474E0,-5.5084646E-1,-2.0394651E-2,-3.1185254E-1,-2.9850873E-1,-2.2092482E-1,2.1027017E0,-3.8246658E-2,1.742507E0,4.981571E-2,1.05376795E-1,-1.4408828E0,9.755659E-3,7.1101475E-1,1.1207963E0,-4.493301E-2,3.7343275E-2,-6.335186E-2,-7.216825E-2,-4.434776E-2,6.405302E-2,-2.3391094E-2,-6.466246E-2,8.929551E-3,-4.422758E-2,-5.8928717E-2,-1.9313708E-2,-6.2416997E-2,-2.0190373E-4,-4.0318873E-2,-5.12742E-2,-4.1438688E-2,-2.5427634E-2,-4.59077E-2,-1.8332995E-2,-3.8621392E-2,-2.9346764E-2,-7.8105307E-3,-2.7560893E-2,-1.5706219E-2,-3.5842415E-2,-3.5166316E-2,-2.530309E-2,-2.374134E-2,-1.2518342E-2,-3.923124E-3,-1.4536289E-2,-5.659078E-3,-1.8388368E-2,-7.5597214E-3,-2.2605792E-2,8.929892E-3,-5.298679E-3,8.635818E-3,4.9854023E-4,5.0237193E-3,-2.5065204E-3,2.6435887E-3,9.139953E-3,3.9358744E-3,1.1341508E-2,1.7417809E-2,3.0882804E-2,1.49389235E-2,8.324242E-3,1.5125989E-2,-5.6103427E-2,1.4384836E-2,1.8884918E-2,2.4155421E-2,3.5179116E-2,2.9227644E-2,2.344936E-2,2.766836E-2,3.4385122E-2,1.753911E-2,2.3249779E-2,2.3962224E-2,2.9250508E-2],"split_indices":[7,7,7,7,7,7,7,7,7,11,11,11,11,11,5,3,11,11,8,10,7,4,7,7,11,7,5,7,11,7,11,5,8,3,0,4,5,10,4,10,5,11,4,8,7,11,4,4,8,4,4,4,11,7,11,10,9,7,10,5,1,7,3,0,0,0,0,0,0,0,0,0,0,0,0,0,0,0,0,0,0,0,0,0,0,0,0,0,0,0,0,0,0,0,0,0,0,0,0,0,0,0,0,0,0,0,0,0,0,0,0,0,0,0,0,0,0,0,0,0,0,0,0,0,0,0,0],"split_type":[0,0,0,0,0,0,0,0,0,0,0,0,0,0,0,0,0,0,0,0,0,0,0,0,0,0,0,0,0,0,0,0,0,0,0,0,0,0,0,0,0,0,0,0,0,0,0,0,0,0,0,0,0,0,0,0,0,0,0,0,0,0,0,0,0,0,0,0,0,0,0,0,0,0,0,0,0,0,0,0,0,0,0,0,0,0,0,0,0,0,0,0,0,0,0,0,0,0,0,0,0,0,0,0,0,0,0,0,0,0,0,0,0,0,0,0,0,0,0,0,0,0,0,0,0,0,0],"sum_hessian":[4.196162E5,1.0169989E5,3.179163E5,4.0093902E4,6.160599E4,1.1400489E5,2.039114E5,2.2176922E4,1.7916982E4,2.48803E4,3.6725688E4,5.085457E4,6.3150324E4,8.016291E4,1.237485E5,1.6336434E4,5.8404883E3,8.14432E3,9.772662E3,1.6713854E4,8.1664473E3,1.8598652E4,1.8127033E4,2.7361186E4,2.3493385E4,4.1425363E4,2.172496E4,2.9409994E4,5.075291E4,1.959022E4,1.0415828E5,1.8668172E2,1.6149752E4,1.9556691E2,5.6449214E3,6.4657806E2,7.4977417E3,1.9040125E2,9.582261E3,8.643835E3,8.070019E3,4.0472073E3,4.1192397E3,3.1380122E3,1.546064E4,9.812034E3,8.314999E3,1.121768E4,1.6143506E4,1.6675215E4,6.818172E3,2.2448768E4,1.8976596E4,1.9342121E4,2.3828396E3,1.6959016E4,1.2450979E4,4.600643E4,4.74648E3,9.332953E3,1.0257269E4,4.813729E4,5.6020992E4,1.812776E2,5.4041204E0,1.198615E3,1.4951137E4,1.929931E2,2.5738008E0,4.225648E1,5.6026646E3,2.373278E1,6.228453E2,7.428978E3,6.876398E1,4.9153824E1,1.4124742E2,1.8794088E3,7.7028516E3,6.3106987E3,2.3331357E3,7.865027E3,2.0499202E2,2.911398E3,1.1358093E3,3.6500333E2,3.7542366E3,2.8600576E3,2.7795468E2,3.9536838E3,1.1506956E4,7.1269175E3,2.6851167E3,1.5110808E3,6.8039185E3,1.1326208E3,1.0085059E4,1.498089E4,1.1626161E3,1.166384E3,1.550883E4,2.430618E3,4.3875537E3,5.758834E3,1.6689934E4,8.52094E3,1.0455654E4,3.7155989E3,1.5626522E4,2.0019597E3,3.8087988E2,4.1945366E3,1.27644795E4,1.2431082E4,1.989606E1,1.7198736E4,2.8807691E4,4.0095706E3,7.369093E2,5.046201E3,4.286752E3,3.7585376E3,6.498731E3,2.1590844E4,2.6546443E4,4.6015125E4,1.0005865E4],"tree_param":{"num_deleted":"0","num_feature":"43","num_nodes":"127","size_leaf_vector":"1"}},{"base_weights":[-3.0433692E-4,-7.9404473E-1,2.5149912E-1,-1.1956713E0,-5.363146E-1,-2.6720215E-2,3.8516197E-1,-1.3457785E0,-1.0114694E0,-7.217096E-1,-4.1129577E-1,-1.6721062E-1,6.7231804E-2,2.8383487E-1,4.542781E-1,-1.0259969E0,-1.3601356E0,-1.1508113E0,-9.573985E-1,-7.6940274E-1,-5.4099554E-1,-4.9739304E-1,-3.23085E-1,-2.3566699E-1,-5.708827E-3,-1.5858239E-2,1.4356658E-1,2.1324912E-1,3.2730272E-1,4.2789352E-1,5.289171E-1,-1.1069102E0,-6.5837306E-1,-1.4058999E0,-1.271166E0,-1.7552464E-1,-1.1582966E0,-3.525186E-1,-9.698615E-1,-5.7651573E-1,-8.01988E-1,-6.314623E-1,-4.085541E-1,-3.3313796E-1,-5.30774E-1,-3.7525865E-1,-2.0877159E-1,-1.3667059E-1,-2.863728E-1,2.3069572E-1,-2.8944103E-2,7.0370357E-3,-2.0510642E-1,5.5026535E-2,1.917439E-1,1.392273E-1,2.5585628E-1,2.828479E-1,3.8338327E-1,3.823772E-1,4.8111716E-1,6.060809E-1,4.9876663E-1,-4.4447627E-2,-6.353249E-2,-4.251162E-2,-7.0096883E-3,-4.4355955E-2,-7.0535E-2,-1.9415496E-2,-6.393134E-2,1.4854126E-2,-4.5807507E-2,-6.455558E-2,-5.5319276E-2,-5.6254383E-2,-2.9935706E-3,-4.038377E-2,-5.031977E-2,-2.3530487E-2,-3.427309E-2,-4.514646E-2,-3.8071945E-2,-3.4871273E-2,-2.4385262E-2,-8.38838E-2,-1.9780245E-2,-1.4945407E-2,-3.418952E-2,-3.3602994E-2,-2.4114935E-2,-2.2820318E-2,-1.3945666E-2,-1.596925E-2,-8.321592E-3,-5.2179093E-3,-1.81341E-2,-2.1590492E-2,-1.2603725E-2,-8.669796E-2,1.1993275E-2,-3.8255618E-3,3.178581E-3,-3.8961973E-3,2.7917514E-3,-2.2844827E-2,-3.6746187E-3,9.240552E-3,1.2648312E-3,1.4268992E-2,7.893901E-3,7.179455E-3,-3.3515207E-2,1.9652199E-2,1.18852835E-2,1.31992E-2,2.0516926E-2,1.7746903E-2,2.4769483E-2,1.25389695E-2,1.9850213E-2,1.5934443E-2,2.4908682E-2,1.5631905E-2,3.13888E-2,2.3504967E-2,2.9969165E-2],"categories":[],"categories_nodes":[],"categories_segments":[],"categories_sizes":[],"default_left":[0,0,0,0,0,0,0,0,0,0,0,0,0,0,0,0,0,0,0,0,0,0,0,0,0,0,0,0,0,0,0,0,0,0,0,0,0,0,0,0,0,0,0,0,0,0,0,0,0,0,0,0,0,0,0,0,0,0,0,0,0,0,0,0,0,0,0,0,0,0,0,0,0,0,0,0,0,0,0,0,0,0,0,0,0,0,0,0,0,0,0,0,0,0,0,0,0,0,0,0,0,0,0,0,0,0,0,0,0,0,0,0,0,0,0,0,0,0,0,0,0,0,0,0,0,0,0],"id":9,"left_children":[1,3,5,7,9,11,13,15,17,19,21,23,25,27,29,31,33,35,37,39,41,43,45,47,49,51,53,55,57,59,61,63,65,67,69,71,73,75,77,79,81,83,85,87,89,91,93,95,97,99,101,103,105,107,109,111,113,115,117,119,121,123,125,-1,-1,-1,-1,-1,-1,-1,-1,-1,-1,-1,-1,-1,-1,-1,-1,-1,-1,-1,-1,-1,-1,-1,-1,-1,-1,-1,-1,-1,-1,-1,-1,-1,-1,-1,-1,-1,-1,-1,-1,-1,-1,-1,-1,-1,-1,-1,-1,-1,-1,-1,-1,-1,-1,-1,-1,-1,-1,-1,-1,-1,-1,-1,-1],"loss_changes":[8.355572E4,1.0421164E4,1.1802406E4,1.0867812E3,1.4211934E3,1.3594719E3,1.5012559E3,9.814453E1,1.3206445E2,2.1246094E2,2.7804443E2,4.5632764E2,3.914744E2,2.6666846E2,2.507539E2,2.71026E1,8.268359E1,3.583203E1,9.5694336E1,1.2234863E2,6.1575684E1,1.0145557E2,1.0785181E2,1.4547058E2,6.750479E1,1.2805353E2,1.3720581E2,1.04469604E2,1.34021E2,2.279375E2,7.712695E1,2.6185852E1,1.690622E1,3.283789E1,4.598828E1,1.3844181E1,3.234375E1,5.8433975E1,7.314258E1,3.2299927E1,6.771973E1,2.871875E1,3.380374E1,3.7405518E1,1.0517334E2,9.700781E1,2.6517029E1,7.168025E1,9.550757E1,2.0229073E1,4.9246162E1,1.09311485E2,1.0566539E2,4.373877E1,6.601459E1,4.2847656E1,5.2270508E1,7.207764E1,7.561084E1,9.761328E1,1.2008984E2,5.9302246E1,6.8760254E1,0E0,0E0,0E0,0E0,0E0,0E0,0E0,0E0,0E0,0E0,0E0,0E0,0E0,0E0,0E0,0E0,0E0,0E0,0E0,0E0,0E0,0E0,0E0,0E0,0E0,0E0,0E0,0E0,0E0,0E0,0E0,0E0,0E0,0E0,0E0,0E0,0E0,0E0,0E0,0E0,0E0,0E0,0E0,0E0,0E0,0E0,0E0,0E0,0E0,0E0,0E0,0E0,0E0,0E0,0E0,0E0,0E0,0E0,0E0,0E0,0E0,0E0,0E0,0E0],"parents":[2147483647,0,0,1,1,2,2,3,3,4,4,5,5,6,6,7,7,8,8,9,9,10,10,11,11,12,12,13,13,14,14,15,15,16,16,17,17,18,18,19,19,20,20,21,21,22,22,23,23,24,24,25,25,26,26,27,27,28,28,29,29,30,30,31,31,32,32,33,33,34,34,35,35,36,36,37,37,38,38,39,39,40,40,41,41,42,42,43,43,44,44,45,45,46,46,47,47,48,48,49,49,50,50,51,51,52,52,53,53,54,54,55,55,56,56,57,57,58,58,59,59,60,60,61,61,62,62],"right_children":[2,4,6,8,10,12,14,16,18,20,22,24,26,28,30,32,34,36,38,40,42,44,46,48,50,52,54,56,58,60,62,64,66,68,70,72,74,76,78,80,82,84,86,88,90,92,94,96,98,100,102,104,106,108,110,112,114,116,118,120,122,124,126,-1,-1,-1,-1,-1,-1,-1,-1,-1,-1,-1,-1,-1,-1,-1,-1,-1,-1,-1,-1,-1,-1,-1,-1,-1,-1,-1,-1,-1,-1,-1,-1,-1,-1,-1,-1,-1,-1,-1,-1,-1,-1,-1,-1,-1,-1,-1,-1,-1,-1,-1,-1,-1,-1,-1,-1,-1,-1,-1,-1,-1,-1,-1,-1],"split_conditions":[-3.7271863E-1,-5.164001E-1,-9.375319E-2,-5.82842E-1,-4.5257095E-1,-2.7820477E-1,2.5006035E-1,-3.9183073E-2,-5.6244236E-1,1.7298944E-1,-1.105081E-1,7.459463E-2,-1.4635885E-1,-2.6036155E-1,6.836995E-2,1.127614E0,-6.167339E-1,-2.390018E0,-1.5754547E0,-7.254983E-2,-4.762712E-1,-1.5816537E-1,3.0155522E-1,-4.5798462E-2,-4.332514E-1,1.2747281E0,-2.2092482E-1,2.7793322E-2,7.9857774E-2,7.1101475E-1,-1.1276125E0,-1.5403086E-1,2.7990964E-1,-1.420254E-1,-2.2228868E0,1.9083694E-1,-3.1156912E-2,-3.1532712E-2,2.6380094E-2,-3.0332392E-2,-4.971194E-1,-4.3092147E-3,-2.3064494E0,1.4473935E0,-4.3221027E-1,-4.0893564E-1,-4.0361244E-2,1.3256028E0,-3.9199537E-1,-2.2037942E0,-3.1318995E-1,-2.16251E-1,1.0111003E0,-3.5770088E-1,-3.3429307E-1,1.6692634E0,-1.0765517E0,1.3811804E0,1.629503E-2,-6.667413E-1,-7.764205E-1,6.5346365E-3,7.9170394E-1,-4.4447627E-2,-6.353249E-2,-4.251162E-2,-7.0096883E-3,-4.4355955E-2,-7.0535E-2,-1.9415496E-2,-6.393134E-2,1.4854126E-2,-4.5807507E-2,-6.455558E-2,-5.5319276E-2,-5.6254383E-2,-2.9935706E-3,-4.038377E-2,-5.031977E-2,-2.3530487E-2,-3.427309E-2,-4.514646E-2,-3.8071945E-2,-3.4871273E-2,-2.4385262E-2,-8.38838E-2,-1.9780245E-2,-1.4945407E-2,-3.418952E-2,-3.3602994E-2,-2.4114935E-2,-2.2820318E-2,-1.3945666E-2,-1.596925E-2,-8.321592E-3,-5.2179093E-3,-1.81341E-2,-2.1590492E-2,-1.2603725E-2,-8.669796E-2,1.1993275E-2,-3.8255618E-3,3.178581E-3,-3.8961973E-3,2.7917514E-3,-2.2844827E-2,-3.6746187E-3,9.240552E-3,1.2648312E-3,1.4268992E-2,7.893901E-3,7.179455E-3,-3.3515207E-2,1.9652199E-2,1.18852835E-2,1.31992E-2,2.0516926E-2,1.7746903E-2,2.4769483E-2,1.25389695E-2,1.9850213E-2,1.5934443E-2,2.4908682E-2,1.5631905E-2,3.13888E-2,2.3504967E-2,2.9969165E-2],"split_indices":[7,7,7,7,7,7,7,4,7,11,11,11,11,11,11,6,7,0,8,4,7,4,11,4,4,8,7,7,7,7,8,9,3,3,0,4,10,10,4,10,7,2,5,8,7,7,10,8,11,4,7,7,5,4,4,8,5,5,10,11,11,1,3,0,0,0,0,0,0,0,0,0,0,0,0,0,0,0,0,0,0,0,0,0,0,0,0,0,0,0,0,0,0,0,0,0,0,0,0,0,0,0,0,0,0,0,0,0,0,0,0,0,0,0,0,0,0,0,0,0,0,0,0,0,0,0,0],"split_type":[0,0,0,0,0,0,0,0,0,0,0,0,0,0,0,0,0,0,0,0,0,0,0,0,0,0,0,0,0,0,0,0,0,0,0,0,0,0,0,0,0,0,0,0,0,0,0,0,0,0,0,0,0,0,0,0,0,0,0,0,0,0,0,0,0,0,0,0,0,0,0,0,0,0,0,0,0,0,0,0,0,0,0,0,0,0,0,0,0,0,0,0,0,0,0,0,0,0,0,0,0,0,0,0,0,0,0,0,0,0,0,0,0,0,0,0,0,0,0,0,0,0,0,0,0,0,0],"sum_hessian":[4.1805547E5,1.00681836E5,3.1737362E5,3.935321E4,6.1328625E4,1.0299346E5,2.1438019E5,2.1679865E4,1.7673346E4,2.4698115E4,3.6630508E4,4.1273973E4,6.171949E4,8.693503E4,1.2744515E5,9.34642E2,2.0745223E4,4.9351216E3,1.2738224E4,1.9538385E4,5.159732E3,1.8534982E4,1.8095525E4,2.898678E4,1.2287192E4,2.955251E4,3.2166977E4,3.3134723E4,5.3800305E4,9.4164914E4,3.3280234E4,7.643903E2,1.7025171E2,1.3689032E4,7.0561904E3,3.7774414E1,4.897347E3,2.5775226E2,1.2480472E4,2.8263872E3,1.6711996E4,3.0634287E3,2.096303E3,3.1324358E3,1.5402547E4,1.242319E4,5.6723364E3,9.819397E3,1.916738E4,1.098787E3,1.1188406E4,2.6363957E4,3.1885527E3,1.1335954E4,2.0831021E4,1.2106411E4,2.1028314E4,3.0014209E4,2.3786096E4,5.0761984E4,4.3402934E4,9.34487E3,2.3935365E4,3.3066418E2,4.3372617E2,1.23780396E2,4.647131E1,1.2719727E2,1.3561835E4,5.9575195E1,6.996615E3,2.3425215E1,1.4349198E1,1.3695281E3,3.527819E3,7.0030876E1,1.8772137E2,2.2987334E3,1.0181738E4,1.4358873E3,1.3905E3,4.783322E3,1.1928675E4,2.097251E3,9.6617786E2,1.9874722E1,2.0764282E3,2.8555378E3,2.7689813E2,3.9313613E3,1.1471186E4,6.741427E3,5.681763E3,1.5683776E3,4.1039585E3,8.592418E3,1.2269799E3,3.6554368E3,1.5511944E4,4.2307935E0,1.0945562E3,7.3893374E3,3.7990684E3,9.61789E3,1.6746068E4,1.0937102E3,2.0948423E3,2.1117957E3,9.224159E3,5.5309736E3,1.5300049E4,1.2042349E4,6.406214E1,2.4546562E3,1.8573658E4,2.6148293E4,3.865917E3,1.8972102E4,4.813995E3,5.079595E3,4.568239E4,4.1264644E3,3.927647E4,6.4439166E2,8.700479E3,1.8632379E4,5.3029873E3],"tree_param":{"num_deleted":"0","num_feature":"43","num_nodes":"127","size_leaf_vector":"1"}},{"base_weights":[-3.4806732E-4,-7.774831E-1,2.3488915E-1,-1.159138E0,-5.243481E-1,-4.2476863E-2,3.6189035E-1,-1.3104782E0,-9.752137E-1,-6.9110006E-1,-4.0295634E-1,-1.8869005E-1,3.9753616E-2,2.538039E-1,4.267219E-1,-1.3517445E0,-1.1958603E0,-1.0703233E0,-8.9646983E-1,-7.544591E-1,-5.6210417E-1,-4.393774E-1,-2.0526761E-1,-2.821597E-1,-8.099697E-2,-1.6148338E-2,1.4690737E-1,2.2604698E-1,3.618009E-1,3.7332428E-1,4.629104E-1,-9.908522E-1,-1.3628736E0,-1.1503195E0,-1.3407199E0,-1.0075467E0,-1.2022597E0,-7.438511E-1,-9.464475E-1,-6.7887115E-1,-8.355116E-1,-6.594557E-1,-4.6687227E-1,-2.599673E-1,-4.7472852E-1,-3.2013598E-1,-1.5491489E-1,-1.8823336E-1,-3.3483458E-1,-1.0830112E-1,6.493467E-2,1.24552876E-1,-4.57603E-2,7.7478126E-2,2.0598954E-1,1.758805E-1,2.716792E-1,3.221096E-1,4.5994288E-1,2.730151E-1,4.0997848E-1,5.6909215E-1,4.415954E-1,-3.354379E-2,-6.330978E-2,-6.844086E-2,-4.5165453E-2,-6.5786384E-2,-5.2993752E-2,7.1210745E-3,-6.736228E-2,-5.9338897E-2,-4.3829914E-2,-6.1093193E-2,-5.9946463E-3,-3.9369814E-2,-2.1743694E-2,-1.0084116E-2,-4.7908273E-2,-3.815516E-2,-2.2587122E-2,-4.7364924E-2,-3.8469728E-2,-3.5456043E-2,-2.6605586E-2,-2.4991874E-2,-4.3861857E-3,8.690441E-3,-1.3880384E-2,-3.027471E-2,-2.1719744E-2,-1.7710118E-2,1.5465374E-2,-7.338264E-2,-7.4305995E-3,-8.068676E-3,-2.4555009E-2,-1.56091275E-2,-2.8286392E-2,-1.3733657E-2,-4.140387E-3,-3.218219E-4,1.064549E-2,1.4377095E-2,3.560612E-3,-5.257604E-3,7.167444E-4,6.3201026E-3,8.259935E-5,9.199618E-3,1.7954675E-2,2.9579054E-3,9.990907E-3,7.5794617E-3,1.4401132E-2,2.196513E-2,1.3681317E-2,1.9832477E-2,2.7266255E-2,1.8678848E-2,1.1338074E-2,1.9547926E-2,2.5800584E-2,2.4815474E-2,3.028079E-2,1.8593084E-2,2.358776E-2],"categories":[],"categories_nodes":[],"categories_segments":[],"categories_sizes":[],"default_left":[0,0,0,0,0,0,0,0,0,0,0,0,0,0,0,0,0,0,0,0,0,0,0,0,0,0,0,0,0,0,0,0,0,0,0,0,0,0,0,0,0,0,0,0,0,0,0,0,0,0,0,0,0,0,0,0,0,0,0,0,0,0,0,0,0,0,0,0,0,0,0,0,0,0,0,0,0,0,0,0,0,0,0,0,0,0,0,0,0,0,0,0,0,0,0,0,0,0,0,0,0,0,0,0,0,0,0,0,0,0,0,0,0,0,0,0,0,0,0,0,0,0,0,0,0,0,0],"id":10,"left_children":[1,3,5,7,9,11,13,15,17,19,21,23,25,27,29,31,33,35,37,39,41,43,45,47,49,51,53,55,57,59,61,63,65,67,69,71,73,75,77,79,81,83,85,87,89,91,93,95,97,99,101,103,105,107,109,111,113,115,117,119,121,123,125,-1,-1,-1,-1,-1,-1,-1,-1,-1,-1,-1,-1,-1,-1,-1,-1,-1,-1,-1,-1,-1,-1,-1,-1,-1,-1,-1,-1,-1,-1,-1,-1,-1,-1,-1,-1,-1,-1,-1,-1,-1,-1,-1,-1,-1,-1,-1,-1,-1,-1,-1,-1,-1,-1,-1,-1,-1,-1,-1,-1,-1,-1,-1,-1],"loss_changes":[7.612964E4,9.347855E3,1.1260797E4,1.0727734E3,1.1774131E3,1.2071613E3,1.5364277E3,9.849219E1,1.2951758E2,1.9989062E2,2.4234619E2,3.637727E2,3.8494025E2,2.4636768E2,2.646797E2,6.1123047E1,3.5478516E1,6.410254E1,7.204053E1,1.0011328E2,7.457251E1,1.8020508E2,3.025975E1,9.566113E1,6.692402E1,1.7596085E2,9.035901E1,1.4968115E2,6.532593E1,2.0347314E2,1.8463477E2,4.0469116E1,3.997461E1,6.258203E1,1.3123535E1,1.2451318E2,5.3691162E1,3.1374268E1,6.2473633E1,1.6243701E2,5.784961E1,2.4867432E1,5.1029724E1,3.5877655E1,1.2500537E2,3.433412E1,2.9942276E1,5.649173E1,6.46499E1,5.9982544E1,2.7963049E1,6.381884E1,1.2452798E2,3.7581184E1,4.00188E1,8.704608E1,6.7177E1,6.789966E1,2.592804E1,6.885474E1,8.157861E1,3.599414E1,1.4291992E2,0E0,0E0,0E0,0E0,0E0,0E0,0E0,0E0,0E0,0E0,0E0,0E0,0E0,0E0,0E0,0E0,0E0,0E0,0E0,0E0,0E0,0E0,0E0,0E0,0E0,0E0,0E0,0E0,0E0,0E0,0E0,0E0,0E0,0E0,0E0,0E0,0E0,0E0,0E0,0E0,0E0,0E0,0E0,0E0,0E0,0E0,0E0,0E0,0E0,0E0,0E0,0E0,0E0,0E0,0E0,0E0,0E0,0E0,0E0,0E0,0E0,0E0,0E0,0E0],"parents":[2147483647,0,0,1,1,2,2,3,3,4,4,5,5,6,6,7,7,8,8,9,9,10,10,11,11,12,12,13,13,14,14,15,15,16,16,17,17,18,18,19,19,20,20,21,21,22,22,23,23,24,24,25,25,26,26,27,27,28,28,29,29,30,30,31,31,32,32,33,33,34,34,35,35,36,36,37,37,38,38,39,39,40,40,41,41,42,42,43,43,44,44,45,45,46,46,47,47,48,48,49,49,50,50,51,51,52,52,53,53,54,54,55,55,56,56,57,57,58,58,59,59,60,60,61,61,62,62],"right_children":[2,4,6,8,10,12,14,16,18,20,22,24,26,28,30,32,34,36,38,40,42,44,46,48,50,52,54,56,58,60,62,64,66,68,70,72,74,76,78,80,82,84,86,88,90,92,94,96,98,100,102,104,106,108,110,112,114,116,118,120,122,124,126,-1,-1,-1,-1,-1,-1,-1,-1,-1,-1,-1,-1,-1,-1,-1,-1,-1,-1,-1,-1,-1,-1,-1,-1,-1,-1,-1,-1,-1,-1,-1,-1,-1,-1,-1,-1,-1,-1,-1,-1,-1,-1,-1,-1,-1,-1,-1,-1,-1,-1,-1,-1,-1,-1,-1,-1,-1,-1,-1,-1,-1,-1,-1,-1],"split_conditions":[-3.7891266E-1,-5.164001E-1,-1.12585805E-1,-5.82842E-1,-4.5257095E-1,-2.980894E-1,2.0404735E-1,-6.0787845E-1,-5.505108E-1,1.8695988E-2,3.0155522E-1,-8.761601E-2,1.8695988E-2,2.5583383E-1,4.9961224E-1,-5.245178E-2,-2.9070372E-2,-2.9659316E-2,6.643358E-2,-3.0079989E-2,-4.8213762E-1,-1.5816537E-1,-2.2423971E-2,-7.976466E-3,6.9049376E-1,-4.6048135E-1,-2.2092482E-1,2.7793322E-2,-6.735428E-3,-4.1189718E-1,-1.2019386E0,9.859669E-3,5.0127834E-1,-3.1106431E-2,9.746417E-3,-3.1156912E-2,2.0830288E0,1.4558887E0,-8.111977E-1,-3.1213002E-2,-2.6671553E-1,5.28654E-1,1.7072057E0,-7.527437E-1,-4.3512398E-1,2.8244002E0,-7.005641E-3,1.4473417E0,1.4827362E0,-1.2059065E0,1.0487562E0,-7.643278E-1,-2.16251E-1,2.5618252E-1,1.6018451E0,-4.504494E-1,-5.46444E-1,-1.0376575E0,5.7192113E-2,-6.718091E-1,6.9049376E-1,9.755659E-3,-5.6592387E-1,-3.354379E-2,-6.330978E-2,-6.844086E-2,-4.5165453E-2,-6.5786384E-2,-5.2993752E-2,7.1210745E-3,-6.736228E-2,-5.9338897E-2,-4.3829914E-2,-6.1093193E-2,-5.9946463E-3,-3.9369814E-2,-2.1743694E-2,-1.0084116E-2,-4.7908273E-2,-3.815516E-2,-2.2587122E-2,-4.7364924E-2,-3.8469728E-2,-3.5456043E-2,-2.6605586E-2,-2.4991874E-2,-4.3861857E-3,8.690441E-3,-1.3880384E-2,-3.027471E-2,-2.1719744E-2,-1.7710118E-2,1.5465374E-2,-7.338264E-2,-7.4305995E-3,-8.068676E-3,-2.4555009E-2,-1.56091275E-2,-2.8286392E-2,-1.3733657E-2,-4.140387E-3,-3.218219E-4,1.064549E-2,1.4377095E-2,3.560612E-3,-5.257604E-3,7.167444E-4,6.3201026E-3,8.259935E-5,9.199618E-3,1.7954675E-2,2.9579054E-3,9.990907E-3,7.5794617E-3,1.4401132E-2,2.196513E-2,1.3681317E-2,1.9832477E-2,2.7266255E-2,1.8678848E-2,1.1338074E-2,1.9547926E-2,2.5800584E-2,2.4815474E-2,3.028079E-2,1.8593084E-2,2.358776E-2],"split_indices":[7,7,7,7,7,7,7,7,7,11,11,11,11,11,7,4,10,10,4,10,7,4,3,4,11,4,7,7,10,11,5,1,4,10,1,10,5,0,11,10,11,11,5,4,7,11,2,9,6,8,5,8,7,4,5,11,11,8,7,5,11,1,11,0,0,0,0,0,0,0,0,0,0,0,0,0,0,0,0,0,0,0,0,0,0,0,0,0,0,0,0,0,0,0,0,0,0,0,0,0,0,0,0,0,0,0,0,0,0,0,0,0,0,0,0,0,0,0,0,0,0,0,0,0,0,0,0],"split_type":[0,0,0,0,0,0,0,0,0,0,0,0,0,0,0,0,0,0,0,0,0,0,0,0,0,0,0,0,0,0,0,0,0,0,0,0,0,0,0,0,0,0,0,0,0,0,0,0,0,0,0,0,0,0,0,0,0,0,0,0,0,0,0,0,0,0,0,0,0,0,0,0,0,0,0,0,0,0,0,0,0,0,0,0,0,0,0,0,0,0,0,0,0,0,0,0,0,0,0,0,0,0,0,0,0,0,0,0,0,0,0,0,0,0,0,0,0,0,0,0,0,0,0,0,0,0,0],"sum_hessian":[4.1643684E5,9.676372E4,3.1967312E5,3.8585016E4,5.8178703E4,1.004012E5,2.1927192E5,2.1164168E4,1.7420846E4,2.4508062E4,3.367064E4,3.6139906E4,6.42613E4,8.22127E4,1.3705922E5,1.5553574E4,5.610594E3,7.8847646E3,9.536082E3,1.6432201E4,8.075863E3,2.8431379E4,5.239263E3,1.9346742E4,1.6793164E4,4.223054E4,2.203076E4,6.5405543E4,1.6807158E4,5.536996E4,8.168926E4,4.679781E2,1.5085596E4,4.2754326E3,1.3351613E3,5.3485215E3,2.536243E3,2.3563345E3,7.179747E3,8.507579E3,7.924621E3,3.9905574E3,4.0853054E3,4.6813677E3,2.375001E4,1.595083E3,3.64418E3,6.9530693E3,1.2393673E4,1.4146566E4,2.6465977E3,7.34197E3,3.488857E4,1.0129539E4,1.190122E4,3.1157225E4,3.424832E4,1.1970314E4,4.8368447E3,1.4820392E4,4.0549566E4,1.3652589E4,6.803667E4,2.180356E2,2.4994247E2,1.4891026E4,1.9456938E2,1.5065857E3,2.7688472E3,5.7576227E0,1.3294037E3,2.2545781E3,3.0939436E3,2.4909963E3,4.5246536E1,2.063912E3,2.9242224E2,1.114964E2,7.068251E3,6.204313E3,2.303266E3,2.9401926E3,4.9844287E3,2.8676016E3,1.1229559E3,3.7582268E3,3.2707846E2,1.8259193E2,4.498776E3,5.5953438E3,1.8154668E4,1.513602E3,8.148095E1,1.6305428E1,3.6278745E3,6.388074E3,5.649953E2,1.128855E4,1.1051237E3,1.8783723E3,1.2268194E4,1.7860902E3,8.605074E2,1.809235E3,5.5327354E3,1.7546602E4,1.734197E4,6.1565757E3,3.9729634E3,1.0408049E4,1.493171E3,5.3029526E3,2.5854271E4,4.103858E3,3.014446E4,3.5006191E3,8.469695E3,2.7809727E3,2.0558718E3,4.666877E3,1.0153516E4,3.4386156E4,6.1634097E3,4.5667583E3,9.085831E3,2.0545613E4,4.7491055E4],"tree_param":{"num_deleted":"0","num_feature":"43","num_nodes":"127","size_leaf_vector":"1"}},{"base_weights":[-3.8978955E-4,-7.472491E-1,2.2356704E-1,-1.1247914E0,-5.007228E-1,-1.186988E-2,3.5935456E-1,-1.2777325E0,-9.4083315E-1,-6.6193974E-1,-3.83953E-1,-1.3837543E-1,9.0450875E-2,2.8304923E-1,4.2306146E-1,-1.3198587E0,-1.161349E0,-1.0802412E0,-8.8723326E-1,-7.0096236E-1,-4.6229842E-1,-4.1881984E-1,-1.9517523E-1,-2.1852581E-1,-3.9682835E-2,1.666016E-2,1.5925819E-1,2.502651E-1,3.6508238E-1,5.26951E-1,4.040471E-1,-9.9424857E-1,-1.3327217E0,-1.115842E0,-1.3067864E0,-1.0229943E0,-1.2137824E0,-2.9524472E-1,-8.99599E-1,-4.3370008E-1,-7.2444963E-1,-5.529093E-1,-3.2888633E-1,-2.4734116E-1,-4.526818E-1,-3.045098E-1,-1.4727877E-1,-2.9987866E-1,-1.5077084E-1,-1.00299165E-1,3.226277E-2,3.7747618E-2,-1.6540547E-1,1.2985551E-1,2.5976035E-1,2.0057447E-1,2.886052E-1,3.3299026E-1,4.5440212E-1,5.7672334E-1,4.5551756E-1,3.4709173E-1,4.3283436E-1,-5.5234462E-2,-2.9124765E-2,-6.797166E-2,-6.256056E-2,-6.402664E-2,-5.131197E-2,-1.2651563E-2,-6.58202E-2,-6.030156E-2,-4.5112025E-2,-6.1732925E-2,-1.6596796E-2,-4.8324935E-2,1.0700024E-3,-4.536716E-2,-6.239506E-3,-4.392035E-5,-2.4200996E-2,-4.1377977E-2,-3.420552E-2,-3.1492893E-2,-1.6280811E-2,-7.969732E-2,-1.5695808E-2,8.2509555E-3,-1.3207562E-2,-2.8927265E-2,-2.0698022E-2,-1.6321337E-2,3.2327067E-2,-7.043006E-2,-7.0630983E-3,-1.3921583E-2,-2.4682721E-2,-1.8263439E-3,-9.8844925E-3,1.480809E-4,-6.864534E-3,1.2807265E-2,5.75657E-4,7.73842E-3,3.435013E-4,-2.683501E-2,-4.458639E-3,1.2068458E-2,5.18891E-3,8.7391855E-3,1.920001E-2,2.6185898E-2,9.741753E-3,4.9486426E-3,1.50117865E-2,2.063899E-2,1.49536505E-2,3.050823E-2,2.1511339E-2,3.2058664E-2,2.575067E-2,2.3665799E-2,1.038058E-2,2.1694705E-2,1.5786655E-2,1.977394E-2,2.3799723E-2],"categories":[],"categories_nodes":[],"categories_segments":[],"categories_sizes":[],"default_left":[0,0,0,0,0,0,0,0,0,0,0,0,0,0,0,0,0,0,0,0,0,0,0,0,0,0,0,0,0,0,0,0,0,0,0,0,0,0,0,0,0,0,0,0,0,0,0,0,0,0,0,0,0,0,0,0,0,0,0,0,0,0,0,0,0,0,0,0,0,0,0,0,0,0,0,0,0,0,0,0,0,0,0,0,0,0,0,0,0,0,0,0,0,0,0,0,0,0,0,0,0,0,0,0,0,0,0,0,0,0,0,0,0,0,0,0,0,0,0,0,0,0,0,0,0,0,0],"id":11,"left_children":[1,3,5,7,9,11,13,15,17,19,21,23,25,27,29,31,33,35,37,39,41,43,45,47,49,51,53,55,57,59,61,63,65,67,69,71,73,75,77,79,81,83,85,87,89,91,93,95,97,99,101,103,105,107,109,111,113,115,117,119,121,123,125,-1,-1,-1,-1,-1,-1,-1,-1,-1,-1,-1,-1,-1,-1,-1,-1,-1,-1,-1,-1,-1,-1,-1,-1,-1,-1,-1,-1,-1,-1,-1,-1,-1,-1,-1,-1,-1,-1,-1,-1,-1,-1,-1,-1,-1,-1,-1,-1,-1,-1,-1,-1,-1,-1,-1,-1,-1,-1,-1,-1,-1,-1,-1,-1],"loss_changes":[6.937811E4,8.905289E3,1.0201304E4,1.0622344E3,1.0895156E3,1.5108624E3,9.8366406E2,9.9640625E1,1.2728613E2,1.8910352E2,2.2090918E2,4.1284784E2,3.2763367E2,2.4756445E2,2.1765625E2,6.210547E1,3.489502E1,3.5160156E1,9.052246E1,1.2734863E2,4.791333E1,1.6444385E2,2.7376038E1,1.5871167E2,1.0201712E2,1.1955485E2,9.8640686E1,1.2529199E2,7.521216E1,6.039209E1,1.5271289E2,2.5707703E1,3.0009766E1,6.0523926E1,1.2874268E1,7.271753E1,2.579419E1,5.4273743E1,7.277734E1,3.5835358E1,7.718555E1,4.120874E1,3.0021927E1,3.2453613E1,1.1509326E2,3.343982E1,2.7448898E1,5.4249146E1,8.423471E1,4.849537E1,4.9690308E1,1.0083502E2,9.144311E1,7.510559E1,7.971527E1,5.3051025E1,8.18772E1,5.223047E1,2.5896118E1,3.964258E1,3.083313E1,8.508008E1,9.965332E1,0E0,0E0,0E0,0E0,0E0,0E0,0E0,0E0,0E0,0E0,0E0,0E0,0E0,0E0,0E0,0E0,0E0,0E0,0E0,0E0,0E0,0E0,0E0,0E0,0E0,0E0,0E0,0E0,0E0,0E0,0E0,0E0,0E0,0E0,0E0,0E0,0E0,0E0,0E0,0E0,0E0,0E0,0E0,0E0,0E0,0E0,0E0,0E0,0E0,0E0,0E0,0E0,0E0,0E0,0E0,0E0,0E0,0E0,0E0,0E0,0E0,0E0,0E0,0E0],"parents":[2147483647,0,0,1,1,2,2,3,3,4,4,5,5,6,6,7,7,8,8,9,9,10,10,11,11,12,12,13,13,14,14,15,15,16,16,17,17,18,18,19,19,20,20,21,21,22,22,23,23,24,24,25,25,26,26,27,27,28,28,29,29,30,30,31,31,32,32,33,33,34,34,35,35,36,36,37,37,38,38,39,39,40,40,41,41,42,42,43,43,44,44,45,45,46,46,47,47,48,48,49,49,50,50,51,51,52,52,53,53,54,54,55,55,56,56,57,57,58,58,59,59,60,60,61,61,62,62],"right_children":[2,4,6,8,10,12,14,16,18,20,22,24,26,28,30,32,34,36,38,40,42,44,46,48,50,52,54,56,58,60,62,64,66,68,70,72,74,76,78,80,82,84,86,88,90,92,94,96,98,100,102,104,106,108,110,112,114,116,118,120,122,124,126,-1,-1,-1,-1,-1,-1,-1,-1,-1,-1,-1,-1,-1,-1,-1,-1,-1,-1,-1,-1,-1,-1,-1,-1,-1,-1,-1,-1,-1,-1,-1,-1,-1,-1,-1,-1,-1,-1,-1,-1,-1,-1,-1,-1,-1,-1,-1,-1,-1,-1,-1,-1,-1,-1,-1,-1,-1,-1,-1,-1,-1,-1,-1,-1],"split_conditions":[-3.7891266E-1,-5.164001E-1,-5.5635687E-2,-5.82842E-1,-4.5257095E-1,-2.567055E-1,3.3035415E-1,-6.0787845E-1,-5.6244236E-1,2.6719335E-1,3.0155522E-1,-7.567594E-2,-1.4635885E-1,9.336256E-2,-1.2172599E0,-7.426492E-2,-2.9070372E-2,-2.9569572E-2,-1.5754547E0,-1.7530824E-1,-4.762712E-1,-1.5816537E-1,-2.2423971E-2,-3.273516E-1,-3.1682074E-1,1.2747281E0,5.067847E-1,9.52387E-2,1.1672639E0,-1.0814267E0,-4.9478203E-1,1.127614E0,1.8653764E-1,-3.1106431E-2,-2.0767823E-1,-3.1156912E-2,2.8244002E0,-3.126348E-2,2.0830288E0,-6.011091E-1,-4.971194E-1,1.0151167E0,-2.3064494E0,-7.527437E-1,-4.3512398E-1,8.714939E-1,-7.005641E-3,1.3492489E-1,-1.4974858E-1,-1.0951691E-1,-5.5084646E-1,-4.6048135E-1,9.802359E-3,-4.892668E-1,-2.398864E-2,-1.6964417E0,-6.7548966E-1,-1.0376575E0,7.954239E-1,-1.5151725E0,-4.3057604E-3,-7.269214E-1,2.4373405E-1,-5.5234462E-2,-2.9124765E-2,-6.797166E-2,-6.256056E-2,-6.402664E-2,-5.131197E-2,-1.2651563E-2,-6.58202E-2,-6.030156E-2,-4.5112025E-2,-6.1732925E-2,-1.6596796E-2,-4.8324935E-2,1.0700024E-3,-4.536716E-2,-6.239506E-3,-4.392035E-5,-2.4200996E-2,-4.1377977E-2,-3.420552E-2,-3.1492893E-2,-1.6280811E-2,-7.969732E-2,-1.5695808E-2,8.2509555E-3,-1.3207562E-2,-2.8927265E-2,-2.0698022E-2,-1.6321337E-2,3.2327067E-2,-7.043006E-2,-7.0630983E-3,-1.3921583E-2,-2.4682721E-2,-1.8263439E-3,-9.8844925E-3,1.480809E-4,-6.864534E-3,1.2807265E-2,5.75657E-4,7.73842E-3,3.435013E-4,-2.683501E-2,-4.458639E-3,1.2068458E-2,5.18891E-3,8.7391855E-3,1.920001E-2,2.6185898E-2,9.741753E-3,4.9486426E-3,1.50117865E-2,2.063899E-2,1.49536505E-2,3.050823E-2,2.1511339E-2,3.2058664E-2,2.575067E-2,2.3665799E-2,1.038058E-2,2.1694705E-2,1.5786655E-2,1.977394E-2,2.3799723E-2],"split_indices":[7,7,7,7,7,7,7,7,7,11,11,11,11,11,5,3,10,10,8,4,7,4,3,7,7,8,11,7,5,0,11,6,4,10,3,10,11,10,5,11,7,0,5,4,7,4,2,10,4,4,4,4,1,4,10,5,11,8,8,5,2,5,6,0,0,0,0,0,0,0,0,0,0,0,0,0,0,0,0,0,0,0,0,0,0,0,0,0,0,0,0,0,0,0,0,0,0,0,0,0,0,0,0,0,0,0,0,0,0,0,0,0,0,0,0,0,0,0,0,0,0,0,0,0,0,0,0],"split_type":[0,0,0,0,0,0,0,0,0,0,0,0,0,0,0,0,0,0,0,0,0,0,0,0,0,0,0,0,0,0,0,0,0,0,0,0,0,0,0,0,0,0,0,0,0,0,0,0,0,0,0,0,0,0,0,0,0,0,0,0,0,0,0,0,0,0,0,0,0,0,0,0,0,0,0,0,0,0,0,0,0,0,0,0,0,0,0,0,0,0,0,0,0,0,0,0,0,0,0,0,0,0,0,0,0,0,0,0,0,0,0,0,0,0,0,0,0,0,0,0,0,0,0,0,0,0,0],"sum_hessian":[4.1477944E5,9.568461E4,3.190948E5,3.7796957E4,5.7887652E4,1.16719734E5,2.023751E5,2.0635148E4,1.7161809E4,2.4314059E4,3.3573594E4,5.2191617E4,6.4528117E4,9.208506E4,1.1029003E5,1.5143478E4,5.491671E3,4.7606597E3,1.2401149E4,2.0336498E4,3.97756E3,2.8338344E4,5.235248E3,2.8800723E4,2.3390895E4,3.113712E4,3.3390996E4,6.579463E4,2.6290434E4,1.7058727E4,9.3231305E4,5.784745E2,1.4565003E4,4.189468E3,1.3022031E3,3.3382644E3,1.4223956E3,2.542496E2,1.2146899E4,1.6443904E3,1.869211E4,2.366878E3,1.6106823E3,4.674539E3,2.3663805E4,1.5931542E3,3.6420938E3,1.3085564E4,1.5715158E4,1.2694773E4,1.0696122E4,2.7905771E4,3.2313484E3,2.5835047E4,7.55595E3,2.8658314E4,3.7136316E4,1.9344703E4,6.9457295E3,1.0049504E4,7.0092217E3,3.1305875E4,6.1925426E4,4.5480386E2,1.23670654E2,1.0958244E4,3.6067593E3,1.4715137E3,2.717954E3,1.20245695E1,1.2901786E3,1.3233552E3,2.014909E3,1.389111E3,3.328464E1,8.083516E1,1.7341444E2,1.2026523E4,1.2037575E2,1.713715E2,1.4730189E3,5.2509087E3,1.34412E4,1.7669261E3,5.9995166E2,1.7603653E1,1.5930786E3,1.8275084E2,4.491788E3,5.564034E3,1.8099771E4,1.5579089E3,3.52452E1,1.6184427E1,3.6259094E3,1.1783778E4,1.3017861E3,4.5756357E3,1.1139522E4,3.3484866E3,9.346287E3,9.062796E2,9.789843E3,5.82521E3,2.208056E4,5.494052E2,2.681943E3,4.894896E3,2.094015E4,4.4884087E3,3.0675415E3,4.9854807E2,2.8159768E4,2.146567E3,3.498975E4,5.76694E3,1.3577764E4,9.299289E2,6.015801E3,4.9110312E3,5.1384727E3,6.5388555E3,4.7036603E2,8.304827E3,2.3001049E4,3.3200324E4,2.8725104E4],"tree_param":{"num_deleted":"0","num_feature":"43","num_nodes":"127","size_leaf_vector":"1"}},{"base_weights":[-4.2922393E-4,-7.184445E-1,2.1279618E-1,-1.0923631E0,-4.7822863E-1,-3.889317E-2,3.2851395E-1,-1.2472177E0,-9.0813E-1,-6.3416696E-1,-3.658716E-1,-1.7103694E-1,